digraph Tree {
node [shape=box] ;
0 [label="X[0] <= 1.352\ngini = 0.857\nsamples = 14421\nvalue = [2061, 2060, 2060, 2060, 2060, 2060, 2060]"] ;
1 [label="X[0] <= -3.633\ngini = 0.772\nsamples = 8467\nvalue = [2058, 1990, 92, 0, 1952, 315, 2060]"] ;
0 -> 1 [labeldistance=2.5, labelangle=45, headlabel="True"] ;
2 [label="X[1] <= 2.5\ngini = 0.285\nsamples = 2305\nvalue = [364, 27, 0, 0, 0, 0, 1914]"] ;
1 -> 2 ;
3 [label="X[3] <= 1.982\ngini = 0.513\nsamples = 673\nvalue = [274, 18, 0, 0, 0, 0, 381]"] ;
2 -> 3 ;
4 [label="X[2] <= -0.971\ngini = 0.491\nsamples = 593\nvalue = [210, 16, 0, 0, 0, 0, 367]"] ;
3 -> 4 ;
5 [label="X[1] <= -0.711\ngini = 0.26\nsamples = 133\nvalue = [18, 2, 0, 0, 0, 0, 113]"] ;
4 -> 5 ;
6 [label="X[5] <= 0.325\ngini = 0.395\nsamples = 70\nvalue = [16, 2, 0, 0, 0, 0, 52]"] ;
5 -> 6 ;
7 [label="X[2] <= -1.147\ngini = 0.522\nsamples = 31\nvalue = [13, 1, 0, 0, 0, 0, 17]"] ;
6 -> 7 ;
8 [label="X[0] <= -3.659\ngini = 0.43\nsamples = 11\nvalue = [8, 1, 0, 0, 0, 0, 2]"] ;
7 -> 8 ;
9 [label="X[0] <= -3.99\ngini = 0.198\nsamples = 9\nvalue = [8, 0, 0, 0, 0, 0, 1]"] ;
8 -> 9 ;
10 [label="gini = 0.0\nsamples = 1\nvalue = [0, 0, 0, 0, 0, 0, 1]"] ;
9 -> 10 ;
11 [label="gini = 0.0\nsamples = 8\nvalue = [8, 0, 0, 0, 0, 0, 0]"] ;
9 -> 11 ;
12 [label="X[1] <= -1.016\ngini = 0.5\nsamples = 2\nvalue = [0, 1, 0, 0, 0, 0, 1]"] ;
8 -> 12 ;
13 [label="gini = 0.0\nsamples = 1\nvalue = [0, 1, 0, 0, 0, 0, 0]"] ;
12 -> 13 ;
14 [label="gini = 0.0\nsamples = 1\nvalue = [0, 0, 0, 0, 0, 0, 1]"] ;
12 -> 14 ;
15 [label="X[1] <= -1.292\ngini = 0.375\nsamples = 20\nvalue = [5, 0, 0, 0, 0, 0, 15]"] ;
7 -> 15 ;
16 [label="gini = 0.0\nsamples = 2\nvalue = [2, 0, 0, 0, 0, 0, 0]"] ;
15 -> 16 ;
17 [label="X[1] <= -0.895\ngini = 0.278\nsamples = 18\nvalue = [3, 0, 0, 0, 0, 0, 15]"] ;
15 -> 17 ;
18 [label="X[4] <= -0.106\ngini = 0.117\nsamples = 16\nvalue = [1, 0, 0, 0, 0, 0, 15]"] ;
17 -> 18 ;
19 [label="gini = 0.0\nsamples = 15\nvalue = [0, 0, 0, 0, 0, 0, 15]"] ;
18 -> 19 ;
20 [label="gini = 0.0\nsamples = 1\nvalue = [1, 0, 0, 0, 0, 0, 0]"] ;
18 -> 20 ;
21 [label="gini = 0.0\nsamples = 2\nvalue = [2, 0, 0, 0, 0, 0, 0]"] ;
17 -> 21 ;
22 [label="X[1] <= -1.594\ngini = 0.188\nsamples = 39\nvalue = [3, 1, 0, 0, 0, 0, 35]"] ;
6 -> 22 ;
23 [label="gini = 0.0\nsamples = 2\nvalue = [2, 0, 0, 0, 0, 0, 0]"] ;
22 -> 23 ;
24 [label="X[2] <= -0.999\ngini = 0.104\nsamples = 37\nvalue = [1, 1, 0, 0, 0, 0, 35]"] ;
22 -> 24 ;
25 [label="X[4] <= 0.364\ngini = 0.054\nsamples = 36\nvalue = [1, 0, 0, 0, 0, 0, 35]"] ;
24 -> 25 ;
26 [label="gini = 0.0\nsamples = 35\nvalue = [0, 0, 0, 0, 0, 0, 35]"] ;
25 -> 26 ;
27 [label="gini = 0.0\nsamples = 1\nvalue = [1, 0, 0, 0, 0, 0, 0]"] ;
25 -> 27 ;
28 [label="gini = 0.0\nsamples = 1\nvalue = [0, 1, 0, 0, 0, 0, 0]"] ;
24 -> 28 ;
29 [label="X[0] <= -3.68\ngini = 0.061\nsamples = 63\nvalue = [2, 0, 0, 0, 0, 0, 61]"] ;
5 -> 29 ;
30 [label="X[3] <= 0.908\ngini = 0.032\nsamples = 61\nvalue = [1, 0, 0, 0, 0, 0, 60]"] ;
29 -> 30 ;
31 [label="X[2] <= -1.072\ngini = 0.278\nsamples = 6\nvalue = [1, 0, 0, 0, 0, 0, 5]"] ;
30 -> 31 ;
32 [label="gini = 0.0\nsamples = 1\nvalue = [1, 0, 0, 0, 0, 0, 0]"] ;
31 -> 32 ;
33 [label="gini = 0.0\nsamples = 5\nvalue = [0, 0, 0, 0, 0, 0, 5]"] ;
31 -> 33 ;
34 [label="gini = 0.0\nsamples = 55\nvalue = [0, 0, 0, 0, 0, 0, 55]"] ;
30 -> 34 ;
35 [label="X[2] <= -1.225\ngini = 0.5\nsamples = 2\nvalue = [1, 0, 0, 0, 0, 0, 1]"] ;
29 -> 35 ;
36 [label="gini = 0.0\nsamples = 1\nvalue = [0, 0, 0, 0, 0, 0, 1]"] ;
35 -> 36 ;
37 [label="gini = 0.0\nsamples = 1\nvalue = [1, 0, 0, 0, 0, 0, 0]"] ;
35 -> 37 ;
38 [label="X[1] <= -1.389\ngini = 0.52\nsamples = 460\nvalue = [192, 14, 0, 0, 0, 0, 254]"] ;
4 -> 38 ;
39 [label="X[1] <= -1.726\ngini = 0.32\nsamples = 20\nvalue = [16, 4, 0, 0, 0, 0, 0]"] ;
38 -> 39 ;
40 [label="gini = 0.0\nsamples = 2\nvalue = [0, 2, 0, 0, 0, 0, 0]"] ;
39 -> 40 ;
41 [label="X[3] <= 0.791\ngini = 0.198\nsamples = 18\nvalue = [16, 2, 0, 0, 0, 0, 0]"] ;
39 -> 41 ;
42 [label="X[0] <= -3.789\ngini = 0.5\nsamples = 4\nvalue = [2, 2, 0, 0, 0, 0, 0]"] ;
41 -> 42 ;
43 [label="gini = 0.0\nsamples = 2\nvalue = [2, 0, 0, 0, 0, 0, 0]"] ;
42 -> 43 ;
44 [label="gini = 0.0\nsamples = 2\nvalue = [0, 2, 0, 0, 0, 0, 0]"] ;
42 -> 44 ;
45 [label="gini = 0.0\nsamples = 14\nvalue = [14, 0, 0, 0, 0, 0, 0]"] ;
41 -> 45 ;
46 [label="X[5] <= -0.522\ngini = 0.506\nsamples = 440\nvalue = [176, 10, 0, 0, 0, 0, 254]"] ;
38 -> 46 ;
47 [label="X[0] <= -3.85\ngini = 0.225\nsamples = 32\nvalue = [3, 1, 0, 0, 0, 0, 28]"] ;
46 -> 47 ;
48 [label="X[5] <= -0.945\ngini = 0.067\nsamples = 29\nvalue = [1, 0, 0, 0, 0, 0, 28]"] ;
47 -> 48 ;
49 [label="X[5] <= -0.964\ngini = 0.375\nsamples = 4\nvalue = [1, 0, 0, 0, 0, 0, 3]"] ;
48 -> 49 ;
50 [label="gini = 0.0\nsamples = 3\nvalue = [0, 0, 0, 0, 0, 0, 3]"] ;
49 -> 50 ;
51 [label="gini = 0.0\nsamples = 1\nvalue = [1, 0, 0, 0, 0, 0, 0]"] ;
49 -> 51 ;
52 [label="gini = 0.0\nsamples = 25\nvalue = [0, 0, 0, 0, 0, 0, 25]"] ;
48 -> 52 ;
53 [label="X[3] <= 1.697\ngini = 0.444\nsamples = 3\nvalue = [2, 1, 0, 0, 0, 0, 0]"] ;
47 -> 53 ;
54 [label="gini = 0.0\nsamples = 2\nvalue = [2, 0, 0, 0, 0, 0, 0]"] ;
53 -> 54 ;
55 [label="gini = 0.0\nsamples = 1\nvalue = [0, 1, 0, 0, 0, 0, 0]"] ;
53 -> 55 ;
56 [label="X[5] <= 0.738\ngini = 0.513\nsamples = 408\nvalue = [173, 9, 0, 0, 0, 0, 226]"] ;
46 -> 56 ;
57 [label="X[0] <= -4.889\ngini = 0.52\nsamples = 320\nvalue = [150, 7, 0, 0, 0, 0, 163]"] ;
56 -> 57 ;
58 [label="X[5] <= 0.005\ngini = 0.456\nsamples = 88\nvalue = [57, 0, 0, 0, 0, 0, 31]"] ;
57 -> 58 ;
59 [label="X[4] <= -0.206\ngini = 0.435\nsamples = 25\nvalue = [8, 0, 0, 0, 0, 0, 17]"] ;
58 -> 59 ;
60 [label="X[2] <= 0.995\ngini = 0.219\nsamples = 8\nvalue = [7, 0, 0, 0, 0, 0, 1]"] ;
59 -> 60 ;
61 [label="gini = 0.0\nsamples = 7\nvalue = [7, 0, 0, 0, 0, 0, 0]"] ;
60 -> 61 ;
62 [label="gini = 0.0\nsamples = 1\nvalue = [0, 0, 0, 0, 0, 0, 1]"] ;
60 -> 62 ;
63 [label="X[0] <= -5.0\ngini = 0.111\nsamples = 17\nvalue = [1, 0, 0, 0, 0, 0, 16]"] ;
59 -> 63 ;
64 [label="gini = 0.0\nsamples = 15\nvalue = [0, 0, 0, 0, 0, 0, 15]"] ;
63 -> 64 ;
65 [label="X[4] <= -0.143\ngini = 0.5\nsamples = 2\nvalue = [1, 0, 0, 0, 0, 0, 1]"] ;
63 -> 65 ;
66 [label="gini = 0.0\nsamples = 1\nvalue = [0, 0, 0, 0, 0, 0, 1]"] ;
65 -> 66 ;
67 [label="gini = 0.0\nsamples = 1\nvalue = [1, 0, 0, 0, 0, 0, 0]"] ;
65 -> 67 ;
68 [label="X[3] <= 0.952\ngini = 0.346\nsamples = 63\nvalue = [49, 0, 0, 0, 0, 0, 14]"] ;
58 -> 68 ;
69 [label="X[5] <= 0.571\ngini = 0.204\nsamples = 52\nvalue = [46, 0, 0, 0, 0, 0, 6]"] ;
68 -> 69 ;
70 [label="X[2] <= 0.808\ngini = 0.122\nsamples = 46\nvalue = [43, 0, 0, 0, 0, 0, 3]"] ;
69 -> 70 ;
71 [label="X[5] <= 0.535\ngini = 0.053\nsamples = 37\nvalue = [36, 0, 0, 0, 0, 0, 1]"] ;
70 -> 71 ;
72 [label="gini = 0.0\nsamples = 32\nvalue = [32, 0, 0, 0, 0, 0, 0]"] ;
71 -> 72 ;
73 [label="X[5] <= 0.537\ngini = 0.32\nsamples = 5\nvalue = [4, 0, 0, 0, 0, 0, 1]"] ;
71 -> 73 ;
74 [label="gini = 0.0\nsamples = 1\nvalue = [0, 0, 0, 0, 0, 0, 1]"] ;
73 -> 74 ;
75 [label="gini = 0.0\nsamples = 4\nvalue = [4, 0, 0, 0, 0, 0, 0]"] ;
73 -> 75 ;
76 [label="X[0] <= -5.405\ngini = 0.346\nsamples = 9\nvalue = [7, 0, 0, 0, 0, 0, 2]"] ;
70 -> 76 ;
77 [label="X[1] <= 2.39\ngini = 0.444\nsamples = 3\nvalue = [1, 0, 0, 0, 0, 0, 2]"] ;
76 -> 77 ;
78 [label="gini = 0.0\nsamples = 2\nvalue = [0, 0, 0, 0, 0, 0, 2]"] ;
77 -> 78 ;
79 [label="gini = 0.0\nsamples = 1\nvalue = [1, 0, 0, 0, 0, 0, 0]"] ;
77 -> 79 ;
80 [label="gini = 0.0\nsamples = 6\nvalue = [6, 0, 0, 0, 0, 0, 0]"] ;
76 -> 80 ;
81 [label="X[1] <= 2.261\ngini = 0.5\nsamples = 6\nvalue = [3, 0, 0, 0, 0, 0, 3]"] ;
69 -> 81 ;
82 [label="X[5] <= 0.589\ngini = 0.375\nsamples = 4\nvalue = [3, 0, 0, 0, 0, 0, 1]"] ;
81 -> 82 ;
83 [label="gini = 0.0\nsamples = 1\nvalue = [0, 0, 0, 0, 0, 0, 1]"] ;
82 -> 83 ;
84 [label="gini = 0.0\nsamples = 3\nvalue = [3, 0, 0, 0, 0, 0, 0]"] ;
82 -> 84 ;
85 [label="gini = 0.0\nsamples = 2\nvalue = [0, 0, 0, 0, 0, 0, 2]"] ;
81 -> 85 ;
86 [label="X[5] <= 0.497\ngini = 0.397\nsamples = 11\nvalue = [3, 0, 0, 0, 0, 0, 8]"] ;
68 -> 86 ;
87 [label="gini = 0.0\nsamples = 7\nvalue = [0, 0, 0, 0, 0, 0, 7]"] ;
86 -> 87 ;
88 [label="X[4] <= -0.216\ngini = 0.375\nsamples = 4\nvalue = [3, 0, 0, 0, 0, 0, 1]"] ;
86 -> 88 ;
89 [label="gini = 0.0\nsamples = 1\nvalue = [0, 0, 0, 0, 0, 0, 1]"] ;
88 -> 89 ;
90 [label="gini = 0.0\nsamples = 3\nvalue = [3, 0, 0, 0, 0, 0, 0]"] ;
88 -> 90 ;
91 [label="X[2] <= -0.844\ngini = 0.515\nsamples = 232\nvalue = [93, 7, 0, 0, 0, 0, 132]"] ;
57 -> 91 ;
92 [label="X[1] <= -0.168\ngini = 0.416\nsamples = 29\nvalue = [21, 1, 0, 0, 0, 0, 7]"] ;
91 -> 92 ;
93 [label="X[4] <= 0.308\ngini = 0.278\nsamples = 25\nvalue = [21, 1, 0, 0, 0, 0, 3]"] ;
92 -> 93 ;
94 [label="X[1] <= -1.355\ngini = 0.163\nsamples = 23\nvalue = [21, 1, 0, 0, 0, 0, 1]"] ;
93 -> 94 ;
95 [label="gini = 0.0\nsamples = 1\nvalue = [0, 1, 0, 0, 0, 0, 0]"] ;
94 -> 95 ;
96 [label="X[4] <= -0.153\ngini = 0.087\nsamples = 22\nvalue = [21, 0, 0, 0, 0, 0, 1]"] ;
94 -> 96 ;
97 [label="gini = 0.0\nsamples = 19\nvalue = [19, 0, 0, 0, 0, 0, 0]"] ;
96 -> 97 ;
98 [label="X[3] <= 1.08\ngini = 0.444\nsamples = 3\nvalue = [2, 0, 0, 0, 0, 0, 1]"] ;
96 -> 98 ;
99 [label="gini = 0.0\nsamples = 1\nvalue = [0, 0, 0, 0, 0, 0, 1]"] ;
98 -> 99 ;
100 [label="gini = 0.0\nsamples = 2\nvalue = [2, 0, 0, 0, 0, 0, 0]"] ;
98 -> 100 ;
101 [label="gini = 0.0\nsamples = 2\nvalue = [0, 0, 0, 0, 0, 0, 2]"] ;
93 -> 101 ;
102 [label="gini = 0.0\nsamples = 4\nvalue = [0, 0, 0, 0, 0, 0, 4]"] ;
92 -> 102 ;
103 [label="X[2] <= -0.523\ngini = 0.494\nsamples = 203\nvalue = [72, 6, 0, 0, 0, 0, 125]"] ;
91 -> 103 ;
104 [label="X[5] <= -0.096\ngini = 0.346\nsamples = 78\nvalue = [16, 1, 0, 0, 0, 0, 61]"] ;
103 -> 104 ;
105 [label="X[3] <= 1.232\ngini = 0.537\nsamples = 23\nvalue = [10, 1, 0, 0, 0, 0, 12]"] ;
104 -> 105 ;
106 [label="X[2] <= -0.579\ngini = 0.526\nsamples = 17\nvalue = [10, 1, 0, 0, 0, 0, 6]"] ;
105 -> 106 ;
107 [label="X[4] <= -0.547\ngini = 0.408\nsamples = 14\nvalue = [10, 0, 0, 0, 0, 0, 4]"] ;
106 -> 107 ;
108 [label="X[2] <= -0.599\ngini = 0.198\nsamples = 9\nvalue = [8, 0, 0, 0, 0, 0, 1]"] ;
107 -> 108 ;
109 [label="gini = 0.0\nsamples = 7\nvalue = [7, 0, 0, 0, 0, 0, 0]"] ;
108 -> 109 ;
110 [label="X[1] <= -0.526\ngini = 0.5\nsamples = 2\nvalue = [1, 0, 0, 0, 0, 0, 1]"] ;
108 -> 110 ;
111 [label="gini = 0.0\nsamples = 1\nvalue = [0, 0, 0, 0, 0, 0, 1]"] ;
110 -> 111 ;
112 [label="gini = 0.0\nsamples = 1\nvalue = [1, 0, 0, 0, 0, 0, 0]"] ;
110 -> 112 ;
113 [label="X[1] <= -0.816\ngini = 0.48\nsamples = 5\nvalue = [2, 0, 0, 0, 0, 0, 3]"] ;
107 -> 113 ;
114 [label="gini = 0.0\nsamples = 1\nvalue = [1, 0, 0, 0, 0, 0, 0]"] ;
113 -> 114 ;
115 [label="X[2] <= -0.768\ngini = 0.375\nsamples = 4\nvalue = [1, 0, 0, 0, 0, 0, 3]"] ;
113 -> 115 ;
116 [label="gini = 0.0\nsamples = 1\nvalue = [1, 0, 0, 0, 0, 0, 0]"] ;
115 -> 116 ;
117 [label="gini = 0.0\nsamples = 3\nvalue = [0, 0, 0, 0, 0, 0, 3]"] ;
115 -> 117 ;
118 [label="X[0] <= -3.841\ngini = 0.444\nsamples = 3\nvalue = [0, 1, 0, 0, 0, 0, 2]"] ;
106 -> 118 ;
119 [label="gini = 0.0\nsamples = 2\nvalue = [0, 0, 0, 0, 0, 0, 2]"] ;
118 -> 119 ;
120 [label="gini = 0.0\nsamples = 1\nvalue = [0, 1, 0, 0, 0, 0, 0]"] ;
118 -> 120 ;
121 [label="gini = 0.0\nsamples = 6\nvalue = [0, 0, 0, 0, 0, 0, 6]"] ;
105 -> 121 ;
122 [label="X[3] <= 1.118\ngini = 0.194\nsamples = 55\nvalue = [6, 0, 0, 0, 0, 0, 49]"] ;
104 -> 122 ;
123 [label="X[0] <= -3.659\ngini = 0.05\nsamples = 39\nvalue = [1, 0, 0, 0, 0, 0, 38]"] ;
122 -> 123 ;
124 [label="gini = 0.0\nsamples = 35\nvalue = [0, 0, 0, 0, 0, 0, 35]"] ;
123 -> 124 ;
125 [label="X[0] <= -3.658\ngini = 0.375\nsamples = 4\nvalue = [1, 0, 0, 0, 0, 0, 3]"] ;
123 -> 125 ;
126 [label="gini = 0.0\nsamples = 1\nvalue = [1, 0, 0, 0, 0, 0, 0]"] ;
125 -> 126 ;
127 [label="gini = 0.0\nsamples = 3\nvalue = [0, 0, 0, 0, 0, 0, 3]"] ;
125 -> 127 ;
128 [label="X[5] <= -0.02\ngini = 0.43\nsamples = 16\nvalue = [5, 0, 0, 0, 0, 0, 11]"] ;
122 -> 128 ;
129 [label="gini = 0.0\nsamples = 3\nvalue = [3, 0, 0, 0, 0, 0, 0]"] ;
128 -> 129 ;
130 [label="X[4] <= -0.906\ngini = 0.26\nsamples = 13\nvalue = [2, 0, 0, 0, 0, 0, 11]"] ;
128 -> 130 ;
131 [label="gini = 0.0\nsamples = 1\nvalue = [1, 0, 0, 0, 0, 0, 0]"] ;
130 -> 131 ;
132 [label="X[0] <= -3.651\ngini = 0.153\nsamples = 12\nvalue = [1, 0, 0, 0, 0, 0, 11]"] ;
130 -> 132 ;
133 [label="gini = 0.0\nsamples = 11\nvalue = [0, 0, 0, 0, 0, 0, 11]"] ;
132 -> 133 ;
134 [label="gini = 0.0\nsamples = 1\nvalue = [1, 0, 0, 0, 0, 0, 0]"] ;
132 -> 134 ;
135 [label="X[5] <= 0.372\ngini = 0.536\nsamples = 125\nvalue = [56, 5, 0, 0, 0, 0, 64]"] ;
103 -> 135 ;
136 [label="X[2] <= 0.67\ngini = 0.524\nsamples = 99\nvalue = [53, 3, 0, 0, 0, 0, 43]"] ;
135 -> 136 ;
137 [label="X[2] <= 0.069\ngini = 0.496\nsamples = 81\nvalue = [49, 2, 0, 0, 0, 0, 30]"] ;
136 -> 137 ;
138 [label="X[4] <= -0.207\ngini = 0.517\nsamples = 55\nvalue = [26, 1, 0, 0, 0, 0, 28]"] ;
137 -> 138 ;
139 [label="X[3] <= 1.023\ngini = 0.487\nsamples = 35\nvalue = [22, 1, 0, 0, 0, 0, 12]"] ;
138 -> 139 ;
140 [label="X[4] <= -0.756\ngini = 0.533\nsamples = 22\nvalue = [9, 1, 0, 0, 0, 0, 12]"] ;
139 -> 140 ;
141 [label="X[4] <= -1.324\ngini = 0.314\nsamples = 11\nvalue = [1, 1, 0, 0, 0, 0, 9]"] ;
140 -> 141 ;
142 [label="X[5] <= -0.425\ngini = 0.5\nsamples = 2\nvalue = [1, 1, 0, 0, 0, 0, 0]"] ;
141 -> 142 ;
143 [label="gini = 0.0\nsamples = 1\nvalue = [1, 0, 0, 0, 0, 0, 0]"] ;
142 -> 143 ;
144 [label="gini = 0.0\nsamples = 1\nvalue = [0, 1, 0, 0, 0, 0, 0]"] ;
142 -> 144 ;
145 [label="gini = 0.0\nsamples = 9\nvalue = [0, 0, 0, 0, 0, 0, 9]"] ;
141 -> 145 ;
146 [label="X[0] <= -3.692\ngini = 0.397\nsamples = 11\nvalue = [8, 0, 0, 0, 0, 0, 3]"] ;
140 -> 146 ;
147 [label="X[3] <= 0.907\ngini = 0.198\nsamples = 9\nvalue = [8, 0, 0, 0, 0, 0, 1]"] ;
146 -> 147 ;
148 [label="gini = 0.0\nsamples = 7\nvalue = [7, 0, 0, 0, 0, 0, 0]"] ;
147 -> 148 ;
149 [label="X[0] <= -3.979\ngini = 0.5\nsamples = 2\nvalue = [1, 0, 0, 0, 0, 0, 1]"] ;
147 -> 149 ;
150 [label="gini = 0.0\nsamples = 1\nvalue = [1, 0, 0, 0, 0, 0, 0]"] ;
149 -> 150 ;
151 [label="gini = 0.0\nsamples = 1\nvalue = [0, 0, 0, 0, 0, 0, 1]"] ;
149 -> 151 ;
152 [label="gini = 0.0\nsamples = 2\nvalue = [0, 0, 0, 0, 0, 0, 2]"] ;
146 -> 152 ;
153 [label="gini = 0.0\nsamples = 13\nvalue = [13, 0, 0, 0, 0, 0, 0]"] ;
139 -> 153 ;
154 [label="X[4] <= 0.504\ngini = 0.32\nsamples = 20\nvalue = [4, 0, 0, 0, 0, 0, 16]"] ;
138 -> 154 ;
155 [label="gini = 0.0\nsamples = 13\nvalue = [0, 0, 0, 0, 0, 0, 13]"] ;
154 -> 155 ;
156 [label="X[3] <= -0.078\ngini = 0.49\nsamples = 7\nvalue = [4, 0, 0, 0, 0, 0, 3]"] ;
154 -> 156 ;
157 [label="gini = 0.0\nsamples = 4\nvalue = [4, 0, 0, 0, 0, 0, 0]"] ;
156 -> 157 ;
158 [label="gini = 0.0\nsamples = 3\nvalue = [0, 0, 0, 0, 0, 0, 3]"] ;
156 -> 158 ;
159 [label="X[0] <= -3.92\ngini = 0.21\nsamples = 26\nvalue = [23, 1, 0, 0, 0, 0, 2]"] ;
137 -> 159 ;
160 [label="X[0] <= -4.815\ngini = 0.147\nsamples = 25\nvalue = [23, 0, 0, 0, 0, 0, 2]"] ;
159 -> 160 ;
161 [label="X[5] <= 0.252\ngini = 0.5\nsamples = 4\nvalue = [2, 0, 0, 0, 0, 0, 2]"] ;
160 -> 161 ;
162 [label="gini = 0.0\nsamples = 2\nvalue = [0, 0, 0, 0, 0, 0, 2]"] ;
161 -> 162 ;
163 [label="gini = 0.0\nsamples = 2\nvalue = [2, 0, 0, 0, 0, 0, 0]"] ;
161 -> 163 ;
164 [label="gini = 0.0\nsamples = 21\nvalue = [21, 0, 0, 0, 0, 0, 0]"] ;
160 -> 164 ;
165 [label="gini = 0.0\nsamples = 1\nvalue = [0, 1, 0, 0, 0, 0, 0]"] ;
159 -> 165 ;
166 [label="X[2] <= 0.997\ngini = 0.426\nsamples = 18\nvalue = [4, 1, 0, 0, 0, 0, 13]"] ;
136 -> 166 ;
167 [label="X[3] <= 0.378\ngini = 0.133\nsamples = 14\nvalue = [1, 0, 0, 0, 0, 0, 13]"] ;
166 -> 167 ;
168 [label="gini = 0.0\nsamples = 11\nvalue = [0, 0, 0, 0, 0, 0, 11]"] ;
167 -> 168 ;
169 [label="X[1] <= 2.447\ngini = 0.444\nsamples = 3\nvalue = [1, 0, 0, 0, 0, 0, 2]"] ;
167 -> 169 ;
170 [label="gini = 0.0\nsamples = 2\nvalue = [0, 0, 0, 0, 0, 0, 2]"] ;
169 -> 170 ;
171 [label="gini = 0.0\nsamples = 1\nvalue = [1, 0, 0, 0, 0, 0, 0]"] ;
169 -> 171 ;
172 [label="X[5] <= 0.227\ngini = 0.375\nsamples = 4\nvalue = [3, 1, 0, 0, 0, 0, 0]"] ;
166 -> 172 ;
173 [label="gini = 0.0\nsamples = 3\nvalue = [3, 0, 0, 0, 0, 0, 0]"] ;
172 -> 173 ;
174 [label="gini = 0.0\nsamples = 1\nvalue = [0, 1, 0, 0, 0, 0, 0]"] ;
172 -> 174 ;
175 [label="X[4] <= 0.859\ngini = 0.328\nsamples = 26\nvalue = [3, 2, 0, 0, 0, 0, 21]"] ;
135 -> 175 ;
176 [label="X[3] <= -0.983\ngini = 0.219\nsamples = 24\nvalue = [3, 0, 0, 0, 0, 0, 21]"] ;
175 -> 176 ;
177 [label="X[0] <= -4.434\ngini = 0.444\nsamples = 3\nvalue = [2, 0, 0, 0, 0, 0, 1]"] ;
176 -> 177 ;
178 [label="gini = 0.0\nsamples = 2\nvalue = [2, 0, 0, 0, 0, 0, 0]"] ;
177 -> 178 ;
179 [label="gini = 0.0\nsamples = 1\nvalue = [0, 0, 0, 0, 0, 0, 1]"] ;
177 -> 179 ;
180 [label="X[4] <= -0.413\ngini = 0.091\nsamples = 21\nvalue = [1, 0, 0, 0, 0, 0, 20]"] ;
176 -> 180 ;
181 [label="gini = 0.0\nsamples = 1\nvalue = [1, 0, 0, 0, 0, 0, 0]"] ;
180 -> 181 ;
182 [label="gini = 0.0\nsamples = 20\nvalue = [0, 0, 0, 0, 0, 0, 20]"] ;
180 -> 182 ;
183 [label="gini = 0.0\nsamples = 2\nvalue = [0, 2, 0, 0, 0, 0, 0]"] ;
175 -> 183 ;
184 [label="X[0] <= -5.392\ngini = 0.419\nsamples = 88\nvalue = [23, 2, 0, 0, 0, 0, 63]"] ;
56 -> 184 ;
185 [label="gini = 0.0\nsamples = 7\nvalue = [7, 0, 0, 0, 0, 0, 0]"] ;
184 -> 185 ;
186 [label="X[5] <= 1.82\ngini = 0.355\nsamples = 81\nvalue = [16, 2, 0, 0, 0, 0, 63]"] ;
184 -> 186 ;
187 [label="X[4] <= -0.78\ngini = 0.291\nsamples = 76\nvalue = [11, 2, 0, 0, 0, 0, 63]"] ;
186 -> 187 ;
188 [label="X[1] <= 2.421\ngini = 0.531\nsamples = 8\nvalue = [5, 1, 0, 0, 0, 0, 2]"] ;
187 -> 188 ;
189 [label="X[4] <= -1.12\ngini = 0.278\nsamples = 6\nvalue = [5, 1, 0, 0, 0, 0, 0]"] ;
188 -> 189 ;
190 [label="gini = 0.0\nsamples = 1\nvalue = [0, 1, 0, 0, 0, 0, 0]"] ;
189 -> 190 ;
191 [label="gini = 0.0\nsamples = 5\nvalue = [5, 0, 0, 0, 0, 0, 0]"] ;
189 -> 191 ;
192 [label="gini = 0.0\nsamples = 2\nvalue = [0, 0, 0, 0, 0, 0, 2]"] ;
188 -> 192 ;
193 [label="X[1] <= -0.392\ngini = 0.187\nsamples = 68\nvalue = [6, 1, 0, 0, 0, 0, 61]"] ;
187 -> 193 ;
194 [label="X[4] <= -0.082\ngini = 0.375\nsamples = 4\nvalue = [3, 0, 0, 0, 0, 0, 1]"] ;
193 -> 194 ;
195 [label="gini = 0.0\nsamples = 3\nvalue = [3, 0, 0, 0, 0, 0, 0]"] ;
194 -> 195 ;
196 [label="gini = 0.0\nsamples = 1\nvalue = [0, 0, 0, 0, 0, 0, 1]"] ;
194 -> 196 ;
197 [label="X[3] <= -1.191\ngini = 0.119\nsamples = 64\nvalue = [3, 1, 0, 0, 0, 0, 60]"] ;
193 -> 197 ;
198 [label="gini = 0.0\nsamples = 1\nvalue = [1, 0, 0, 0, 0, 0, 0]"] ;
197 -> 198 ;
199 [label="X[3] <= 1.84\ngini = 0.092\nsamples = 63\nvalue = [2, 1, 0, 0, 0, 0, 60]"] ;
197 -> 199 ;
200 [label="X[2] <= 0.751\ngini = 0.063\nsamples = 61\nvalue = [2, 0, 0, 0, 0, 0, 59]"] ;
199 -> 200 ;
201 [label="X[0] <= -5.348\ngini = 0.033\nsamples = 59\nvalue = [1, 0, 0, 0, 0, 0, 58]"] ;
200 -> 201 ;
202 [label="X[2] <= 0.562\ngini = 0.444\nsamples = 3\nvalue = [1, 0, 0, 0, 0, 0, 2]"] ;
201 -> 202 ;
203 [label="gini = 0.0\nsamples = 2\nvalue = [0, 0, 0, 0, 0, 0, 2]"] ;
202 -> 203 ;
204 [label="gini = 0.0\nsamples = 1\nvalue = [1, 0, 0, 0, 0, 0, 0]"] ;
202 -> 204 ;
205 [label="gini = 0.0\nsamples = 56\nvalue = [0, 0, 0, 0, 0, 0, 56]"] ;
201 -> 205 ;
206 [label="X[4] <= 0.863\ngini = 0.5\nsamples = 2\nvalue = [1, 0, 0, 0, 0, 0, 1]"] ;
200 -> 206 ;
207 [label="gini = 0.0\nsamples = 1\nvalue = [1, 0, 0, 0, 0, 0, 0]"] ;
206 -> 207 ;
208 [label="gini = 0.0\nsamples = 1\nvalue = [0, 0, 0, 0, 0, 0, 1]"] ;
206 -> 208 ;
209 [label="X[0] <= -4.21\ngini = 0.5\nsamples = 2\nvalue = [0, 1, 0, 0, 0, 0, 1]"] ;
199 -> 209 ;
210 [label="gini = 0.0\nsamples = 1\nvalue = [0, 0, 0, 0, 0, 0, 1]"] ;
209 -> 210 ;
211 [label="gini = 0.0\nsamples = 1\nvalue = [0, 1, 0, 0, 0, 0, 0]"] ;
209 -> 211 ;
212 [label="gini = 0.0\nsamples = 5\nvalue = [5, 0, 0, 0, 0, 0, 0]"] ;
186 -> 212 ;
213 [label="X[1] <= -0.604\ngini = 0.329\nsamples = 80\nvalue = [64, 2, 0, 0, 0, 0, 14]"] ;
3 -> 213 ;
214 [label="X[0] <= -3.717\ngini = 0.135\nsamples = 56\nvalue = [52, 2, 0, 0, 0, 0, 2]"] ;
213 -> 214 ;
215 [label="gini = 0.0\nsamples = 40\nvalue = [40, 0, 0, 0, 0, 0, 0]"] ;
214 -> 215 ;
216 [label="X[0] <= -3.712\ngini = 0.406\nsamples = 16\nvalue = [12, 2, 0, 0, 0, 0, 2]"] ;
214 -> 216 ;
217 [label="X[5] <= 0.088\ngini = 0.444\nsamples = 3\nvalue = [1, 0, 0, 0, 0, 0, 2]"] ;
216 -> 217 ;
218 [label="gini = 0.0\nsamples = 1\nvalue = [1, 0, 0, 0, 0, 0, 0]"] ;
217 -> 218 ;
219 [label="gini = 0.0\nsamples = 2\nvalue = [0, 0, 0, 0, 0, 0, 2]"] ;
217 -> 219 ;
220 [label="X[3] <= 2.021\ngini = 0.26\nsamples = 13\nvalue = [11, 2, 0, 0, 0, 0, 0]"] ;
216 -> 220 ;
221 [label="gini = 0.0\nsamples = 1\nvalue = [0, 1, 0, 0, 0, 0, 0]"] ;
220 -> 221 ;
222 [label="X[1] <= -0.917\ngini = 0.153\nsamples = 12\nvalue = [11, 1, 0, 0, 0, 0, 0]"] ;
220 -> 222 ;
223 [label="gini = 0.0\nsamples = 10\nvalue = [10, 0, 0, 0, 0, 0, 0]"] ;
222 -> 223 ;
224 [label="X[3] <= 2.509\ngini = 0.5\nsamples = 2\nvalue = [1, 1, 0, 0, 0, 0, 0]"] ;
222 -> 224 ;
225 [label="gini = 0.0\nsamples = 1\nvalue = [1, 0, 0, 0, 0, 0, 0]"] ;
224 -> 225 ;
226 [label="gini = 0.0\nsamples = 1\nvalue = [0, 1, 0, 0, 0, 0, 0]"] ;
224 -> 226 ;
227 [label="X[2] <= -0.413\ngini = 0.5\nsamples = 24\nvalue = [12, 0, 0, 0, 0, 0, 12]"] ;
213 -> 227 ;
228 [label="X[4] <= -2.432\ngini = 0.48\nsamples = 20\nvalue = [12, 0, 0, 0, 0, 0, 8]"] ;
227 -> 228 ;
229 [label="gini = 0.0\nsamples = 6\nvalue = [6, 0, 0, 0, 0, 0, 0]"] ;
228 -> 229 ;
230 [label="X[3] <= 2.786\ngini = 0.49\nsamples = 14\nvalue = [6, 0, 0, 0, 0, 0, 8]"] ;
228 -> 230 ;
231 [label="X[4] <= -0.919\ngini = 0.397\nsamples = 11\nvalue = [3, 0, 0, 0, 0, 0, 8]"] ;
230 -> 231 ;
232 [label="gini = 0.0\nsamples = 7\nvalue = [0, 0, 0, 0, 0, 0, 7]"] ;
231 -> 232 ;
233 [label="X[1] <= -0.444\ngini = 0.375\nsamples = 4\nvalue = [3, 0, 0, 0, 0, 0, 1]"] ;
231 -> 233 ;
234 [label="gini = 0.0\nsamples = 3\nvalue = [3, 0, 0, 0, 0, 0, 0]"] ;
233 -> 234 ;
235 [label="gini = 0.0\nsamples = 1\nvalue = [0, 0, 0, 0, 0, 0, 1]"] ;
233 -> 235 ;
236 [label="gini = 0.0\nsamples = 3\nvalue = [3, 0, 0, 0, 0, 0, 0]"] ;
230 -> 236 ;
237 [label="gini = 0.0\nsamples = 4\nvalue = [0, 0, 0, 0, 0, 0, 4]"] ;
227 -> 237 ;
238 [label="X[2] <= -0.167\ngini = 0.115\nsamples = 1632\nvalue = [90, 9, 0, 0, 0, 0, 1533]"] ;
2 -> 238 ;
239 [label="gini = 0.0\nsamples = 4\nvalue = [4, 0, 0, 0, 0, 0, 0]"] ;
238 -> 239 ;
240 [label="X[0] <= -4.974\ngini = 0.11\nsamples = 1628\nvalue = [86, 9, 0, 0, 0, 0, 1533]"] ;
238 -> 240 ;
241 [label="X[1] <= 2.585\ngini = 0.055\nsamples = 1137\nvalue = [32, 0, 0, 0, 0, 0, 1105]"] ;
240 -> 241 ;
242 [label="X[2] <= 0.599\ngini = 0.337\nsamples = 28\nvalue = [6, 0, 0, 0, 0, 0, 22]"] ;
241 -> 242 ;
243 [label="X[4] <= 0.107\ngini = 0.091\nsamples = 21\nvalue = [1, 0, 0, 0, 0, 0, 20]"] ;
242 -> 243 ;
244 [label="gini = 0.0\nsamples = 19\nvalue = [0, 0, 0, 0, 0, 0, 19]"] ;
243 -> 244 ;
245 [label="X[3] <= 0.145\ngini = 0.5\nsamples = 2\nvalue = [1, 0, 0, 0, 0, 0, 1]"] ;
243 -> 245 ;
246 [label="gini = 0.0\nsamples = 1\nvalue = [1, 0, 0, 0, 0, 0, 0]"] ;
245 -> 246 ;
247 [label="gini = 0.0\nsamples = 1\nvalue = [0, 0, 0, 0, 0, 0, 1]"] ;
245 -> 247 ;
248 [label="X[3] <= 0.652\ngini = 0.408\nsamples = 7\nvalue = [5, 0, 0, 0, 0, 0, 2]"] ;
242 -> 248 ;
249 [label="gini = 0.0\nsamples = 4\nvalue = [4, 0, 0, 0, 0, 0, 0]"] ;
248 -> 249 ;
250 [label="X[0] <= -5.316\ngini = 0.444\nsamples = 3\nvalue = [1, 0, 0, 0, 0, 0, 2]"] ;
248 -> 250 ;
251 [label="gini = 0.0\nsamples = 2\nvalue = [0, 0, 0, 0, 0, 0, 2]"] ;
250 -> 251 ;
252 [label="gini = 0.0\nsamples = 1\nvalue = [1, 0, 0, 0, 0, 0, 0]"] ;
250 -> 252 ;
253 [label="X[0] <= -5.254\ngini = 0.046\nsamples = 1109\nvalue = [26, 0, 0, 0, 0, 0, 1083]"] ;
241 -> 253 ;
254 [label="X[5] <= -0.016\ngini = 0.024\nsamples = 746\nvalue = [9, 0, 0, 0, 0, 0, 737]"] ;
253 -> 254 ;
255 [label="X[1] <= 2.759\ngini = 0.004\nsamples = 465\nvalue = [1, 0, 0, 0, 0, 0, 464]"] ;
254 -> 255 ;
256 [label="X[1] <= 2.753\ngini = 0.083\nsamples = 23\nvalue = [1, 0, 0, 0, 0, 0, 22]"] ;
255 -> 256 ;
257 [label="gini = 0.0\nsamples = 22\nvalue = [0, 0, 0, 0, 0, 0, 22]"] ;
256 -> 257 ;
258 [label="gini = 0.0\nsamples = 1\nvalue = [1, 0, 0, 0, 0, 0, 0]"] ;
256 -> 258 ;
259 [label="gini = 0.0\nsamples = 442\nvalue = [0, 0, 0, 0, 0, 0, 442]"] ;
255 -> 259 ;
260 [label="X[5] <= -0.014\ngini = 0.055\nsamples = 281\nvalue = [8, 0, 0, 0, 0, 0, 273]"] ;
254 -> 260 ;
261 [label="gini = 0.0\nsamples = 1\nvalue = [1, 0, 0, 0, 0, 0, 0]"] ;
260 -> 261 ;
262 [label="X[4] <= 0.156\ngini = 0.049\nsamples = 280\nvalue = [7, 0, 0, 0, 0, 0, 273]"] ;
260 -> 262 ;
263 [label="gini = 0.0\nsamples = 137\nvalue = [0, 0, 0, 0, 0, 0, 137]"] ;
262 -> 263 ;
264 [label="X[4] <= 0.156\ngini = 0.093\nsamples = 143\nvalue = [7, 0, 0, 0, 0, 0, 136]"] ;
262 -> 264 ;
265 [label="gini = 0.0\nsamples = 1\nvalue = [1, 0, 0, 0, 0, 0, 0]"] ;
264 -> 265 ;
266 [label="X[1] <= 3.373\ngini = 0.081\nsamples = 142\nvalue = [6, 0, 0, 0, 0, 0, 136]"] ;
264 -> 266 ;
267 [label="X[1] <= 3.368\ngini = 0.151\nsamples = 73\nvalue = [6, 0, 0, 0, 0, 0, 67]"] ;
266 -> 267 ;
268 [label="X[0] <= -5.4\ngini = 0.129\nsamples = 72\nvalue = [5, 0, 0, 0, 0, 0, 67]"] ;
267 -> 268 ;
269 [label="X[2] <= 0.375\ngini = 0.278\nsamples = 24\nvalue = [4, 0, 0, 0, 0, 0, 20]"] ;
268 -> 269 ;
270 [label="gini = 0.0\nsamples = 2\nvalue = [2, 0, 0, 0, 0, 0, 0]"] ;
269 -> 270 ;
271 [label="X[0] <= -5.409\ngini = 0.165\nsamples = 22\nvalue = [2, 0, 0, 0, 0, 0, 20]"] ;
269 -> 271 ;
272 [label="X[0] <= -5.761\ngini = 0.091\nsamples = 21\nvalue = [1, 0, 0, 0, 0, 0, 20]"] ;
271 -> 272 ;
273 [label="X[0] <= -5.959\ngini = 0.375\nsamples = 4\nvalue = [1, 0, 0, 0, 0, 0, 3]"] ;
272 -> 273 ;
274 [label="gini = 0.0\nsamples = 3\nvalue = [0, 0, 0, 0, 0, 0, 3]"] ;
273 -> 274 ;
275 [label="gini = 0.0\nsamples = 1\nvalue = [1, 0, 0, 0, 0, 0, 0]"] ;
273 -> 275 ;
276 [label="gini = 0.0\nsamples = 17\nvalue = [0, 0, 0, 0, 0, 0, 17]"] ;
272 -> 276 ;
277 [label="gini = 0.0\nsamples = 1\nvalue = [1, 0, 0, 0, 0, 0, 0]"] ;
271 -> 277 ;
278 [label="X[3] <= -1.387\ngini = 0.041\nsamples = 48\nvalue = [1, 0, 0, 0, 0, 0, 47]"] ;
268 -> 278 ;
279 [label="X[5] <= 0.858\ngini = 0.444\nsamples = 3\nvalue = [1, 0, 0, 0, 0, 0, 2]"] ;
278 -> 279 ;
280 [label="gini = 0.0\nsamples = 2\nvalue = [0, 0, 0, 0, 0, 0, 2]"] ;
279 -> 280 ;
281 [label="gini = 0.0\nsamples = 1\nvalue = [1, 0, 0, 0, 0, 0, 0]"] ;
279 -> 281 ;
282 [label="gini = 0.0\nsamples = 45\nvalue = [0, 0, 0, 0, 0, 0, 45]"] ;
278 -> 282 ;
283 [label="gini = 0.0\nsamples = 1\nvalue = [1, 0, 0, 0, 0, 0, 0]"] ;
267 -> 283 ;
284 [label="gini = 0.0\nsamples = 69\nvalue = [0, 0, 0, 0, 0, 0, 69]"] ;
266 -> 284 ;
285 [label="X[0] <= -5.254\ngini = 0.089\nsamples = 363\nvalue = [17, 0, 0, 0, 0, 0, 346]"] ;
253 -> 285 ;
286 [label="gini = 0.0\nsamples = 2\nvalue = [2, 0, 0, 0, 0, 0, 0]"] ;
285 -> 286 ;
287 [label="X[2] <= 1.145\ngini = 0.08\nsamples = 361\nvalue = [15, 0, 0, 0, 0, 0, 346]"] ;
285 -> 287 ;
288 [label="X[3] <= -0.071\ngini = 0.053\nsamples = 330\nvalue = [9, 0, 0, 0, 0, 0, 321]"] ;
287 -> 288 ;
289 [label="X[2] <= 0.96\ngini = 0.029\nsamples = 268\nvalue = [4, 0, 0, 0, 0, 0, 264]"] ;
288 -> 289 ;
290 [label="X[1] <= 2.622\ngini = 0.016\nsamples = 244\nvalue = [2, 0, 0, 0, 0, 0, 242]"] ;
289 -> 290 ;
291 [label="X[1] <= 2.619\ngini = 0.219\nsamples = 8\nvalue = [1, 0, 0, 0, 0, 0, 7]"] ;
290 -> 291 ;
292 [label="gini = 0.0\nsamples = 7\nvalue = [0, 0, 0, 0, 0, 0, 7]"] ;
291 -> 292 ;
293 [label="gini = 0.0\nsamples = 1\nvalue = [1, 0, 0, 0, 0, 0, 0]"] ;
291 -> 293 ;
294 [label="X[0] <= -5.234\ngini = 0.008\nsamples = 236\nvalue = [1, 0, 0, 0, 0, 0, 235]"] ;
290 -> 294 ;
295 [label="X[0] <= -5.234\ngini = 0.133\nsamples = 14\nvalue = [1, 0, 0, 0, 0, 0, 13]"] ;
294 -> 295 ;
296 [label="gini = 0.0\nsamples = 13\nvalue = [0, 0, 0, 0, 0, 0, 13]"] ;
295 -> 296 ;
297 [label="gini = 0.0\nsamples = 1\nvalue = [1, 0, 0, 0, 0, 0, 0]"] ;
295 -> 297 ;
298 [label="gini = 0.0\nsamples = 222\nvalue = [0, 0, 0, 0, 0, 0, 222]"] ;
294 -> 298 ;
299 [label="X[0] <= -5.08\ngini = 0.153\nsamples = 24\nvalue = [2, 0, 0, 0, 0, 0, 22]"] ;
289 -> 299 ;
300 [label="gini = 0.0\nsamples = 21\nvalue = [0, 0, 0, 0, 0, 0, 21]"] ;
299 -> 300 ;
301 [label="X[4] <= -0.134\ngini = 0.444\nsamples = 3\nvalue = [2, 0, 0, 0, 0, 0, 1]"] ;
299 -> 301 ;
302 [label="gini = 0.0\nsamples = 1\nvalue = [0, 0, 0, 0, 0, 0, 1]"] ;
301 -> 302 ;
303 [label="gini = 0.0\nsamples = 2\nvalue = [2, 0, 0, 0, 0, 0, 0]"] ;
301 -> 303 ;
304 [label="X[3] <= -0.066\ngini = 0.148\nsamples = 62\nvalue = [5, 0, 0, 0, 0, 0, 57]"] ;
288 -> 304 ;
305 [label="gini = 0.0\nsamples = 2\nvalue = [2, 0, 0, 0, 0, 0, 0]"] ;
304 -> 305 ;
306 [label="X[3] <= -0.047\ngini = 0.095\nsamples = 60\nvalue = [3, 0, 0, 0, 0, 0, 57]"] ;
304 -> 306 ;
307 [label="X[1] <= 2.793\ngini = 0.444\nsamples = 6\nvalue = [2, 0, 0, 0, 0, 0, 4]"] ;
306 -> 307 ;
308 [label="gini = 0.0\nsamples = 2\nvalue = [2, 0, 0, 0, 0, 0, 0]"] ;
307 -> 308 ;
309 [label="gini = 0.0\nsamples = 4\nvalue = [0, 0, 0, 0, 0, 0, 4]"] ;
307 -> 309 ;
310 [label="X[4] <= 1.26\ngini = 0.036\nsamples = 54\nvalue = [1, 0, 0, 0, 0, 0, 53]"] ;
306 -> 310 ;
311 [label="gini = 0.0\nsamples = 49\nvalue = [0, 0, 0, 0, 0, 0, 49]"] ;
310 -> 311 ;
312 [label="X[2] <= 0.589\ngini = 0.32\nsamples = 5\nvalue = [1, 0, 0, 0, 0, 0, 4]"] ;
310 -> 312 ;
313 [label="gini = 0.0\nsamples = 1\nvalue = [1, 0, 0, 0, 0, 0, 0]"] ;
312 -> 313 ;
314 [label="gini = 0.0\nsamples = 4\nvalue = [0, 0, 0, 0, 0, 0, 4]"] ;
312 -> 314 ;
315 [label="X[2] <= 1.153\ngini = 0.312\nsamples = 31\nvalue = [6, 0, 0, 0, 0, 0, 25]"] ;
287 -> 315 ;
316 [label="X[4] <= -0.021\ngini = 0.444\nsamples = 3\nvalue = [2, 0, 0, 0, 0, 0, 1]"] ;
315 -> 316 ;
317 [label="gini = 0.0\nsamples = 1\nvalue = [0, 0, 0, 0, 0, 0, 1]"] ;
316 -> 317 ;
318 [label="gini = 0.0\nsamples = 2\nvalue = [2, 0, 0, 0, 0, 0, 0]"] ;
316 -> 318 ;
319 [label="X[4] <= 0.792\ngini = 0.245\nsamples = 28\nvalue = [4, 0, 0, 0, 0, 0, 24]"] ;
315 -> 319 ;
320 [label="X[5] <= -0.75\ngini = 0.147\nsamples = 25\nvalue = [2, 0, 0, 0, 0, 0, 23]"] ;
319 -> 320 ;
321 [label="X[2] <= 1.598\ngini = 0.5\nsamples = 2\nvalue = [1, 0, 0, 0, 0, 0, 1]"] ;
320 -> 321 ;
322 [label="gini = 0.0\nsamples = 1\nvalue = [0, 0, 0, 0, 0, 0, 1]"] ;
321 -> 322 ;
323 [label="gini = 0.0\nsamples = 1\nvalue = [1, 0, 0, 0, 0, 0, 0]"] ;
321 -> 323 ;
324 [label="X[3] <= -0.335\ngini = 0.083\nsamples = 23\nvalue = [1, 0, 0, 0, 0, 0, 22]"] ;
320 -> 324 ;
325 [label="gini = 0.0\nsamples = 17\nvalue = [0, 0, 0, 0, 0, 0, 17]"] ;
324 -> 325 ;
326 [label="X[3] <= -0.291\ngini = 0.278\nsamples = 6\nvalue = [1, 0, 0, 0, 0, 0, 5]"] ;
324 -> 326 ;
327 [label="gini = 0.0\nsamples = 1\nvalue = [1, 0, 0, 0, 0, 0, 0]"] ;
326 -> 327 ;
328 [label="gini = 0.0\nsamples = 5\nvalue = [0, 0, 0, 0, 0, 0, 5]"] ;
326 -> 328 ;
329 [label="X[3] <= -0.374\ngini = 0.444\nsamples = 3\nvalue = [2, 0, 0, 0, 0, 0, 1]"] ;
319 -> 329 ;
330 [label="gini = 0.0\nsamples = 1\nvalue = [0, 0, 0, 0, 0, 0, 1]"] ;
329 -> 330 ;
331 [label="gini = 0.0\nsamples = 2\nvalue = [2, 0, 0, 0, 0, 0, 0]"] ;
329 -> 331 ;
332 [label="X[3] <= -0.127\ngini = 0.228\nsamples = 491\nvalue = [54, 9, 0, 0, 0, 0, 428]"] ;
240 -> 332 ;
333 [label="X[0] <= -3.954\ngini = 0.154\nsamples = 435\nvalue = [29, 7, 0, 0, 0, 0, 399]"] ;
332 -> 333 ;
334 [label="X[4] <= 0.52\ngini = 0.147\nsamples = 433\nvalue = [28, 6, 0, 0, 0, 0, 399]"] ;
333 -> 334 ;
335 [label="X[1] <= 2.569\ngini = 0.093\nsamples = 268\nvalue = [10, 3, 0, 0, 0, 0, 255]"] ;
334 -> 335 ;
336 [label="X[3] <= -0.926\ngini = 0.231\nsamples = 30\nvalue = [4, 0, 0, 0, 0, 0, 26]"] ;
335 -> 336 ;
337 [label="gini = 0.0\nsamples = 3\nvalue = [3, 0, 0, 0, 0, 0, 0]"] ;
336 -> 337 ;
338 [label="X[0] <= -4.942\ngini = 0.071\nsamples = 27\nvalue = [1, 0, 0, 0, 0, 0, 26]"] ;
336 -> 338 ;
339 [label="gini = 0.0\nsamples = 1\nvalue = [1, 0, 0, 0, 0, 0, 0]"] ;
338 -> 339 ;
340 [label="gini = 0.0\nsamples = 26\nvalue = [0, 0, 0, 0, 0, 0, 26]"] ;
338 -> 340 ;
341 [label="X[2] <= 1.404\ngini = 0.073\nsamples = 238\nvalue = [6, 3, 0, 0, 0, 0, 229]"] ;
335 -> 341 ;
342 [label="X[3] <= -0.214\ngini = 0.053\nsamples = 223\nvalue = [4, 2, 0, 0, 0, 0, 217]"] ;
341 -> 342 ;
343 [label="X[0] <= -4.5\ngini = 0.045\nsamples = 219\nvalue = [3, 2, 0, 0, 0, 0, 214]"] ;
342 -> 343 ;
344 [label="X[2] <= 1.26\ngini = 0.021\nsamples = 186\nvalue = [2, 0, 0, 0, 0, 0, 184]"] ;
343 -> 344 ;
345 [label="X[1] <= 3.635\ngini = 0.011\nsamples = 176\nvalue = [1, 0, 0, 0, 0, 0, 175]"] ;
344 -> 345 ;
346 [label="gini = 0.0\nsamples = 165\nvalue = [0, 0, 0, 0, 0, 0, 165]"] ;
345 -> 346 ;
347 [label="X[1] <= 3.646\ngini = 0.165\nsamples = 11\nvalue = [1, 0, 0, 0, 0, 0, 10]"] ;
345 -> 347 ;
348 [label="gini = 0.0\nsamples = 1\nvalue = [1, 0, 0, 0, 0, 0, 0]"] ;
347 -> 348 ;
349 [label="gini = 0.0\nsamples = 10\nvalue = [0, 0, 0, 0, 0, 0, 10]"] ;
347 -> 349 ;
350 [label="X[2] <= 1.277\ngini = 0.18\nsamples = 10\nvalue = [1, 0, 0, 0, 0, 0, 9]"] ;
344 -> 350 ;
351 [label="gini = 0.0\nsamples = 1\nvalue = [1, 0, 0, 0, 0, 0, 0]"] ;
350 -> 351 ;
352 [label="gini = 0.0\nsamples = 9\nvalue = [0, 0, 0, 0, 0, 0, 9]"] ;
350 -> 352 ;
353 [label="X[3] <= -0.515\ngini = 0.169\nsamples = 33\nvalue = [1, 2, 0, 0, 0, 0, 30]"] ;
343 -> 353 ;
354 [label="X[5] <= 0.737\ngini = 0.119\nsamples = 32\nvalue = [1, 1, 0, 0, 0, 0, 30]"] ;
353 -> 354 ;
355 [label="X[2] <= 0.472\ngini = 0.064\nsamples = 30\nvalue = [0, 1, 0, 0, 0, 0, 29]"] ;
354 -> 355 ;
356 [label="X[1] <= 2.716\ngini = 0.444\nsamples = 3\nvalue = [0, 1, 0, 0, 0, 0, 2]"] ;
355 -> 356 ;
357 [label="gini = 0.0\nsamples = 2\nvalue = [0, 0, 0, 0, 0, 0, 2]"] ;
356 -> 357 ;
358 [label="gini = 0.0\nsamples = 1\nvalue = [0, 1, 0, 0, 0, 0, 0]"] ;
356 -> 358 ;
359 [label="gini = 0.0\nsamples = 27\nvalue = [0, 0, 0, 0, 0, 0, 27]"] ;
355 -> 359 ;
360 [label="X[4] <= 0.327\ngini = 0.5\nsamples = 2\nvalue = [1, 0, 0, 0, 0, 0, 1]"] ;
354 -> 360 ;
361 [label="gini = 0.0\nsamples = 1\nvalue = [0, 0, 0, 0, 0, 0, 1]"] ;
360 -> 361 ;
362 [label="gini = 0.0\nsamples = 1\nvalue = [1, 0, 0, 0, 0, 0, 0]"] ;
360 -> 362 ;
363 [label="gini = 0.0\nsamples = 1\nvalue = [0, 1, 0, 0, 0, 0, 0]"] ;
353 -> 363 ;
364 [label="X[5] <= -0.09\ngini = 0.375\nsamples = 4\nvalue = [1, 0, 0, 0, 0, 0, 3]"] ;
342 -> 364 ;
365 [label="gini = 0.0\nsamples = 3\nvalue = [0, 0, 0, 0, 0, 0, 3]"] ;
364 -> 365 ;
366 [label="gini = 0.0\nsamples = 1\nvalue = [1, 0, 0, 0, 0, 0, 0]"] ;
364 -> 366 ;
367 [label="X[2] <= 1.505\ngini = 0.338\nsamples = 15\nvalue = [2, 1, 0, 0, 0, 0, 12]"] ;
341 -> 367 ;
368 [label="X[0] <= -4.58\ngini = 0.444\nsamples = 3\nvalue = [2, 1, 0, 0, 0, 0, 0]"] ;
367 -> 368 ;
369 [label="gini = 0.0\nsamples = 2\nvalue = [2, 0, 0, 0, 0, 0, 0]"] ;
368 -> 369 ;
370 [label="gini = 0.0\nsamples = 1\nvalue = [0, 1, 0, 0, 0, 0, 0]"] ;
368 -> 370 ;
371 [label="gini = 0.0\nsamples = 12\nvalue = [0, 0, 0, 0, 0, 0, 12]"] ;
367 -> 371 ;
372 [label="X[3] <= -0.298\ngini = 0.226\nsamples = 165\nvalue = [18, 3, 0, 0, 0, 0, 144]"] ;
334 -> 372 ;
373 [label="X[4] <= 0.536\ngini = 0.185\nsamples = 156\nvalue = [15, 1, 0, 0, 0, 0, 140]"] ;
372 -> 373 ;
374 [label="X[2] <= 0.831\ngini = 0.444\nsamples = 3\nvalue = [2, 0, 0, 0, 0, 0, 1]"] ;
373 -> 374 ;
375 [label="gini = 0.0\nsamples = 1\nvalue = [0, 0, 0, 0, 0, 0, 1]"] ;
374 -> 375 ;
376 [label="gini = 0.0\nsamples = 2\nvalue = [2, 0, 0, 0, 0, 0, 0]"] ;
374 -> 376 ;
377 [label="X[1] <= 2.518\ngini = 0.167\nsamples = 153\nvalue = [13, 1, 0, 0, 0, 0, 139]"] ;
373 -> 377 ;
378 [label="gini = 0.0\nsamples = 1\nvalue = [1, 0, 0, 0, 0, 0, 0]"] ;
377 -> 378 ;
379 [label="X[2] <= 0.599\ngini = 0.157\nsamples = 152\nvalue = [12, 1, 0, 0, 0, 0, 139]"] ;
377 -> 379 ;
380 [label="X[0] <= -4.621\ngini = 0.297\nsamples = 51\nvalue = [8, 1, 0, 0, 0, 0, 42]"] ;
379 -> 380 ;
381 [label="X[0] <= -4.967\ngini = 0.227\nsamples = 47\nvalue = [5, 1, 0, 0, 0, 0, 41]"] ;
380 -> 381 ;
382 [label="gini = 0.0\nsamples = 1\nvalue = [1, 0, 0, 0, 0, 0, 0]"] ;
381 -> 382 ;
383 [label="X[2] <= 0.596\ngini = 0.198\nsamples = 46\nvalue = [4, 1, 0, 0, 0, 0, 41]"] ;
381 -> 383 ;
384 [label="X[2] <= 0.557\ngini = 0.165\nsamples = 45\nvalue = [3, 1, 0, 0, 0, 0, 41]"] ;
383 -> 384 ;
385 [label="X[2] <= 0.352\ngini = 0.101\nsamples = 38\nvalue = [1, 1, 0, 0, 0, 0, 36]"] ;
384 -> 385 ;
386 [label="X[2] <= 0.327\ngini = 0.292\nsamples = 12\nvalue = [1, 1, 0, 0, 0, 0, 10]"] ;
385 -> 386 ;
387 [label="X[1] <= 3.282\ngini = 0.165\nsamples = 11\nvalue = [0, 1, 0, 0, 0, 0, 10]"] ;
386 -> 387 ;
388 [label="gini = 0.0\nsamples = 8\nvalue = [0, 0, 0, 0, 0, 0, 8]"] ;
387 -> 388 ;
389 [label="X[1] <= 3.399\ngini = 0.444\nsamples = 3\nvalue = [0, 1, 0, 0, 0, 0, 2]"] ;
387 -> 389 ;
390 [label="gini = 0.0\nsamples = 1\nvalue = [0, 1, 0, 0, 0, 0, 0]"] ;
389 -> 390 ;
391 [label="gini = 0.0\nsamples = 2\nvalue = [0, 0, 0, 0, 0, 0, 2]"] ;
389 -> 391 ;
392 [label="gini = 0.0\nsamples = 1\nvalue = [1, 0, 0, 0, 0, 0, 0]"] ;
386 -> 392 ;
393 [label="gini = 0.0\nsamples = 26\nvalue = [0, 0, 0, 0, 0, 0, 26]"] ;
385 -> 393 ;
394 [label="X[1] <= 3.321\ngini = 0.408\nsamples = 7\nvalue = [2, 0, 0, 0, 0, 0, 5]"] ;
384 -> 394 ;
395 [label="gini = 0.0\nsamples = 2\nvalue = [2, 0, 0, 0, 0, 0, 0]"] ;
394 -> 395 ;
396 [label="gini = 0.0\nsamples = 5\nvalue = [0, 0, 0, 0, 0, 0, 5]"] ;
394 -> 396 ;
397 [label="gini = 0.0\nsamples = 1\nvalue = [1, 0, 0, 0, 0, 0, 0]"] ;
383 -> 397 ;
398 [label="X[4] <= 0.999\ngini = 0.375\nsamples = 4\nvalue = [3, 0, 0, 0, 0, 0, 1]"] ;
380 -> 398 ;
399 [label="gini = 0.0\nsamples = 1\nvalue = [0, 0, 0, 0, 0, 0, 1]"] ;
398 -> 399 ;
400 [label="gini = 0.0\nsamples = 3\nvalue = [3, 0, 0, 0, 0, 0, 0]"] ;
398 -> 400 ;
401 [label="X[3] <= -0.445\ngini = 0.076\nsamples = 101\nvalue = [4, 0, 0, 0, 0, 0, 97]"] ;
379 -> 401 ;
402 [label="X[5] <= -0.658\ngini = 0.024\nsamples = 84\nvalue = [1, 0, 0, 0, 0, 0, 83]"] ;
401 -> 402 ;
403 [label="X[5] <= -0.744\ngini = 0.375\nsamples = 4\nvalue = [1, 0, 0, 0, 0, 0, 3]"] ;
402 -> 403 ;
404 [label="gini = 0.0\nsamples = 3\nvalue = [0, 0, 0, 0, 0, 0, 3]"] ;
403 -> 404 ;
405 [label="gini = 0.0\nsamples = 1\nvalue = [1, 0, 0, 0, 0, 0, 0]"] ;
403 -> 405 ;
406 [label="gini = 0.0\nsamples = 80\nvalue = [0, 0, 0, 0, 0, 0, 80]"] ;
402 -> 406 ;
407 [label="X[3] <= -0.435\ngini = 0.291\nsamples = 17\nvalue = [3, 0, 0, 0, 0, 0, 14]"] ;
401 -> 407 ;
408 [label="gini = 0.0\nsamples = 2\nvalue = [2, 0, 0, 0, 0, 0, 0]"] ;
407 -> 408 ;
409 [label="X[0] <= -4.605\ngini = 0.124\nsamples = 15\nvalue = [1, 0, 0, 0, 0, 0, 14]"] ;
407 -> 409 ;
410 [label="gini = 0.0\nsamples = 14\nvalue = [0, 0, 0, 0, 0, 0, 14]"] ;
409 -> 410 ;
411 [label="gini = 0.0\nsamples = 1\nvalue = [1, 0, 0, 0, 0, 0, 0]"] ;
409 -> 411 ;
412 [label="X[0] <= -4.754\ngini = 0.642\nsamples = 9\nvalue = [3, 2, 0, 0, 0, 0, 4]"] ;
372 -> 412 ;
413 [label="gini = 0.0\nsamples = 4\nvalue = [0, 0, 0, 0, 0, 0, 4]"] ;
412 -> 413 ;
414 [label="X[0] <= -4.313\ngini = 0.48\nsamples = 5\nvalue = [3, 2, 0, 0, 0, 0, 0]"] ;
412 -> 414 ;
415 [label="gini = 0.0\nsamples = 3\nvalue = [3, 0, 0, 0, 0, 0, 0]"] ;
414 -> 415 ;
416 [label="gini = 0.0\nsamples = 2\nvalue = [0, 2, 0, 0, 0, 0, 0]"] ;
414 -> 416 ;
417 [label="X[2] <= 1.23\ngini = 0.5\nsamples = 2\nvalue = [1, 1, 0, 0, 0, 0, 0]"] ;
333 -> 417 ;
418 [label="gini = 0.0\nsamples = 1\nvalue = [0, 1, 0, 0, 0, 0, 0]"] ;
417 -> 418 ;
419 [label="gini = 0.0\nsamples = 1\nvalue = [1, 0, 0, 0, 0, 0, 0]"] ;
417 -> 419 ;
420 [label="X[5] <= -0.171\ngini = 0.531\nsamples = 56\nvalue = [25, 2, 0, 0, 0, 0, 29]"] ;
332 -> 420 ;
421 [label="X[4] <= 0.678\ngini = 0.368\nsamples = 22\nvalue = [4, 1, 0, 0, 0, 0, 17]"] ;
420 -> 421 ;
422 [label="X[0] <= -4.504\ngini = 0.265\nsamples = 20\nvalue = [2, 1, 0, 0, 0, 0, 17]"] ;
421 -> 422 ;
423 [label="X[1] <= 2.855\ngini = 0.194\nsamples = 19\nvalue = [1, 1, 0, 0, 0, 0, 17]"] ;
422 -> 423 ;
424 [label="X[5] <= -0.196\ngini = 0.111\nsamples = 17\nvalue = [1, 0, 0, 0, 0, 0, 16]"] ;
423 -> 424 ;
425 [label="gini = 0.0\nsamples = 14\nvalue = [0, 0, 0, 0, 0, 0, 14]"] ;
424 -> 425 ;
426 [label="X[2] <= 0.527\ngini = 0.444\nsamples = 3\nvalue = [1, 0, 0, 0, 0, 0, 2]"] ;
424 -> 426 ;
427 [label="gini = 0.0\nsamples = 1\nvalue = [1, 0, 0, 0, 0, 0, 0]"] ;
426 -> 427 ;
428 [label="gini = 0.0\nsamples = 2\nvalue = [0, 0, 0, 0, 0, 0, 2]"] ;
426 -> 428 ;
429 [label="X[3] <= 0.006\ngini = 0.5\nsamples = 2\nvalue = [0, 1, 0, 0, 0, 0, 1]"] ;
423 -> 429 ;
430 [label="gini = 0.0\nsamples = 1\nvalue = [0, 0, 0, 0, 0, 0, 1]"] ;
429 -> 430 ;
431 [label="gini = 0.0\nsamples = 1\nvalue = [0, 1, 0, 0, 0, 0, 0]"] ;
429 -> 431 ;
432 [label="gini = 0.0\nsamples = 1\nvalue = [1, 0, 0, 0, 0, 0, 0]"] ;
422 -> 432 ;
433 [label="gini = 0.0\nsamples = 2\nvalue = [2, 0, 0, 0, 0, 0, 0]"] ;
421 -> 433 ;
434 [label="X[2] <= 0.185\ngini = 0.493\nsamples = 34\nvalue = [21, 1, 0, 0, 0, 0, 12]"] ;
420 -> 434 ;
435 [label="X[4] <= 0.364\ngini = 0.292\nsamples = 12\nvalue = [10, 1, 0, 0, 0, 0, 1]"] ;
434 -> 435 ;
436 [label="gini = 0.0\nsamples = 10\nvalue = [10, 0, 0, 0, 0, 0, 0]"] ;
435 -> 436 ;
437 [label="X[2] <= -0.037\ngini = 0.5\nsamples = 2\nvalue = [0, 1, 0, 0, 0, 0, 1]"] ;
435 -> 437 ;
438 [label="gini = 0.0\nsamples = 1\nvalue = [0, 1, 0, 0, 0, 0, 0]"] ;
437 -> 438 ;
439 [label="gini = 0.0\nsamples = 1\nvalue = [0, 0, 0, 0, 0, 0, 1]"] ;
437 -> 439 ;
440 [label="X[1] <= 3.081\ngini = 0.5\nsamples = 22\nvalue = [11, 0, 0, 0, 0, 0, 11]"] ;
434 -> 440 ;
441 [label="X[3] <= 0.616\ngini = 0.475\nsamples = 18\nvalue = [7, 0, 0, 0, 0, 0, 11]"] ;
440 -> 441 ;
442 [label="X[0] <= -4.582\ngini = 0.43\nsamples = 16\nvalue = [5, 0, 0, 0, 0, 0, 11]"] ;
441 -> 442 ;
443 [label="X[0] <= -4.806\ngini = 0.337\nsamples = 14\nvalue = [3, 0, 0, 0, 0, 0, 11]"] ;
442 -> 443 ;
444 [label="X[3] <= 0.034\ngini = 0.48\nsamples = 5\nvalue = [3, 0, 0, 0, 0, 0, 2]"] ;
443 -> 444 ;
445 [label="gini = 0.0\nsamples = 2\nvalue = [2, 0, 0, 0, 0, 0, 0]"] ;
444 -> 445 ;
446 [label="X[3] <= 0.323\ngini = 0.444\nsamples = 3\nvalue = [1, 0, 0, 0, 0, 0, 2]"] ;
444 -> 446 ;
447 [label="gini = 0.0\nsamples = 2\nvalue = [0, 0, 0, 0, 0, 0, 2]"] ;
446 -> 447 ;
448 [label="gini = 0.0\nsamples = 1\nvalue = [1, 0, 0, 0, 0, 0, 0]"] ;
446 -> 448 ;
449 [label="gini = 0.0\nsamples = 9\nvalue = [0, 0, 0, 0, 0, 0, 9]"] ;
443 -> 449 ;
450 [label="gini = 0.0\nsamples = 2\nvalue = [2, 0, 0, 0, 0, 0, 0]"] ;
442 -> 450 ;
451 [label="gini = 0.0\nsamples = 2\nvalue = [2, 0, 0, 0, 0, 0, 0]"] ;
441 -> 451 ;
452 [label="gini = 0.0\nsamples = 4\nvalue = [4, 0, 0, 0, 0, 0, 0]"] ;
440 -> 452 ;
453 [label="X[0] <= -1.411\ngini = 0.719\nsamples = 6162\nvalue = [1694, 1963, 92, 0, 1952, 315, 146]"] ;
1 -> 453 ;
454 [label="X[0] <= -2.277\ngini = 0.586\nsamples = 3161\nvalue = [1571, 1271, 0, 0, 177, 0, 142]"] ;
453 -> 454 ;
455 [label="X[4] <= 1.022\ngini = 0.485\nsamples = 1883\nvalue = [1252, 489, 0, 0, 0, 0, 142]"] ;
454 -> 455 ;
456 [label="X[0] <= -3.273\ngini = 0.464\nsamples = 1759\nvalue = [1214, 408, 0, 0, 0, 0, 137]"] ;
455 -> 456 ;
457 [label="X[3] <= 0.64\ngini = 0.529\nsamples = 486\nvalue = [308, 72, 0, 0, 0, 0, 106]"] ;
456 -> 457 ;
458 [label="X[2] <= -0.903\ngini = 0.604\nsamples = 130\nvalue = [54, 17, 0, 0, 0, 0, 59]"] ;
457 -> 458 ;
459 [label="X[4] <= 0.433\ngini = 0.254\nsamples = 48\nvalue = [6, 1, 0, 0, 0, 0, 41]"] ;
458 -> 459 ;
460 [label="X[1] <= -1.342\ngini = 0.129\nsamples = 44\nvalue = [2, 1, 0, 0, 0, 0, 41]"] ;
459 -> 460 ;
461 [label="gini = 0.0\nsamples = 1\nvalue = [1, 0, 0, 0, 0, 0, 0]"] ;
460 -> 461 ;
462 [label="X[4] <= -0.605\ngini = 0.09\nsamples = 43\nvalue = [1, 1, 0, 0, 0, 0, 41]"] ;
460 -> 462 ;
463 [label="X[3] <= 0.141\ngini = 0.5\nsamples = 2\nvalue = [0, 1, 0, 0, 0, 0, 1]"] ;
462 -> 463 ;
464 [label="gini = 0.0\nsamples = 1\nvalue = [0, 1, 0, 0, 0, 0, 0]"] ;
463 -> 464 ;
465 [label="gini = 0.0\nsamples = 1\nvalue = [0, 0, 0, 0, 0, 0, 1]"] ;
463 -> 465 ;
466 [label="X[1] <= -1.01\ngini = 0.048\nsamples = 41\nvalue = [1, 0, 0, 0, 0, 0, 40]"] ;
462 -> 466 ;
467 [label="gini = 0.0\nsamples = 34\nvalue = [0, 0, 0, 0, 0, 0, 34]"] ;
466 -> 467 ;
468 [label="X[2] <= -1.052\ngini = 0.245\nsamples = 7\nvalue = [1, 0, 0, 0, 0, 0, 6]"] ;
466 -> 468 ;
469 [label="gini = 0.0\nsamples = 1\nvalue = [1, 0, 0, 0, 0, 0, 0]"] ;
468 -> 469 ;
470 [label="gini = 0.0\nsamples = 6\nvalue = [0, 0, 0, 0, 0, 0, 6]"] ;
468 -> 470 ;
471 [label="gini = 0.0\nsamples = 4\nvalue = [4, 0, 0, 0, 0, 0, 0]"] ;
459 -> 471 ;
472 [label="X[1] <= -0.747\ngini = 0.571\nsamples = 82\nvalue = [48, 16, 0, 0, 0, 0, 18]"] ;
458 -> 472 ;
473 [label="X[2] <= -0.652\ngini = 0.658\nsamples = 50\nvalue = [19, 13, 0, 0, 0, 0, 18]"] ;
472 -> 473 ;
474 [label="X[0] <= -3.408\ngini = 0.465\nsamples = 19\nvalue = [12, 0, 0, 0, 0, 0, 7]"] ;
473 -> 474 ;
475 [label="gini = 0.0\nsamples = 10\nvalue = [10, 0, 0, 0, 0, 0, 0]"] ;
474 -> 475 ;
476 [label="X[4] <= 0.346\ngini = 0.346\nsamples = 9\nvalue = [2, 0, 0, 0, 0, 0, 7]"] ;
474 -> 476 ;
477 [label="X[3] <= -0.006\ngini = 0.219\nsamples = 8\nvalue = [1, 0, 0, 0, 0, 0, 7]"] ;
476 -> 477 ;
478 [label="gini = 0.0\nsamples = 1\nvalue = [1, 0, 0, 0, 0, 0, 0]"] ;
477 -> 478 ;
479 [label="gini = 0.0\nsamples = 7\nvalue = [0, 0, 0, 0, 0, 0, 7]"] ;
477 -> 479 ;
480 [label="gini = 0.0\nsamples = 1\nvalue = [1, 0, 0, 0, 0, 0, 0]"] ;
476 -> 480 ;
481 [label="X[3] <= 0.423\ngini = 0.647\nsamples = 31\nvalue = [7, 13, 0, 0, 0, 0, 11]"] ;
473 -> 481 ;
482 [label="X[3] <= -0.593\ngini = 0.56\nsamples = 20\nvalue = [4, 12, 0, 0, 0, 0, 4]"] ;
481 -> 482 ;
483 [label="X[5] <= -0.488\ngini = 0.444\nsamples = 6\nvalue = [2, 0, 0, 0, 0, 0, 4]"] ;
482 -> 483 ;
484 [label="gini = 0.0\nsamples = 2\nvalue = [2, 0, 0, 0, 0, 0, 0]"] ;
483 -> 484 ;
485 [label="gini = 0.0\nsamples = 4\nvalue = [0, 0, 0, 0, 0, 0, 4]"] ;
483 -> 485 ;
486 [label="X[4] <= 0.319\ngini = 0.245\nsamples = 14\nvalue = [2, 12, 0, 0, 0, 0, 0]"] ;
482 -> 486 ;
487 [label="X[2] <= -0.559\ngini = 0.142\nsamples = 13\nvalue = [1, 12, 0, 0, 0, 0, 0]"] ;
486 -> 487 ;
488 [label="X[0] <= -3.385\ngini = 0.444\nsamples = 3\nvalue = [1, 2, 0, 0, 0, 0, 0]"] ;
487 -> 488 ;
489 [label="gini = 0.0\nsamples = 1\nvalue = [1, 0, 0, 0, 0, 0, 0]"] ;
488 -> 489 ;
490 [label="gini = 0.0\nsamples = 2\nvalue = [0, 2, 0, 0, 0, 0, 0]"] ;
488 -> 490 ;
491 [label="gini = 0.0\nsamples = 10\nvalue = [0, 10, 0, 0, 0, 0, 0]"] ;
487 -> 491 ;
492 [label="gini = 0.0\nsamples = 1\nvalue = [1, 0, 0, 0, 0, 0, 0]"] ;
486 -> 492 ;
493 [label="X[5] <= 0.097\ngini = 0.512\nsamples = 11\nvalue = [3, 1, 0, 0, 0, 0, 7]"] ;
481 -> 493 ;
494 [label="X[2] <= -0.587\ngini = 0.375\nsamples = 4\nvalue = [3, 1, 0, 0, 0, 0, 0]"] ;
493 -> 494 ;
495 [label="gini = 0.0\nsamples = 1\nvalue = [0, 1, 0, 0, 0, 0, 0]"] ;
494 -> 495 ;
496 [label="gini = 0.0\nsamples = 3\nvalue = [3, 0, 0, 0, 0, 0, 0]"] ;
494 -> 496 ;
497 [label="gini = 0.0\nsamples = 7\nvalue = [0, 0, 0, 0, 0, 0, 7]"] ;
493 -> 497 ;
498 [label="X[3] <= 0.104\ngini = 0.17\nsamples = 32\nvalue = [29, 3, 0, 0, 0, 0, 0]"] ;
472 -> 498 ;
499 [label="X[5] <= -0.168\ngini = 0.444\nsamples = 6\nvalue = [4, 2, 0, 0, 0, 0, 0]"] ;
498 -> 499 ;
500 [label="gini = 0.0\nsamples = 4\nvalue = [4, 0, 0, 0, 0, 0, 0]"] ;
499 -> 500 ;
501 [label="gini = 0.0\nsamples = 2\nvalue = [0, 2, 0, 0, 0, 0, 0]"] ;
499 -> 501 ;
502 [label="X[0] <= -3.549\ngini = 0.074\nsamples = 26\nvalue = [25, 1, 0, 0, 0, 0, 0]"] ;
498 -> 502 ;
503 [label="X[0] <= -3.553\ngini = 0.278\nsamples = 6\nvalue = [5, 1, 0, 0, 0, 0, 0]"] ;
502 -> 503 ;
504 [label="gini = 0.0\nsamples = 5\nvalue = [5, 0, 0, 0, 0, 0, 0]"] ;
503 -> 504 ;
505 [label="gini = 0.0\nsamples = 1\nvalue = [0, 1, 0, 0, 0, 0, 0]"] ;
503 -> 505 ;
506 [label="gini = 0.0\nsamples = 20\nvalue = [20, 0, 0, 0, 0, 0, 0]"] ;
502 -> 506 ;
507 [label="X[1] <= -1.341\ngini = 0.45\nsamples = 356\nvalue = [254, 55, 0, 0, 0, 0, 47]"] ;
457 -> 507 ;
508 [label="X[5] <= 1.24\ngini = 0.199\nsamples = 127\nvalue = [113, 12, 0, 0, 0, 0, 2]"] ;
507 -> 508 ;
509 [label="X[0] <= -3.287\ngini = 0.164\nsamples = 123\nvalue = [112, 10, 0, 0, 0, 0, 1]"] ;
508 -> 509 ;
510 [label="X[5] <= 0.364\ngini = 0.142\nsamples = 118\nvalue = [109, 8, 0, 0, 0, 0, 1]"] ;
509 -> 510 ;
511 [label="X[1] <= -1.95\ngini = 0.053\nsamples = 74\nvalue = [72, 2, 0, 0, 0, 0, 0]"] ;
510 -> 511 ;
512 [label="gini = 0.0\nsamples = 1\nvalue = [0, 1, 0, 0, 0, 0, 0]"] ;
511 -> 512 ;
513 [label="X[0] <= -3.318\ngini = 0.027\nsamples = 73\nvalue = [72, 1, 0, 0, 0, 0, 0]"] ;
511 -> 513 ;
514 [label="gini = 0.0\nsamples = 65\nvalue = [65, 0, 0, 0, 0, 0, 0]"] ;
513 -> 514 ;
515 [label="X[0] <= -3.317\ngini = 0.219\nsamples = 8\nvalue = [7, 1, 0, 0, 0, 0, 0]"] ;
513 -> 515 ;
516 [label="gini = 0.0\nsamples = 1\nvalue = [0, 1, 0, 0, 0, 0, 0]"] ;
515 -> 516 ;
517 [label="gini = 0.0\nsamples = 7\nvalue = [7, 0, 0, 0, 0, 0, 0]"] ;
515 -> 517 ;
518 [label="X[1] <= -1.615\ngini = 0.274\nsamples = 44\nvalue = [37, 6, 0, 0, 0, 0, 1]"] ;
510 -> 518 ;
519 [label="gini = 0.0\nsamples = 20\nvalue = [20, 0, 0, 0, 0, 0, 0]"] ;
518 -> 519 ;
520 [label="X[1] <= -1.608\ngini = 0.434\nsamples = 24\nvalue = [17, 6, 0, 0, 0, 0, 1]"] ;
518 -> 520 ;
521 [label="gini = 0.0\nsamples = 2\nvalue = [0, 2, 0, 0, 0, 0, 0]"] ;
520 -> 521 ;
522 [label="X[5] <= 0.42\ngini = 0.368\nsamples = 22\nvalue = [17, 4, 0, 0, 0, 0, 1]"] ;
520 -> 522 ;
523 [label="gini = 0.0\nsamples = 2\nvalue = [0, 2, 0, 0, 0, 0, 0]"] ;
522 -> 523 ;
524 [label="X[3] <= 1.9\ngini = 0.265\nsamples = 20\nvalue = [17, 2, 0, 0, 0, 0, 1]"] ;
522 -> 524 ;
525 [label="X[2] <= -1.458\ngini = 0.117\nsamples = 16\nvalue = [15, 1, 0, 0, 0, 0, 0]"] ;
524 -> 525 ;
526 [label="X[0] <= -3.549\ngini = 0.5\nsamples = 2\nvalue = [1, 1, 0, 0, 0, 0, 0]"] ;
525 -> 526 ;
527 [label="gini = 0.0\nsamples = 1\nvalue = [0, 1, 0, 0, 0, 0, 0]"] ;
526 -> 527 ;
528 [label="gini = 0.0\nsamples = 1\nvalue = [1, 0, 0, 0, 0, 0, 0]"] ;
526 -> 528 ;
529 [label="gini = 0.0\nsamples = 14\nvalue = [14, 0, 0, 0, 0, 0, 0]"] ;
525 -> 529 ;
530 [label="X[0] <= -3.415\ngini = 0.625\nsamples = 4\nvalue = [2, 1, 0, 0, 0, 0, 1]"] ;
524 -> 530 ;
531 [label="X[3] <= 2.16\ngini = 0.5\nsamples = 2\nvalue = [0, 1, 0, 0, 0, 0, 1]"] ;
530 -> 531 ;
532 [label="gini = 0.0\nsamples = 1\nvalue = [0, 0, 0, 0, 0, 0, 1]"] ;
531 -> 532 ;
533 [label="gini = 0.0\nsamples = 1\nvalue = [0, 1, 0, 0, 0, 0, 0]"] ;
531 -> 533 ;
534 [label="gini = 0.0\nsamples = 2\nvalue = [2, 0, 0, 0, 0, 0, 0]"] ;
530 -> 534 ;
535 [label="X[3] <= 2.833\ngini = 0.48\nsamples = 5\nvalue = [3, 2, 0, 0, 0, 0, 0]"] ;
509 -> 535 ;
536 [label="gini = 0.0\nsamples = 3\nvalue = [3, 0, 0, 0, 0, 0, 0]"] ;
535 -> 536 ;
537 [label="gini = 0.0\nsamples = 2\nvalue = [0, 2, 0, 0, 0, 0, 0]"] ;
535 -> 537 ;
538 [label="X[1] <= -1.665\ngini = 0.625\nsamples = 4\nvalue = [1, 2, 0, 0, 0, 0, 1]"] ;
508 -> 538 ;
539 [label="X[5] <= 1.521\ngini = 0.5\nsamples = 2\nvalue = [1, 0, 0, 0, 0, 0, 1]"] ;
538 -> 539 ;
540 [label="gini = 0.0\nsamples = 1\nvalue = [1, 0, 0, 0, 0, 0, 0]"] ;
539 -> 540 ;
541 [label="gini = 0.0\nsamples = 1\nvalue = [0, 0, 0, 0, 0, 0, 1]"] ;
539 -> 541 ;
542 [label="gini = 0.0\nsamples = 2\nvalue = [0, 2, 0, 0, 0, 0, 0]"] ;
538 -> 542 ;
543 [label="X[5] <= 0.366\ngini = 0.547\nsamples = 229\nvalue = [141, 43, 0, 0, 0, 0, 45]"] ;
507 -> 543 ;
544 [label="X[0] <= -3.498\ngini = 0.491\nsamples = 197\nvalue = [132, 22, 0, 0, 0, 0, 43]"] ;
543 -> 544 ;
545 [label="X[5] <= -0.097\ngini = 0.59\nsamples = 61\nvalue = [30, 7, 0, 0, 0, 0, 24]"] ;
544 -> 545 ;
546 [label="X[0] <= -3.564\ngini = 0.524\nsamples = 40\nvalue = [25, 4, 0, 0, 0, 0, 11]"] ;
545 -> 546 ;
547 [label="X[2] <= -0.406\ngini = 0.277\nsamples = 19\nvalue = [16, 2, 0, 0, 0, 0, 1]"] ;
546 -> 547 ;
548 [label="X[2] <= -1.325\ngini = 0.111\nsamples = 17\nvalue = [16, 0, 0, 0, 0, 0, 1]"] ;
547 -> 548 ;
549 [label="X[4] <= -2.004\ngini = 0.444\nsamples = 3\nvalue = [2, 0, 0, 0, 0, 0, 1]"] ;
548 -> 549 ;
550 [label="gini = 0.0\nsamples = 2\nvalue = [2, 0, 0, 0, 0, 0, 0]"] ;
549 -> 550 ;
551 [label="gini = 0.0\nsamples = 1\nvalue = [0, 0, 0, 0, 0, 0, 1]"] ;
549 -> 551 ;
552 [label="gini = 0.0\nsamples = 14\nvalue = [14, 0, 0, 0, 0, 0, 0]"] ;
548 -> 552 ;
553 [label="gini = 0.0\nsamples = 2\nvalue = [0, 2, 0, 0, 0, 0, 0]"] ;
547 -> 553 ;
554 [label="X[0] <= -3.557\ngini = 0.58\nsamples = 21\nvalue = [9, 2, 0, 0, 0, 0, 10]"] ;
546 -> 554 ;
555 [label="gini = 0.0\nsamples = 4\nvalue = [0, 0, 0, 0, 0, 0, 4]"] ;
554 -> 555 ;
556 [label="X[4] <= -2.405\ngini = 0.581\nsamples = 17\nvalue = [9, 2, 0, 0, 0, 0, 6]"] ;
554 -> 556 ;
557 [label="X[2] <= -1.791\ngini = 0.32\nsamples = 5\nvalue = [0, 1, 0, 0, 0, 0, 4]"] ;
556 -> 557 ;
558 [label="gini = 0.0\nsamples = 1\nvalue = [0, 1, 0, 0, 0, 0, 0]"] ;
557 -> 558 ;
559 [label="gini = 0.0\nsamples = 4\nvalue = [0, 0, 0, 0, 0, 0, 4]"] ;
557 -> 559 ;
560 [label="X[4] <= -0.714\ngini = 0.403\nsamples = 12\nvalue = [9, 1, 0, 0, 0, 0, 2]"] ;
556 -> 560 ;
561 [label="gini = 0.0\nsamples = 8\nvalue = [8, 0, 0, 0, 0, 0, 0]"] ;
560 -> 561 ;
562 [label="X[2] <= -0.837\ngini = 0.625\nsamples = 4\nvalue = [1, 1, 0, 0, 0, 0, 2]"] ;
560 -> 562 ;
563 [label="X[1] <= -0.783\ngini = 0.5\nsamples = 2\nvalue = [1, 1, 0, 0, 0, 0, 0]"] ;
562 -> 563 ;
564 [label="gini = 0.0\nsamples = 1\nvalue = [1, 0, 0, 0, 0, 0, 0]"] ;
563 -> 564 ;
565 [label="gini = 0.0\nsamples = 1\nvalue = [0, 1, 0, 0, 0, 0, 0]"] ;
563 -> 565 ;
566 [label="gini = 0.0\nsamples = 2\nvalue = [0, 0, 0, 0, 0, 0, 2]"] ;
562 -> 566 ;
567 [label="X[5] <= 0.036\ngini = 0.54\nsamples = 21\nvalue = [5, 3, 0, 0, 0, 0, 13]"] ;
545 -> 567 ;
568 [label="X[1] <= -1.274\ngini = 0.165\nsamples = 11\nvalue = [0, 1, 0, 0, 0, 0, 10]"] ;
567 -> 568 ;
569 [label="gini = 0.0\nsamples = 1\nvalue = [0, 1, 0, 0, 0, 0, 0]"] ;
568 -> 569 ;
570 [label="gini = 0.0\nsamples = 10\nvalue = [0, 0, 0, 0, 0, 0, 10]"] ;
568 -> 570 ;
571 [label="X[4] <= -0.771\ngini = 0.62\nsamples = 10\nvalue = [5, 2, 0, 0, 0, 0, 3]"] ;
567 -> 571 ;
572 [label="gini = 0.0\nsamples = 2\nvalue = [0, 2, 0, 0, 0, 0, 0]"] ;
571 -> 572 ;
573 [label="X[5] <= 0.193\ngini = 0.469\nsamples = 8\nvalue = [5, 0, 0, 0, 0, 0, 3]"] ;
571 -> 573 ;
574 [label="X[3] <= 0.923\ngini = 0.278\nsamples = 6\nvalue = [5, 0, 0, 0, 0, 0, 1]"] ;
573 -> 574 ;
575 [label="gini = 0.0\nsamples = 1\nvalue = [0, 0, 0, 0, 0, 0, 1]"] ;
574 -> 575 ;
576 [label="gini = 0.0\nsamples = 5\nvalue = [5, 0, 0, 0, 0, 0, 0]"] ;
574 -> 576 ;
577 [label="gini = 0.0\nsamples = 2\nvalue = [0, 0, 0, 0, 0, 0, 2]"] ;
573 -> 577 ;
578 [label="X[0] <= -3.281\ngini = 0.406\nsamples = 136\nvalue = [102, 15, 0, 0, 0, 0, 19]"] ;
544 -> 578 ;
579 [label="X[4] <= -1.264\ngini = 0.391\nsamples = 134\nvalue = [102, 13, 0, 0, 0, 0, 19]"] ;
578 -> 579 ;
580 [label="X[2] <= -1.297\ngini = 0.206\nsamples = 61\nvalue = [54, 1, 0, 0, 0, 0, 6]"] ;
579 -> 580 ;
581 [label="gini = 0.0\nsamples = 24\nvalue = [24, 0, 0, 0, 0, 0, 0]"] ;
580 -> 581 ;
582 [label="X[4] <= -2.045\ngini = 0.316\nsamples = 37\nvalue = [30, 1, 0, 0, 0, 0, 6]"] ;
580 -> 582 ;
583 [label="X[4] <= -2.104\ngini = 0.473\nsamples = 13\nvalue = [8, 0, 0, 0, 0, 0, 5]"] ;
582 -> 583 ;
584 [label="X[1] <= -0.723\ngini = 0.32\nsamples = 10\nvalue = [8, 0, 0, 0, 0, 0, 2]"] ;
583 -> 584 ;
585 [label="X[4] <= -2.244\ngini = 0.198\nsamples = 9\nvalue = [8, 0, 0, 0, 0, 0, 1]"] ;
584 -> 585 ;
586 [label="gini = 0.0\nsamples = 7\nvalue = [7, 0, 0, 0, 0, 0, 0]"] ;
585 -> 586 ;
587 [label="X[0] <= -3.455\ngini = 0.5\nsamples = 2\nvalue = [1, 0, 0, 0, 0, 0, 1]"] ;
585 -> 587 ;
588 [label="gini = 0.0\nsamples = 1\nvalue = [1, 0, 0, 0, 0, 0, 0]"] ;
587 -> 588 ;
589 [label="gini = 0.0\nsamples = 1\nvalue = [0, 0, 0, 0, 0, 0, 1]"] ;
587 -> 589 ;
590 [label="gini = 0.0\nsamples = 1\nvalue = [0, 0, 0, 0, 0, 0, 1]"] ;
584 -> 590 ;
591 [label="gini = 0.0\nsamples = 3\nvalue = [0, 0, 0, 0, 0, 0, 3]"] ;
583 -> 591 ;
592 [label="X[2] <= -1.272\ngini = 0.156\nsamples = 24\nvalue = [22, 1, 0, 0, 0, 0, 1]"] ;
582 -> 592 ;
593 [label="gini = 0.0\nsamples = 1\nvalue = [0, 0, 0, 0, 0, 0, 1]"] ;
592 -> 593 ;
594 [label="X[0] <= -3.419\ngini = 0.083\nsamples = 23\nvalue = [22, 1, 0, 0, 0, 0, 0]"] ;
592 -> 594 ;
595 [label="X[0] <= -3.438\ngini = 0.278\nsamples = 6\nvalue = [5, 1, 0, 0, 0, 0, 0]"] ;
594 -> 595 ;
596 [label="gini = 0.0\nsamples = 5\nvalue = [5, 0, 0, 0, 0, 0, 0]"] ;
595 -> 596 ;
597 [label="gini = 0.0\nsamples = 1\nvalue = [0, 1, 0, 0, 0, 0, 0]"] ;
595 -> 597 ;
598 [label="gini = 0.0\nsamples = 17\nvalue = [17, 0, 0, 0, 0, 0, 0]"] ;
594 -> 598 ;
599 [label="X[2] <= -1.706\ngini = 0.509\nsamples = 73\nvalue = [48, 12, 0, 0, 0, 0, 13]"] ;
579 -> 599 ;
600 [label="gini = 0.0\nsamples = 4\nvalue = [0, 0, 0, 0, 0, 0, 4]"] ;
599 -> 600 ;
601 [label="X[4] <= -1.151\ngini = 0.469\nsamples = 69\nvalue = [48, 12, 0, 0, 0, 0, 9]"] ;
599 -> 601 ;
602 [label="X[3] <= 1.179\ngini = 0.32\nsamples = 5\nvalue = [1, 4, 0, 0, 0, 0, 0]"] ;
601 -> 602 ;
603 [label="gini = 0.0\nsamples = 1\nvalue = [1, 0, 0, 0, 0, 0, 0]"] ;
602 -> 603 ;
604 [label="gini = 0.0\nsamples = 4\nvalue = [0, 4, 0, 0, 0, 0, 0]"] ;
602 -> 604 ;
605 [label="X[5] <= -0.672\ngini = 0.425\nsamples = 64\nvalue = [47, 8, 0, 0, 0, 0, 9]"] ;
601 -> 605 ;
606 [label="X[3] <= 1.197\ngini = 0.56\nsamples = 5\nvalue = [1, 3, 0, 0, 0, 0, 1]"] ;
605 -> 606 ;
607 [label="X[1] <= -0.354\ngini = 0.5\nsamples = 2\nvalue = [1, 0, 0, 0, 0, 0, 1]"] ;
606 -> 607 ;
608 [label="gini = 0.0\nsamples = 1\nvalue = [1, 0, 0, 0, 0, 0, 0]"] ;
607 -> 608 ;
609 [label="gini = 0.0\nsamples = 1\nvalue = [0, 0, 0, 0, 0, 0, 1]"] ;
607 -> 609 ;
610 [label="gini = 0.0\nsamples = 3\nvalue = [0, 3, 0, 0, 0, 0, 0]"] ;
606 -> 610 ;
611 [label="X[3] <= 1.155\ngini = 0.367\nsamples = 59\nvalue = [46, 5, 0, 0, 0, 0, 8]"] ;
605 -> 611 ;
612 [label="X[1] <= -0.665\ngini = 0.569\nsamples = 24\nvalue = [14, 4, 0, 0, 0, 0, 6]"] ;
611 -> 612 ;
613 [label="X[5] <= 0.321\ngini = 0.438\nsamples = 18\nvalue = [13, 3, 0, 0, 0, 0, 2]"] ;
612 -> 613 ;
614 [label="X[4] <= -0.154\ngini = 0.305\nsamples = 16\nvalue = [13, 3, 0, 0, 0, 0, 0]"] ;
613 -> 614 ;
615 [label="X[5] <= -0.205\ngini = 0.49\nsamples = 7\nvalue = [4, 3, 0, 0, 0, 0, 0]"] ;
614 -> 615 ;
616 [label="gini = 0.0\nsamples = 3\nvalue = [3, 0, 0, 0, 0, 0, 0]"] ;
615 -> 616 ;
617 [label="X[1] <= -0.743\ngini = 0.375\nsamples = 4\nvalue = [1, 3, 0, 0, 0, 0, 0]"] ;
615 -> 617 ;
618 [label="gini = 0.0\nsamples = 3\nvalue = [0, 3, 0, 0, 0, 0, 0]"] ;
617 -> 618 ;
619 [label="gini = 0.0\nsamples = 1\nvalue = [1, 0, 0, 0, 0, 0, 0]"] ;
617 -> 619 ;
620 [label="gini = 0.0\nsamples = 9\nvalue = [9, 0, 0, 0, 0, 0, 0]"] ;
614 -> 620 ;
621 [label="gini = 0.0\nsamples = 2\nvalue = [0, 0, 0, 0, 0, 0, 2]"] ;
613 -> 621 ;
622 [label="X[5] <= 0.004\ngini = 0.5\nsamples = 6\nvalue = [1, 1, 0, 0, 0, 0, 4]"] ;
612 -> 622 ;
623 [label="X[0] <= -3.33\ngini = 0.32\nsamples = 5\nvalue = [1, 0, 0, 0, 0, 0, 4]"] ;
622 -> 623 ;
624 [label="gini = 0.0\nsamples = 4\nvalue = [0, 0, 0, 0, 0, 0, 4]"] ;
623 -> 624 ;
625 [label="gini = 0.0\nsamples = 1\nvalue = [1, 0, 0, 0, 0, 0, 0]"] ;
623 -> 625 ;
626 [label="gini = 0.0\nsamples = 1\nvalue = [0, 1, 0, 0, 0, 0, 0]"] ;
622 -> 626 ;
627 [label="X[2] <= -0.509\ngini = 0.16\nsamples = 35\nvalue = [32, 1, 0, 0, 0, 0, 2]"] ;
611 -> 627 ;
628 [label="gini = 0.0\nsamples = 30\nvalue = [30, 0, 0, 0, 0, 0, 0]"] ;
627 -> 628 ;
629 [label="X[4] <= 0.084\ngini = 0.64\nsamples = 5\nvalue = [2, 1, 0, 0, 0, 0, 2]"] ;
627 -> 629 ;
630 [label="gini = 0.0\nsamples = 2\nvalue = [2, 0, 0, 0, 0, 0, 0]"] ;
629 -> 630 ;
631 [label="X[3] <= 1.474\ngini = 0.444\nsamples = 3\nvalue = [0, 1, 0, 0, 0, 0, 2]"] ;
629 -> 631 ;
632 [label="gini = 0.0\nsamples = 2\nvalue = [0, 0, 0, 0, 0, 0, 2]"] ;
631 -> 632 ;
633 [label="gini = 0.0\nsamples = 1\nvalue = [0, 1, 0, 0, 0, 0, 0]"] ;
631 -> 633 ;
634 [label="gini = 0.0\nsamples = 2\nvalue = [0, 2, 0, 0, 0, 0, 0]"] ;
578 -> 634 ;
635 [label="X[1] <= -1.022\ngini = 0.486\nsamples = 32\nvalue = [9, 21, 0, 0, 0, 0, 2]"] ;
543 -> 635 ;
636 [label="X[2] <= -1.637\ngini = 0.32\nsamples = 25\nvalue = [5, 20, 0, 0, 0, 0, 0]"] ;
635 -> 636 ;
637 [label="gini = 0.0\nsamples = 1\nvalue = [1, 0, 0, 0, 0, 0, 0]"] ;
636 -> 637 ;
638 [label="X[3] <= 0.951\ngini = 0.278\nsamples = 24\nvalue = [4, 20, 0, 0, 0, 0, 0]"] ;
636 -> 638 ;
639 [label="X[4] <= -0.102\ngini = 0.49\nsamples = 7\nvalue = [3, 4, 0, 0, 0, 0, 0]"] ;
638 -> 639 ;
640 [label="gini = 0.0\nsamples = 4\nvalue = [0, 4, 0, 0, 0, 0, 0]"] ;
639 -> 640 ;
641 [label="gini = 0.0\nsamples = 3\nvalue = [3, 0, 0, 0, 0, 0, 0]"] ;
639 -> 641 ;
642 [label="X[1] <= -1.289\ngini = 0.111\nsamples = 17\nvalue = [1, 16, 0, 0, 0, 0, 0]"] ;
638 -> 642 ;
643 [label="X[1] <= -1.299\ngini = 0.278\nsamples = 6\nvalue = [1, 5, 0, 0, 0, 0, 0]"] ;
642 -> 643 ;
644 [label="gini = 0.0\nsamples = 5\nvalue = [0, 5, 0, 0, 0, 0, 0]"] ;
643 -> 644 ;
645 [label="gini = 0.0\nsamples = 1\nvalue = [1, 0, 0, 0, 0, 0, 0]"] ;
643 -> 645 ;
646 [label="gini = 0.0\nsamples = 11\nvalue = [0, 11, 0, 0, 0, 0, 0]"] ;
642 -> 646 ;
647 [label="X[3] <= 1.156\ngini = 0.571\nsamples = 7\nvalue = [4, 1, 0, 0, 0, 0, 2]"] ;
635 -> 647 ;
648 [label="X[2] <= -0.913\ngini = 0.444\nsamples = 3\nvalue = [0, 1, 0, 0, 0, 0, 2]"] ;
647 -> 648 ;
649 [label="gini = 0.0\nsamples = 1\nvalue = [0, 1, 0, 0, 0, 0, 0]"] ;
648 -> 649 ;
650 [label="gini = 0.0\nsamples = 2\nvalue = [0, 0, 0, 0, 0, 0, 2]"] ;
648 -> 650 ;
651 [label="gini = 0.0\nsamples = 4\nvalue = [4, 0, 0, 0, 0, 0, 0]"] ;
647 -> 651 ;
652 [label="X[4] <= -0.075\ngini = 0.423\nsamples = 1273\nvalue = [906, 336, 0, 0, 0, 0, 31]"] ;
456 -> 652 ;
653 [label="X[2] <= -1.839\ngini = 0.375\nsamples = 771\nvalue = [589, 155, 0, 0, 0, 0, 27]"] ;
652 -> 653 ;
654 [label="X[5] <= -0.318\ngini = 0.444\nsamples = 24\nvalue = [8, 16, 0, 0, 0, 0, 0]"] ;
653 -> 654 ;
655 [label="gini = 0.0\nsamples = 5\nvalue = [5, 0, 0, 0, 0, 0, 0]"] ;
654 -> 655 ;
656 [label="X[2] <= -2.111\ngini = 0.266\nsamples = 19\nvalue = [3, 16, 0, 0, 0, 0, 0]"] ;
654 -> 656 ;
657 [label="X[3] <= 3.525\ngini = 0.5\nsamples = 6\nvalue = [3, 3, 0, 0, 0, 0, 0]"] ;
656 -> 657 ;
658 [label="gini = 0.0\nsamples = 2\nvalue = [2, 0, 0, 0, 0, 0, 0]"] ;
657 -> 658 ;
659 [label="X[2] <= -2.182\ngini = 0.375\nsamples = 4\nvalue = [1, 3, 0, 0, 0, 0, 0]"] ;
657 -> 659 ;
660 [label="gini = 0.0\nsamples = 1\nvalue = [1, 0, 0, 0, 0, 0, 0]"] ;
659 -> 660 ;
661 [label="gini = 0.0\nsamples = 3\nvalue = [0, 3, 0, 0, 0, 0, 0]"] ;
659 -> 661 ;
662 [label="gini = 0.0\nsamples = 13\nvalue = [0, 13, 0, 0, 0, 0, 0]"] ;
656 -> 662 ;
663 [label="X[3] <= 0.309\ngini = 0.359\nsamples = 747\nvalue = [581, 139, 0, 0, 0, 0, 27]"] ;
653 -> 663 ;
664 [label="X[5] <= -0.02\ngini = 0.504\nsamples = 172\nvalue = [111, 46, 0, 0, 0, 0, 15]"] ;
663 -> 664 ;
665 [label="X[4] <= -2.151\ngini = 0.377\nsamples = 108\nvalue = [83, 18, 0, 0, 0, 0, 7]"] ;
664 -> 665 ;
666 [label="X[0] <= -2.86\ngini = 0.444\nsamples = 3\nvalue = [0, 1, 0, 0, 0, 0, 2]"] ;
665 -> 666 ;
667 [label="gini = 0.0\nsamples = 2\nvalue = [0, 0, 0, 0, 0, 0, 2]"] ;
666 -> 667 ;
668 [label="gini = 0.0\nsamples = 1\nvalue = [0, 1, 0, 0, 0, 0, 0]"] ;
666 -> 668 ;
669 [label="X[3] <= -0.172\ngini = 0.347\nsamples = 105\nvalue = [83, 17, 0, 0, 0, 0, 5]"] ;
665 -> 669 ;
670 [label="X[5] <= -0.779\ngini = 0.216\nsamples = 59\nvalue = [52, 3, 0, 0, 0, 0, 4]"] ;
669 -> 670 ;
671 [label="X[0] <= -2.816\ngini = 0.594\nsamples = 8\nvalue = [4, 1, 0, 0, 0, 0, 3]"] ;
670 -> 671 ;
672 [label="X[1] <= -1.42\ngini = 0.375\nsamples = 4\nvalue = [0, 1, 0, 0, 0, 0, 3]"] ;
671 -> 672 ;
673 [label="gini = 0.0\nsamples = 3\nvalue = [0, 0, 0, 0, 0, 0, 3]"] ;
672 -> 673 ;
674 [label="gini = 0.0\nsamples = 1\nvalue = [0, 1, 0, 0, 0, 0, 0]"] ;
672 -> 674 ;
675 [label="gini = 0.0\nsamples = 4\nvalue = [4, 0, 0, 0, 0, 0, 0]"] ;
671 -> 675 ;
676 [label="X[0] <= -3.228\ngini = 0.112\nsamples = 51\nvalue = [48, 2, 0, 0, 0, 0, 1]"] ;
670 -> 676 ;
677 [label="gini = 0.0\nsamples = 1\nvalue = [0, 0, 0, 0, 0, 0, 1]"] ;
676 -> 677 ;
678 [label="X[4] <= -0.185\ngini = 0.077\nsamples = 50\nvalue = [48, 2, 0, 0, 0, 0, 0]"] ;
676 -> 678 ;
679 [label="X[2] <= 0.017\ngini = 0.04\nsamples = 49\nvalue = [48, 1, 0, 0, 0, 0, 0]"] ;
678 -> 679 ;
680 [label="gini = 0.0\nsamples = 44\nvalue = [44, 0, 0, 0, 0, 0, 0]"] ;
679 -> 680 ;
681 [label="X[1] <= -1.682\ngini = 0.32\nsamples = 5\nvalue = [4, 1, 0, 0, 0, 0, 0]"] ;
679 -> 681 ;
682 [label="gini = 0.0\nsamples = 4\nvalue = [4, 0, 0, 0, 0, 0, 0]"] ;
681 -> 682 ;
683 [label="gini = 0.0\nsamples = 1\nvalue = [0, 1, 0, 0, 0, 0, 0]"] ;
681 -> 683 ;
684 [label="gini = 0.0\nsamples = 1\nvalue = [0, 1, 0, 0, 0, 0, 0]"] ;
678 -> 684 ;
685 [label="X[0] <= -2.595\ngini = 0.453\nsamples = 46\nvalue = [31, 14, 0, 0, 0, 0, 1]"] ;
669 -> 685 ;
686 [label="X[2] <= -0.202\ngini = 0.269\nsamples = 26\nvalue = [22, 3, 0, 0, 0, 0, 1]"] ;
685 -> 686 ;
687 [label="X[4] <= -0.175\ngini = 0.163\nsamples = 23\nvalue = [21, 1, 0, 0, 0, 0, 1]"] ;
686 -> 687 ;
688 [label="X[3] <= -0.138\ngini = 0.087\nsamples = 22\nvalue = [21, 0, 0, 0, 0, 0, 1]"] ;
687 -> 688 ;
689 [label="gini = 0.0\nsamples = 1\nvalue = [0, 0, 0, 0, 0, 0, 1]"] ;
688 -> 689 ;
690 [label="gini = 0.0\nsamples = 21\nvalue = [21, 0, 0, 0, 0, 0, 0]"] ;
688 -> 690 ;
691 [label="gini = 0.0\nsamples = 1\nvalue = [0, 1, 0, 0, 0, 0, 0]"] ;
687 -> 691 ;
692 [label="X[0] <= -3.107\ngini = 0.444\nsamples = 3\nvalue = [1, 2, 0, 0, 0, 0, 0]"] ;
686 -> 692 ;
693 [label="gini = 0.0\nsamples = 1\nvalue = [1, 0, 0, 0, 0, 0, 0]"] ;
692 -> 693 ;
694 [label="gini = 0.0\nsamples = 2\nvalue = [0, 2, 0, 0, 0, 0, 0]"] ;
692 -> 694 ;
695 [label="X[5] <= -0.107\ngini = 0.495\nsamples = 20\nvalue = [9, 11, 0, 0, 0, 0, 0]"] ;
685 -> 695 ;
696 [label="X[3] <= 0.151\ngini = 0.457\nsamples = 17\nvalue = [6, 11, 0, 0, 0, 0, 0]"] ;
695 -> 696 ;
697 [label="X[4] <= -0.29\ngini = 0.298\nsamples = 11\nvalue = [2, 9, 0, 0, 0, 0, 0]"] ;
696 -> 697 ;
698 [label="gini = 0.0\nsamples = 8\nvalue = [0, 8, 0, 0, 0, 0, 0]"] ;
697 -> 698 ;
699 [label="X[5] <= -0.139\ngini = 0.444\nsamples = 3\nvalue = [2, 1, 0, 0, 0, 0, 0]"] ;
697 -> 699 ;
700 [label="gini = 0.0\nsamples = 2\nvalue = [2, 0, 0, 0, 0, 0, 0]"] ;
699 -> 700 ;
701 [label="gini = 0.0\nsamples = 1\nvalue = [0, 1, 0, 0, 0, 0, 0]"] ;
699 -> 701 ;
702 [label="X[4] <= -0.392\ngini = 0.444\nsamples = 6\nvalue = [4, 2, 0, 0, 0, 0, 0]"] ;
696 -> 702 ;
703 [label="gini = 0.0\nsamples = 4\nvalue = [4, 0, 0, 0, 0, 0, 0]"] ;
702 -> 703 ;
704 [label="gini = 0.0\nsamples = 2\nvalue = [0, 2, 0, 0, 0, 0, 0]"] ;
702 -> 704 ;
705 [label="gini = 0.0\nsamples = 3\nvalue = [3, 0, 0, 0, 0, 0, 0]"] ;
695 -> 705 ;
706 [label="X[2] <= 0.109\ngini = 0.602\nsamples = 64\nvalue = [28, 28, 0, 0, 0, 0, 8]"] ;
664 -> 706 ;
707 [label="X[4] <= -0.581\ngini = 0.534\nsamples = 55\nvalue = [26, 27, 0, 0, 0, 0, 2]"] ;
706 -> 707 ;
708 [label="X[1] <= -1.083\ngini = 0.499\nsamples = 23\nvalue = [15, 6, 0, 0, 0, 0, 2]"] ;
707 -> 708 ;
709 [label="X[2] <= -0.914\ngini = 0.37\nsamples = 18\nvalue = [14, 2, 0, 0, 0, 0, 2]"] ;
708 -> 709 ;
710 [label="gini = 0.0\nsamples = 2\nvalue = [0, 0, 0, 0, 0, 0, 2]"] ;
709 -> 710 ;
711 [label="X[4] <= -2.602\ngini = 0.219\nsamples = 16\nvalue = [14, 2, 0, 0, 0, 0, 0]"] ;
709 -> 711 ;
712 [label="gini = 0.0\nsamples = 1\nvalue = [0, 1, 0, 0, 0, 0, 0]"] ;
711 -> 712 ;
713 [label="X[1] <= -1.262\ngini = 0.124\nsamples = 15\nvalue = [14, 1, 0, 0, 0, 0, 0]"] ;
711 -> 713 ;
714 [label="gini = 0.0\nsamples = 12\nvalue = [12, 0, 0, 0, 0, 0, 0]"] ;
713 -> 714 ;
715 [label="X[0] <= -2.958\ngini = 0.444\nsamples = 3\nvalue = [2, 1, 0, 0, 0, 0, 0]"] ;
713 -> 715 ;
716 [label="gini = 0.0\nsamples = 2\nvalue = [2, 0, 0, 0, 0, 0, 0]"] ;
715 -> 716 ;
717 [label="gini = 0.0\nsamples = 1\nvalue = [0, 1, 0, 0, 0, 0, 0]"] ;
715 -> 717 ;
718 [label="X[4] <= -0.658\ngini = 0.32\nsamples = 5\nvalue = [1, 4, 0, 0, 0, 0, 0]"] ;
708 -> 718 ;
719 [label="gini = 0.0\nsamples = 4\nvalue = [0, 4, 0, 0, 0, 0, 0]"] ;
718 -> 719 ;
720 [label="gini = 0.0\nsamples = 1\nvalue = [1, 0, 0, 0, 0, 0, 0]"] ;
718 -> 720 ;
721 [label="X[2] <= -0.631\ngini = 0.451\nsamples = 32\nvalue = [11, 21, 0, 0, 0, 0, 0]"] ;
707 -> 721 ;
722 [label="X[2] <= -0.864\ngini = 0.444\nsamples = 12\nvalue = [8, 4, 0, 0, 0, 0, 0]"] ;
721 -> 722 ;
723 [label="gini = 0.0\nsamples = 3\nvalue = [0, 3, 0, 0, 0, 0, 0]"] ;
722 -> 723 ;
724 [label="X[4] <= -0.478\ngini = 0.198\nsamples = 9\nvalue = [8, 1, 0, 0, 0, 0, 0]"] ;
722 -> 724 ;
725 [label="gini = 0.0\nsamples = 1\nvalue = [0, 1, 0, 0, 0, 0, 0]"] ;
724 -> 725 ;
726 [label="gini = 0.0\nsamples = 8\nvalue = [8, 0, 0, 0, 0, 0, 0]"] ;
724 -> 726 ;
727 [label="X[5] <= 1.32\ngini = 0.255\nsamples = 20\nvalue = [3, 17, 0, 0, 0, 0, 0]"] ;
721 -> 727 ;
728 [label="X[3] <= 0.243\ngini = 0.111\nsamples = 17\nvalue = [1, 16, 0, 0, 0, 0, 0]"] ;
727 -> 728 ;
729 [label="gini = 0.0\nsamples = 14\nvalue = [0, 14, 0, 0, 0, 0, 0]"] ;
728 -> 729 ;
730 [label="X[3] <= 0.278\ngini = 0.444\nsamples = 3\nvalue = [1, 2, 0, 0, 0, 0, 0]"] ;
728 -> 730 ;
731 [label="gini = 0.0\nsamples = 1\nvalue = [1, 0, 0, 0, 0, 0, 0]"] ;
730 -> 731 ;
732 [label="gini = 0.0\nsamples = 2\nvalue = [0, 2, 0, 0, 0, 0, 0]"] ;
730 -> 732 ;
733 [label="X[4] <= -0.527\ngini = 0.444\nsamples = 3\nvalue = [2, 1, 0, 0, 0, 0, 0]"] ;
727 -> 733 ;
734 [label="gini = 0.0\nsamples = 1\nvalue = [0, 1, 0, 0, 0, 0, 0]"] ;
733 -> 734 ;
735 [label="gini = 0.0\nsamples = 2\nvalue = [2, 0, 0, 0, 0, 0, 0]"] ;
733 -> 735 ;
736 [label="X[1] <= -1.968\ngini = 0.494\nsamples = 9\nvalue = [2, 1, 0, 0, 0, 0, 6]"] ;
706 -> 736 ;
737 [label="X[3] <= -1.044\ngini = 0.625\nsamples = 4\nvalue = [2, 1, 0, 0, 0, 0, 1]"] ;
736 -> 737 ;
738 [label="gini = 0.0\nsamples = 2\nvalue = [2, 0, 0, 0, 0, 0, 0]"] ;
737 -> 738 ;
739 [label="X[1] <= -2.087\ngini = 0.5\nsamples = 2\nvalue = [0, 1, 0, 0, 0, 0, 1]"] ;
737 -> 739 ;
740 [label="gini = 0.0\nsamples = 1\nvalue = [0, 0, 0, 0, 0, 0, 1]"] ;
739 -> 740 ;
741 [label="gini = 0.0\nsamples = 1\nvalue = [0, 1, 0, 0, 0, 0, 0]"] ;
739 -> 741 ;
742 [label="gini = 0.0\nsamples = 5\nvalue = [0, 0, 0, 0, 0, 0, 5]"] ;
736 -> 742 ;
743 [label="X[2] <= -1.146\ngini = 0.305\nsamples = 575\nvalue = [470, 93, 0, 0, 0, 0, 12]"] ;
663 -> 743 ;
744 [label="X[4] <= -1.77\ngini = 0.377\nsamples = 163\nvalue = [122, 41, 0, 0, 0, 0, 0]"] ;
743 -> 744 ;
745 [label="X[1] <= -0.828\ngini = 0.087\nsamples = 66\nvalue = [63, 3, 0, 0, 0, 0, 0]"] ;
744 -> 745 ;
746 [label="X[1] <= -1.951\ngini = 0.031\nsamples = 63\nvalue = [62, 1, 0, 0, 0, 0, 0]"] ;
745 -> 746 ;
747 [label="X[5] <= -0.357\ngini = 0.278\nsamples = 6\nvalue = [5, 1, 0, 0, 0, 0, 0]"] ;
746 -> 747 ;
748 [label="gini = 0.0\nsamples = 1\nvalue = [0, 1, 0, 0, 0, 0, 0]"] ;
747 -> 748 ;
749 [label="gini = 0.0\nsamples = 5\nvalue = [5, 0, 0, 0, 0, 0, 0]"] ;
747 -> 749 ;
750 [label="gini = 0.0\nsamples = 57\nvalue = [57, 0, 0, 0, 0, 0, 0]"] ;
746 -> 750 ;
751 [label="X[4] <= -1.923\ngini = 0.444\nsamples = 3\nvalue = [1, 2, 0, 0, 0, 0, 0]"] ;
745 -> 751 ;
752 [label="gini = 0.0\nsamples = 2\nvalue = [0, 2, 0, 0, 0, 0, 0]"] ;
751 -> 752 ;
753 [label="gini = 0.0\nsamples = 1\nvalue = [1, 0, 0, 0, 0, 0, 0]"] ;
751 -> 753 ;
754 [label="X[1] <= -0.991\ngini = 0.477\nsamples = 97\nvalue = [59, 38, 0, 0, 0, 0, 0]"] ;
744 -> 754 ;
755 [label="X[4] <= -0.652\ngini = 0.5\nsamples = 71\nvalue = [35, 36, 0, 0, 0, 0, 0]"] ;
754 -> 755 ;
756 [label="X[0] <= -3.245\ngini = 0.477\nsamples = 51\nvalue = [20, 31, 0, 0, 0, 0, 0]"] ;
755 -> 756 ;
757 [label="gini = 0.0\nsamples = 4\nvalue = [4, 0, 0, 0, 0, 0, 0]"] ;
756 -> 757 ;
758 [label="X[5] <= -0.009\ngini = 0.449\nsamples = 47\nvalue = [16, 31, 0, 0, 0, 0, 0]"] ;
756 -> 758 ;
759 [label="X[1] <= -1.177\ngini = 0.495\nsamples = 29\nvalue = [13, 16, 0, 0, 0, 0, 0]"] ;
758 -> 759 ;
760 [label="X[1] <= -1.82\ngini = 0.455\nsamples = 20\nvalue = [13, 7, 0, 0, 0, 0, 0]"] ;
759 -> 760 ;
761 [label="gini = 0.0\nsamples = 2\nvalue = [0, 2, 0, 0, 0, 0, 0]"] ;
760 -> 761 ;
762 [label="X[2] <= -1.288\ngini = 0.401\nsamples = 18\nvalue = [13, 5, 0, 0, 0, 0, 0]"] ;
760 -> 762 ;
763 [label="X[1] <= -1.249\ngini = 0.153\nsamples = 12\nvalue = [11, 1, 0, 0, 0, 0, 0]"] ;
762 -> 763 ;
764 [label="gini = 0.0\nsamples = 10\nvalue = [10, 0, 0, 0, 0, 0, 0]"] ;
763 -> 764 ;
765 [label="X[3] <= 1.807\ngini = 0.5\nsamples = 2\nvalue = [1, 1, 0, 0, 0, 0, 0]"] ;
763 -> 765 ;
766 [label="gini = 0.0\nsamples = 1\nvalue = [1, 0, 0, 0, 0, 0, 0]"] ;
765 -> 766 ;
767 [label="gini = 0.0\nsamples = 1\nvalue = [0, 1, 0, 0, 0, 0, 0]"] ;
765 -> 767 ;
768 [label="X[1] <= -1.292\ngini = 0.444\nsamples = 6\nvalue = [2, 4, 0, 0, 0, 0, 0]"] ;
762 -> 768 ;
769 [label="gini = 0.0\nsamples = 4\nvalue = [0, 4, 0, 0, 0, 0, 0]"] ;
768 -> 769 ;
770 [label="gini = 0.0\nsamples = 2\nvalue = [2, 0, 0, 0, 0, 0, 0]"] ;
768 -> 770 ;
771 [label="gini = 0.0\nsamples = 9\nvalue = [0, 9, 0, 0, 0, 0, 0]"] ;
759 -> 771 ;
772 [label="X[1] <= -1.082\ngini = 0.278\nsamples = 18\nvalue = [3, 15, 0, 0, 0, 0, 0]"] ;
758 -> 772 ;
773 [label="X[1] <= -1.948\ngini = 0.117\nsamples = 16\nvalue = [1, 15, 0, 0, 0, 0, 0]"] ;
772 -> 773 ;
774 [label="X[1] <= -2.141\ngini = 0.5\nsamples = 2\nvalue = [1, 1, 0, 0, 0, 0, 0]"] ;
773 -> 774 ;
775 [label="gini = 0.0\nsamples = 1\nvalue = [0, 1, 0, 0, 0, 0, 0]"] ;
774 -> 775 ;
776 [label="gini = 0.0\nsamples = 1\nvalue = [1, 0, 0, 0, 0, 0, 0]"] ;
774 -> 776 ;
777 [label="gini = 0.0\nsamples = 14\nvalue = [0, 14, 0, 0, 0, 0, 0]"] ;
773 -> 777 ;
778 [label="gini = 0.0\nsamples = 2\nvalue = [2, 0, 0, 0, 0, 0, 0]"] ;
772 -> 778 ;
779 [label="X[5] <= 0.508\ngini = 0.375\nsamples = 20\nvalue = [15, 5, 0, 0, 0, 0, 0]"] ;
755 -> 779 ;
780 [label="X[3] <= 1.093\ngini = 0.473\nsamples = 13\nvalue = [8, 5, 0, 0, 0, 0, 0]"] ;
779 -> 780 ;
781 [label="gini = 0.0\nsamples = 2\nvalue = [0, 2, 0, 0, 0, 0, 0]"] ;
780 -> 781 ;
782 [label="X[4] <= -0.446\ngini = 0.397\nsamples = 11\nvalue = [8, 3, 0, 0, 0, 0, 0]"] ;
780 -> 782 ;
783 [label="gini = 0.0\nsamples = 5\nvalue = [5, 0, 0, 0, 0, 0, 0]"] ;
782 -> 783 ;
784 [label="X[0] <= -2.888\ngini = 0.5\nsamples = 6\nvalue = [3, 3, 0, 0, 0, 0, 0]"] ;
782 -> 784 ;
785 [label="gini = 0.0\nsamples = 2\nvalue = [0, 2, 0, 0, 0, 0, 0]"] ;
784 -> 785 ;
786 [label="X[5] <= -0.204\ngini = 0.375\nsamples = 4\nvalue = [3, 1, 0, 0, 0, 0, 0]"] ;
784 -> 786 ;
787 [label="gini = 0.0\nsamples = 1\nvalue = [0, 1, 0, 0, 0, 0, 0]"] ;
786 -> 787 ;
788 [label="gini = 0.0\nsamples = 3\nvalue = [3, 0, 0, 0, 0, 0, 0]"] ;
786 -> 788 ;
789 [label="gini = 0.0\nsamples = 7\nvalue = [7, 0, 0, 0, 0, 0, 0]"] ;
779 -> 789 ;
790 [label="X[0] <= -2.74\ngini = 0.142\nsamples = 26\nvalue = [24, 2, 0, 0, 0, 0, 0]"] ;
754 -> 790 ;
791 [label="X[4] <= -1.669\ngini = 0.077\nsamples = 25\nvalue = [24, 1, 0, 0, 0, 0, 0]"] ;
790 -> 791 ;
792 [label="X[1] <= -0.503\ngini = 0.5\nsamples = 2\nvalue = [1, 1, 0, 0, 0, 0, 0]"] ;
791 -> 792 ;
793 [label="gini = 0.0\nsamples = 1\nvalue = [0, 1, 0, 0, 0, 0, 0]"] ;
792 -> 793 ;
794 [label="gini = 0.0\nsamples = 1\nvalue = [1, 0, 0, 0, 0, 0, 0]"] ;
792 -> 794 ;
795 [label="gini = 0.0\nsamples = 23\nvalue = [23, 0, 0, 0, 0, 0, 0]"] ;
791 -> 795 ;
796 [label="gini = 0.0\nsamples = 1\nvalue = [0, 1, 0, 0, 0, 0, 0]"] ;
790 -> 796 ;
797 [label="X[2] <= -0.053\ngini = 0.27\nsamples = 412\nvalue = [348, 52, 0, 0, 0, 0, 12]"] ;
743 -> 797 ;
798 [label="X[4] <= -2.798\ngini = 0.243\nsamples = 373\nvalue = [322, 39, 0, 0, 0, 0, 12]"] ;
797 -> 798 ;
799 [label="X[3] <= 1.94\ngini = 0.653\nsamples = 7\nvalue = [3, 2, 0, 0, 0, 0, 2]"] ;
798 -> 799 ;
800 [label="gini = 0.0\nsamples = 2\nvalue = [0, 0, 0, 0, 0, 0, 2]"] ;
799 -> 800 ;
801 [label="X[0] <= -3.035\ngini = 0.48\nsamples = 5\nvalue = [3, 2, 0, 0, 0, 0, 0]"] ;
799 -> 801 ;
802 [label="X[3] <= 2.532\ngini = 0.444\nsamples = 3\nvalue = [1, 2, 0, 0, 0, 0, 0]"] ;
801 -> 802 ;
803 [label="gini = 0.0\nsamples = 2\nvalue = [0, 2, 0, 0, 0, 0, 0]"] ;
802 -> 803 ;
804 [label="gini = 0.0\nsamples = 1\nvalue = [1, 0, 0, 0, 0, 0, 0]"] ;
802 -> 804 ;
805 [label="gini = 0.0\nsamples = 2\nvalue = [2, 0, 0, 0, 0, 0, 0]"] ;
801 -> 805 ;
806 [label="X[3] <= 1.768\ngini = 0.229\nsamples = 366\nvalue = [319, 37, 0, 0, 0, 0, 10]"] ;
798 -> 806 ;
807 [label="X[3] <= 1.725\ngini = 0.272\nsamples = 288\nvalue = [243, 35, 0, 0, 0, 0, 10]"] ;
806 -> 807 ;
808 [label="X[3] <= 1.365\ngini = 0.254\nsamples = 277\nvalue = [237, 31, 0, 0, 0, 0, 9]"] ;
807 -> 808 ;
809 [label="X[3] <= 1.359\ngini = 0.272\nsamples = 228\nvalue = [192, 31, 0, 0, 0, 0, 5]"] ;
808 -> 809 ;
810 [label="X[0] <= -3.265\ngini = 0.261\nsamples = 226\nvalue = [192, 29, 0, 0, 0, 0, 5]"] ;
809 -> 810 ;
811 [label="gini = 0.0\nsamples = 1\nvalue = [0, 1, 0, 0, 0, 0, 0]"] ;
810 -> 811 ;
812 [label="X[4] <= -1.818\ngini = 0.256\nsamples = 225\nvalue = [192, 28, 0, 0, 0, 0, 5]"] ;
810 -> 812 ;
813 [label="X[2] <= -0.664\ngini = 0.374\nsamples = 50\nvalue = [38, 11, 0, 0, 0, 0, 1]"] ;
812 -> 813 ;
814 [label="X[1] <= -0.951\ngini = 0.256\nsamples = 41\nvalue = [35, 5, 0, 0, 0, 0, 1]"] ;
813 -> 814 ;
815 [label="X[2] <= -1.11\ngini = 0.116\nsamples = 33\nvalue = [31, 1, 0, 0, 0, 0, 1]"] ;
814 -> 815 ;
816 [label="gini = 0.0\nsamples = 1\nvalue = [0, 0, 0, 0, 0, 0, 1]"] ;
815 -> 816 ;
817 [label="X[5] <= -0.401\ngini = 0.061\nsamples = 32\nvalue = [31, 1, 0, 0, 0, 0, 0]"] ;
815 -> 817 ;
818 [label="X[5] <= -0.435\ngini = 0.245\nsamples = 7\nvalue = [6, 1, 0, 0, 0, 0, 0]"] ;
817 -> 818 ;
819 [label="gini = 0.0\nsamples = 6\nvalue = [6, 0, 0, 0, 0, 0, 0]"] ;
818 -> 819 ;
820 [label="gini = 0.0\nsamples = 1\nvalue = [0, 1, 0, 0, 0, 0, 0]"] ;
818 -> 820 ;
821 [label="gini = 0.0\nsamples = 25\nvalue = [25, 0, 0, 0, 0, 0, 0]"] ;
817 -> 821 ;
822 [label="X[4] <= -2.353\ngini = 0.5\nsamples = 8\nvalue = [4, 4, 0, 0, 0, 0, 0]"] ;
814 -> 822 ;
823 [label="gini = 0.0\nsamples = 3\nvalue = [3, 0, 0, 0, 0, 0, 0]"] ;
822 -> 823 ;
824 [label="X[3] <= 0.696\ngini = 0.32\nsamples = 5\nvalue = [1, 4, 0, 0, 0, 0, 0]"] ;
822 -> 824 ;
825 [label="gini = 0.0\nsamples = 1\nvalue = [1, 0, 0, 0, 0, 0, 0]"] ;
824 -> 825 ;
826 [label="gini = 0.0\nsamples = 4\nvalue = [0, 4, 0, 0, 0, 0, 0]"] ;
824 -> 826 ;
827 [label="X[3] <= 1.063\ngini = 0.444\nsamples = 9\nvalue = [3, 6, 0, 0, 0, 0, 0]"] ;
813 -> 827 ;
828 [label="X[0] <= -3.187\ngini = 0.245\nsamples = 7\nvalue = [1, 6, 0, 0, 0, 0, 0]"] ;
827 -> 828 ;
829 [label="gini = 0.0\nsamples = 1\nvalue = [1, 0, 0, 0, 0, 0, 0]"] ;
828 -> 829 ;
830 [label="gini = 0.0\nsamples = 6\nvalue = [0, 6, 0, 0, 0, 0, 0]"] ;
828 -> 830 ;
831 [label="gini = 0.0\nsamples = 2\nvalue = [2, 0, 0, 0, 0, 0, 0]"] ;
827 -> 831 ;
832 [label="X[1] <= -0.865\ngini = 0.216\nsamples = 175\nvalue = [154, 17, 0, 0, 0, 0, 4]"] ;
812 -> 832 ;
833 [label="X[1] <= -0.916\ngini = 0.279\nsamples = 104\nvalue = [87, 15, 0, 0, 0, 0, 2]"] ;
832 -> 833 ;
834 [label="X[3] <= 0.389\ngini = 0.219\nsamples = 90\nvalue = [79, 9, 0, 0, 0, 0, 2]"] ;
833 -> 834 ;
835 [label="X[5] <= -0.125\ngini = 0.531\nsamples = 8\nvalue = [5, 1, 0, 0, 0, 0, 2]"] ;
834 -> 835 ;
836 [label="X[2] <= -0.678\ngini = 0.625\nsamples = 4\nvalue = [1, 1, 0, 0, 0, 0, 2]"] ;
835 -> 836 ;
837 [label="gini = 0.0\nsamples = 2\nvalue = [0, 0, 0, 0, 0, 0, 2]"] ;
836 -> 837 ;
838 [label="X[5] <= -0.359\ngini = 0.5\nsamples = 2\nvalue = [1, 1, 0, 0, 0, 0, 0]"] ;
836 -> 838 ;
839 [label="gini = 0.0\nsamples = 1\nvalue = [0, 1, 0, 0, 0, 0, 0]"] ;
838 -> 839 ;
840 [label="gini = 0.0\nsamples = 1\nvalue = [1, 0, 0, 0, 0, 0, 0]"] ;
838 -> 840 ;
841 [label="gini = 0.0\nsamples = 4\nvalue = [4, 0, 0, 0, 0, 0, 0]"] ;
835 -> 841 ;
842 [label="X[4] <= -0.48\ngini = 0.176\nsamples = 82\nvalue = [74, 8, 0, 0, 0, 0, 0]"] ;
834 -> 842 ;
843 [label="X[4] <= -0.765\ngini = 0.268\nsamples = 44\nvalue = [37, 7, 0, 0, 0, 0, 0]"] ;
842 -> 843 ;
844 [label="X[0] <= -2.302\ngini = 0.157\nsamples = 35\nvalue = [32, 3, 0, 0, 0, 0, 0]"] ;
843 -> 844 ;
845 [label="X[0] <= -2.863\ngini = 0.111\nsamples = 34\nvalue = [32, 2, 0, 0, 0, 0, 0]"] ;
844 -> 845 ;
846 [label="X[0] <= -2.958\ngini = 0.298\nsamples = 11\nvalue = [9, 2, 0, 0, 0, 0, 0]"] ;
845 -> 846 ;
847 [label="gini = 0.0\nsamples = 9\nvalue = [9, 0, 0, 0, 0, 0, 0]"] ;
846 -> 847 ;
848 [label="gini = 0.0\nsamples = 2\nvalue = [0, 2, 0, 0, 0, 0, 0]"] ;
846 -> 848 ;
849 [label="gini = 0.0\nsamples = 23\nvalue = [23, 0, 0, 0, 0, 0, 0]"] ;
845 -> 849 ;
850 [label="gini = 0.0\nsamples = 1\nvalue = [0, 1, 0, 0, 0, 0, 0]"] ;
844 -> 850 ;
851 [label="X[5] <= 0.129\ngini = 0.494\nsamples = 9\nvalue = [5, 4, 0, 0, 0, 0, 0]"] ;
843 -> 851 ;
852 [label="X[1] <= -1.155\ngini = 0.32\nsamples = 5\nvalue = [1, 4, 0, 0, 0, 0, 0]"] ;
851 -> 852 ;
853 [label="gini = 0.0\nsamples = 1\nvalue = [1, 0, 0, 0, 0, 0, 0]"] ;
852 -> 853 ;
854 [label="gini = 0.0\nsamples = 4\nvalue = [0, 4, 0, 0, 0, 0, 0]"] ;
852 -> 854 ;
855 [label="gini = 0.0\nsamples = 4\nvalue = [4, 0, 0, 0, 0, 0, 0]"] ;
851 -> 855 ;
856 [label="X[2] <= -1.089\ngini = 0.051\nsamples = 38\nvalue = [37, 1, 0, 0, 0, 0, 0]"] ;
842 -> 856 ;
857 [label="gini = 0.0\nsamples = 1\nvalue = [0, 1, 0, 0, 0, 0, 0]"] ;
856 -> 857 ;
858 [label="gini = 0.0\nsamples = 37\nvalue = [37, 0, 0, 0, 0, 0, 0]"] ;
856 -> 858 ;
859 [label="X[1] <= -0.89\ngini = 0.49\nsamples = 14\nvalue = [8, 6, 0, 0, 0, 0, 0]"] ;
833 -> 859 ;
860 [label="gini = 0.0\nsamples = 5\nvalue = [0, 5, 0, 0, 0, 0, 0]"] ;
859 -> 860 ;
861 [label="X[5] <= -0.044\ngini = 0.198\nsamples = 9\nvalue = [8, 1, 0, 0, 0, 0, 0]"] ;
859 -> 861 ;
862 [label="gini = 0.0\nsamples = 8\nvalue = [8, 0, 0, 0, 0, 0, 0]"] ;
861 -> 862 ;
863 [label="gini = 0.0\nsamples = 1\nvalue = [0, 1, 0, 0, 0, 0, 0]"] ;
861 -> 863 ;
864 [label="X[2] <= -0.689\ngini = 0.108\nsamples = 71\nvalue = [67, 2, 0, 0, 0, 0, 2]"] ;
832 -> 864 ;
865 [label="X[1] <= -0.813\ngini = 0.247\nsamples = 29\nvalue = [25, 2, 0, 0, 0, 0, 2]"] ;
864 -> 865 ;
866 [label="gini = 0.0\nsamples = 1\nvalue = [0, 1, 0, 0, 0, 0, 0]"] ;
865 -> 866 ;
867 [label="X[2] <= -0.696\ngini = 0.196\nsamples = 28\nvalue = [25, 1, 0, 0, 0, 0, 2]"] ;
865 -> 867 ;
868 [label="X[3] <= 0.942\ngini = 0.137\nsamples = 27\nvalue = [25, 0, 0, 0, 0, 0, 2]"] ;
867 -> 868 ;
869 [label="gini = 0.0\nsamples = 19\nvalue = [19, 0, 0, 0, 0, 0, 0]"] ;
868 -> 869 ;
870 [label="X[0] <= -3.045\ngini = 0.375\nsamples = 8\nvalue = [6, 0, 0, 0, 0, 0, 2]"] ;
868 -> 870 ;
871 [label="gini = 0.0\nsamples = 5\nvalue = [5, 0, 0, 0, 0, 0, 0]"] ;
870 -> 871 ;
872 [label="X[2] <= -0.943\ngini = 0.444\nsamples = 3\nvalue = [1, 0, 0, 0, 0, 0, 2]"] ;
870 -> 872 ;
873 [label="gini = 0.0\nsamples = 1\nvalue = [1, 0, 0, 0, 0, 0, 0]"] ;
872 -> 873 ;
874 [label="gini = 0.0\nsamples = 2\nvalue = [0, 0, 0, 0, 0, 0, 2]"] ;
872 -> 874 ;
875 [label="gini = 0.0\nsamples = 1\nvalue = [0, 1, 0, 0, 0, 0, 0]"] ;
867 -> 875 ;
876 [label="gini = 0.0\nsamples = 42\nvalue = [42, 0, 0, 0, 0, 0, 0]"] ;
864 -> 876 ;
877 [label="gini = 0.0\nsamples = 2\nvalue = [0, 2, 0, 0, 0, 0, 0]"] ;
809 -> 877 ;
878 [label="X[5] <= 0.183\ngini = 0.15\nsamples = 49\nvalue = [45, 0, 0, 0, 0, 0, 4]"] ;
808 -> 878 ;
879 [label="gini = 0.0\nsamples = 39\nvalue = [39, 0, 0, 0, 0, 0, 0]"] ;
878 -> 879 ;
880 [label="X[3] <= 1.563\ngini = 0.48\nsamples = 10\nvalue = [6, 0, 0, 0, 0, 0, 4]"] ;
878 -> 880 ;
881 [label="gini = 0.0\nsamples = 4\nvalue = [4, 0, 0, 0, 0, 0, 0]"] ;
880 -> 881 ;
882 [label="X[1] <= -1.375\ngini = 0.444\nsamples = 6\nvalue = [2, 0, 0, 0, 0, 0, 4]"] ;
880 -> 882 ;
883 [label="gini = 0.0\nsamples = 2\nvalue = [2, 0, 0, 0, 0, 0, 0]"] ;
882 -> 883 ;
884 [label="gini = 0.0\nsamples = 4\nvalue = [0, 0, 0, 0, 0, 0, 4]"] ;
882 -> 884 ;
885 [label="X[5] <= 0.023\ngini = 0.562\nsamples = 11\nvalue = [6, 4, 0, 0, 0, 0, 1]"] ;
807 -> 885 ;
886 [label="X[4] <= -0.81\ngini = 0.375\nsamples = 8\nvalue = [6, 2, 0, 0, 0, 0, 0]"] ;
885 -> 886 ;
887 [label="X[5] <= -0.077\ngini = 0.444\nsamples = 3\nvalue = [1, 2, 0, 0, 0, 0, 0]"] ;
886 -> 887 ;
888 [label="gini = 0.0\nsamples = 2\nvalue = [0, 2, 0, 0, 0, 0, 0]"] ;
887 -> 888 ;
889 [label="gini = 0.0\nsamples = 1\nvalue = [1, 0, 0, 0, 0, 0, 0]"] ;
887 -> 889 ;
890 [label="gini = 0.0\nsamples = 5\nvalue = [5, 0, 0, 0, 0, 0, 0]"] ;
886 -> 890 ;
891 [label="X[1] <= -1.351\ngini = 0.444\nsamples = 3\nvalue = [0, 2, 0, 0, 0, 0, 1]"] ;
885 -> 891 ;
892 [label="gini = 0.0\nsamples = 2\nvalue = [0, 2, 0, 0, 0, 0, 0]"] ;
891 -> 892 ;
893 [label="gini = 0.0\nsamples = 1\nvalue = [0, 0, 0, 0, 0, 0, 1]"] ;
891 -> 893 ;
894 [label="X[4] <= -0.142\ngini = 0.05\nsamples = 78\nvalue = [76, 2, 0, 0, 0, 0, 0]"] ;
806 -> 894 ;
895 [label="X[2] <= -0.944\ngini = 0.026\nsamples = 77\nvalue = [76, 1, 0, 0, 0, 0, 0]"] ;
894 -> 895 ;
896 [label="X[2] <= -0.95\ngini = 0.1\nsamples = 19\nvalue = [18, 1, 0, 0, 0, 0, 0]"] ;
895 -> 896 ;
897 [label="gini = 0.0\nsamples = 18\nvalue = [18, 0, 0, 0, 0, 0, 0]"] ;
896 -> 897 ;
898 [label="gini = 0.0\nsamples = 1\nvalue = [0, 1, 0, 0, 0, 0, 0]"] ;
896 -> 898 ;
899 [label="gini = 0.0\nsamples = 58\nvalue = [58, 0, 0, 0, 0, 0, 0]"] ;
895 -> 899 ;
900 [label="gini = 0.0\nsamples = 1\nvalue = [0, 1, 0, 0, 0, 0, 0]"] ;
894 -> 900 ;
901 [label="X[4] <= -0.623\ngini = 0.444\nsamples = 39\nvalue = [26, 13, 0, 0, 0, 0, 0]"] ;
797 -> 901 ;
902 [label="X[3] <= 0.665\ngini = 0.087\nsamples = 22\nvalue = [21, 1, 0, 0, 0, 0, 0]"] ;
901 -> 902 ;
903 [label="X[3] <= 0.633\ngini = 0.278\nsamples = 6\nvalue = [5, 1, 0, 0, 0, 0, 0]"] ;
902 -> 903 ;
904 [label="gini = 0.0\nsamples = 5\nvalue = [5, 0, 0, 0, 0, 0, 0]"] ;
903 -> 904 ;
905 [label="gini = 0.0\nsamples = 1\nvalue = [0, 1, 0, 0, 0, 0, 0]"] ;
903 -> 905 ;
906 [label="gini = 0.0\nsamples = 16\nvalue = [16, 0, 0, 0, 0, 0, 0]"] ;
902 -> 906 ;
907 [label="X[2] <= 0.742\ngini = 0.415\nsamples = 17\nvalue = [5, 12, 0, 0, 0, 0, 0]"] ;
901 -> 907 ;
908 [label="X[0] <= -2.663\ngini = 0.32\nsamples = 15\nvalue = [3, 12, 0, 0, 0, 0, 0]"] ;
907 -> 908 ;
909 [label="gini = 0.0\nsamples = 11\nvalue = [0, 11, 0, 0, 0, 0, 0]"] ;
908 -> 909 ;
910 [label="X[0] <= -2.388\ngini = 0.375\nsamples = 4\nvalue = [3, 1, 0, 0, 0, 0, 0]"] ;
908 -> 910 ;
911 [label="gini = 0.0\nsamples = 3\nvalue = [3, 0, 0, 0, 0, 0, 0]"] ;
910 -> 911 ;
912 [label="gini = 0.0\nsamples = 1\nvalue = [0, 1, 0, 0, 0, 0, 0]"] ;
910 -> 912 ;
913 [label="gini = 0.0\nsamples = 2\nvalue = [2, 0, 0, 0, 0, 0, 0]"] ;
907 -> 913 ;
914 [label="X[0] <= -2.682\ngini = 0.471\nsamples = 502\nvalue = [317, 181, 0, 0, 0, 0, 4]"] ;
652 -> 914 ;
915 [label="X[5] <= 1.285\ngini = 0.416\nsamples = 260\nvalue = [186, 70, 0, 0, 0, 0, 4]"] ;
914 -> 915 ;
916 [label="X[1] <= -0.602\ngini = 0.402\nsamples = 252\nvalue = [184, 64, 0, 0, 0, 0, 4]"] ;
915 -> 916 ;
917 [label="X[1] <= -1.27\ngini = 0.381\nsamples = 242\nvalue = [181, 59, 0, 0, 0, 0, 2]"] ;
916 -> 917 ;
918 [label="X[1] <= -1.285\ngini = 0.43\nsamples = 131\nvalue = [90, 41, 0, 0, 0, 0, 0]"] ;
917 -> 918 ;
919 [label="X[5] <= 0.044\ngini = 0.4\nsamples = 123\nvalue = [89, 34, 0, 0, 0, 0, 0]"] ;
918 -> 919 ;
920 [label="X[1] <= -1.307\ngini = 0.494\nsamples = 18\nvalue = [8, 10, 0, 0, 0, 0, 0]"] ;
919 -> 920 ;
921 [label="X[4] <= 0.919\ngini = 0.469\nsamples = 16\nvalue = [6, 10, 0, 0, 0, 0, 0]"] ;
920 -> 921 ;
922 [label="X[0] <= -3.118\ngini = 0.408\nsamples = 14\nvalue = [4, 10, 0, 0, 0, 0, 0]"] ;
921 -> 922 ;
923 [label="gini = 0.0\nsamples = 2\nvalue = [2, 0, 0, 0, 0, 0, 0]"] ;
922 -> 923 ;
924 [label="X[3] <= 0.494\ngini = 0.278\nsamples = 12\nvalue = [2, 10, 0, 0, 0, 0, 0]"] ;
922 -> 924 ;
925 [label="gini = 0.0\nsamples = 7\nvalue = [0, 7, 0, 0, 0, 0, 0]"] ;
924 -> 925 ;
926 [label="X[4] <= 0.292\ngini = 0.48\nsamples = 5\nvalue = [2, 3, 0, 0, 0, 0, 0]"] ;
924 -> 926 ;
927 [label="X[2] <= -0.534\ngini = 0.444\nsamples = 3\nvalue = [2, 1, 0, 0, 0, 0, 0]"] ;
926 -> 927 ;
928 [label="gini = 0.0\nsamples = 2\nvalue = [2, 0, 0, 0, 0, 0, 0]"] ;
927 -> 928 ;
929 [label="gini = 0.0\nsamples = 1\nvalue = [0, 1, 0, 0, 0, 0, 0]"] ;
927 -> 929 ;
930 [label="gini = 0.0\nsamples = 2\nvalue = [0, 2, 0, 0, 0, 0, 0]"] ;
926 -> 930 ;
931 [label="gini = 0.0\nsamples = 2\nvalue = [2, 0, 0, 0, 0, 0, 0]"] ;
921 -> 931 ;
932 [label="gini = 0.0\nsamples = 2\nvalue = [2, 0, 0, 0, 0, 0, 0]"] ;
920 -> 932 ;
933 [label="X[3] <= 1.783\ngini = 0.353\nsamples = 105\nvalue = [81, 24, 0, 0, 0, 0, 0]"] ;
919 -> 933 ;
934 [label="X[2] <= -1.198\ngini = 0.31\nsamples = 94\nvalue = [76, 18, 0, 0, 0, 0, 0]"] ;
933 -> 934 ;
935 [label="X[1] <= -1.489\ngini = 0.466\nsamples = 27\nvalue = [17, 10, 0, 0, 0, 0, 0]"] ;
934 -> 935 ;
936 [label="gini = 0.0\nsamples = 3\nvalue = [0, 3, 0, 0, 0, 0, 0]"] ;
935 -> 936 ;
937 [label="X[4] <= 0.75\ngini = 0.413\nsamples = 24\nvalue = [17, 7, 0, 0, 0, 0, 0]"] ;
935 -> 937 ;
938 [label="X[4] <= 0.445\ngini = 0.498\nsamples = 15\nvalue = [8, 7, 0, 0, 0, 0, 0]"] ;
937 -> 938 ;
939 [label="X[1] <= -1.416\ngini = 0.245\nsamples = 7\nvalue = [6, 1, 0, 0, 0, 0, 0]"] ;
938 -> 939 ;
940 [label="gini = 0.0\nsamples = 1\nvalue = [0, 1, 0, 0, 0, 0, 0]"] ;
939 -> 940 ;
941 [label="gini = 0.0\nsamples = 6\nvalue = [6, 0, 0, 0, 0, 0, 0]"] ;
939 -> 941 ;
942 [label="X[3] <= 1.331\ngini = 0.375\nsamples = 8\nvalue = [2, 6, 0, 0, 0, 0, 0]"] ;
938 -> 942 ;
943 [label="gini = 0.0\nsamples = 5\nvalue = [0, 5, 0, 0, 0, 0, 0]"] ;
942 -> 943 ;
944 [label="X[1] <= -1.343\ngini = 0.444\nsamples = 3\nvalue = [2, 1, 0, 0, 0, 0, 0]"] ;
942 -> 944 ;
945 [label="gini = 0.0\nsamples = 2\nvalue = [2, 0, 0, 0, 0, 0, 0]"] ;
944 -> 945 ;
946 [label="gini = 0.0\nsamples = 1\nvalue = [0, 1, 0, 0, 0, 0, 0]"] ;
944 -> 946 ;
947 [label="gini = 0.0\nsamples = 9\nvalue = [9, 0, 0, 0, 0, 0, 0]"] ;
937 -> 947 ;
948 [label="X[4] <= 0.112\ngini = 0.21\nsamples = 67\nvalue = [59, 8, 0, 0, 0, 0, 0]"] ;
934 -> 948 ;
949 [label="X[4] <= 0.085\ngini = 0.43\nsamples = 16\nvalue = [11, 5, 0, 0, 0, 0, 0]"] ;
948 -> 949 ;
950 [label="X[3] <= 0.595\ngini = 0.337\nsamples = 14\nvalue = [11, 3, 0, 0, 0, 0, 0]"] ;
949 -> 950 ;
951 [label="X[2] <= -0.88\ngini = 0.49\nsamples = 7\nvalue = [4, 3, 0, 0, 0, 0, 0]"] ;
950 -> 951 ;
952 [label="X[2] <= -0.932\ngini = 0.48\nsamples = 5\nvalue = [2, 3, 0, 0, 0, 0, 0]"] ;
951 -> 952 ;
953 [label="X[5] <= 0.183\ngini = 0.444\nsamples = 3\nvalue = [2, 1, 0, 0, 0, 0, 0]"] ;
952 -> 953 ;
954 [label="gini = 0.0\nsamples = 1\nvalue = [0, 1, 0, 0, 0, 0, 0]"] ;
953 -> 954 ;
955 [label="gini = 0.0\nsamples = 2\nvalue = [2, 0, 0, 0, 0, 0, 0]"] ;
953 -> 955 ;
956 [label="gini = 0.0\nsamples = 2\nvalue = [0, 2, 0, 0, 0, 0, 0]"] ;
952 -> 956 ;
957 [label="gini = 0.0\nsamples = 2\nvalue = [2, 0, 0, 0, 0, 0, 0]"] ;
951 -> 957 ;
958 [label="gini = 0.0\nsamples = 7\nvalue = [7, 0, 0, 0, 0, 0, 0]"] ;
950 -> 958 ;
959 [label="gini = 0.0\nsamples = 2\nvalue = [0, 2, 0, 0, 0, 0, 0]"] ;
949 -> 959 ;
960 [label="X[2] <= -0.973\ngini = 0.111\nsamples = 51\nvalue = [48, 3, 0, 0, 0, 0, 0]"] ;
948 -> 960 ;
961 [label="X[2] <= -0.979\ngini = 0.204\nsamples = 26\nvalue = [23, 3, 0, 0, 0, 0, 0]"] ;
960 -> 961 ;
962 [label="X[1] <= -1.722\ngini = 0.08\nsamples = 24\nvalue = [23, 1, 0, 0, 0, 0, 0]"] ;
961 -> 962 ;
963 [label="gini = 0.0\nsamples = 1\nvalue = [0, 1, 0, 0, 0, 0, 0]"] ;
962 -> 963 ;
964 [label="gini = 0.0\nsamples = 23\nvalue = [23, 0, 0, 0, 0, 0, 0]"] ;
962 -> 964 ;
965 [label="gini = 0.0\nsamples = 2\nvalue = [0, 2, 0, 0, 0, 0, 0]"] ;
961 -> 965 ;
966 [label="gini = 0.0\nsamples = 25\nvalue = [25, 0, 0, 0, 0, 0, 0]"] ;
960 -> 966 ;
967 [label="X[4] <= 0.42\ngini = 0.496\nsamples = 11\nvalue = [5, 6, 0, 0, 0, 0, 0]"] ;
933 -> 967 ;
968 [label="X[0] <= -2.789\ngini = 0.245\nsamples = 7\nvalue = [1, 6, 0, 0, 0, 0, 0]"] ;
967 -> 968 ;
969 [label="gini = 0.0\nsamples = 6\nvalue = [0, 6, 0, 0, 0, 0, 0]"] ;
968 -> 969 ;
970 [label="gini = 0.0\nsamples = 1\nvalue = [1, 0, 0, 0, 0, 0, 0]"] ;
968 -> 970 ;
971 [label="gini = 0.0\nsamples = 4\nvalue = [4, 0, 0, 0, 0, 0, 0]"] ;
967 -> 971 ;
972 [label="X[4] <= 0.009\ngini = 0.219\nsamples = 8\nvalue = [1, 7, 0, 0, 0, 0, 0]"] ;
918 -> 972 ;
973 [label="gini = 0.0\nsamples = 1\nvalue = [1, 0, 0, 0, 0, 0, 0]"] ;
972 -> 973 ;
974 [label="gini = 0.0\nsamples = 7\nvalue = [0, 7, 0, 0, 0, 0, 0]"] ;
972 -> 974 ;
975 [label="X[1] <= -0.837\ngini = 0.301\nsamples = 111\nvalue = [91, 18, 0, 0, 0, 0, 2]"] ;
917 -> 975 ;
976 [label="X[1] <= -1.126\ngini = 0.202\nsamples = 80\nvalue = [71, 8, 0, 0, 0, 0, 1]"] ;
975 -> 976 ;
977 [label="X[1] <= -1.2\ngini = 0.34\nsamples = 43\nvalue = [34, 8, 0, 0, 0, 0, 1]"] ;
976 -> 977 ;
978 [label="gini = 0.0\nsamples = 21\nvalue = [21, 0, 0, 0, 0, 0, 0]"] ;
977 -> 978 ;
979 [label="X[1] <= -1.194\ngini = 0.517\nsamples = 22\nvalue = [13, 8, 0, 0, 0, 0, 1]"] ;
977 -> 979 ;
980 [label="gini = 0.0\nsamples = 3\nvalue = [0, 3, 0, 0, 0, 0, 0]"] ;
979 -> 980 ;
981 [label="X[4] <= 0.073\ngini = 0.46\nsamples = 19\nvalue = [13, 5, 0, 0, 0, 0, 1]"] ;
979 -> 981 ;
982 [label="X[0] <= -2.966\ngini = 0.444\nsamples = 3\nvalue = [0, 2, 0, 0, 0, 0, 1]"] ;
981 -> 982 ;
983 [label="gini = 0.0\nsamples = 1\nvalue = [0, 0, 0, 0, 0, 0, 1]"] ;
982 -> 983 ;
984 [label="gini = 0.0\nsamples = 2\nvalue = [0, 2, 0, 0, 0, 0, 0]"] ;
982 -> 984 ;
985 [label="X[2] <= -1.158\ngini = 0.305\nsamples = 16\nvalue = [13, 3, 0, 0, 0, 0, 0]"] ;
981 -> 985 ;
986 [label="X[5] <= 0.261\ngini = 0.49\nsamples = 7\nvalue = [4, 3, 0, 0, 0, 0, 0]"] ;
985 -> 986 ;
987 [label="gini = 0.0\nsamples = 2\nvalue = [0, 2, 0, 0, 0, 0, 0]"] ;
986 -> 987 ;
988 [label="X[3] <= 1.46\ngini = 0.32\nsamples = 5\nvalue = [4, 1, 0, 0, 0, 0, 0]"] ;
986 -> 988 ;
989 [label="gini = 0.0\nsamples = 4\nvalue = [4, 0, 0, 0, 0, 0, 0]"] ;
988 -> 989 ;
990 [label="gini = 0.0\nsamples = 1\nvalue = [0, 1, 0, 0, 0, 0, 0]"] ;
988 -> 990 ;
991 [label="gini = 0.0\nsamples = 9\nvalue = [9, 0, 0, 0, 0, 0, 0]"] ;
985 -> 991 ;
992 [label="gini = 0.0\nsamples = 37\nvalue = [37, 0, 0, 0, 0, 0, 0]"] ;
976 -> 992 ;
993 [label="X[0] <= -3.007\ngini = 0.479\nsamples = 31\nvalue = [20, 10, 0, 0, 0, 0, 1]"] ;
975 -> 993 ;
994 [label="X[5] <= -0.77\ngini = 0.54\nsamples = 10\nvalue = [3, 6, 0, 0, 0, 0, 1]"] ;
993 -> 994 ;
995 [label="gini = 0.0\nsamples = 1\nvalue = [0, 0, 0, 0, 0, 0, 1]"] ;
994 -> 995 ;
996 [label="X[0] <= -3.172\ngini = 0.444\nsamples = 9\nvalue = [3, 6, 0, 0, 0, 0, 0]"] ;
994 -> 996 ;
997 [label="X[5] <= -0.206\ngini = 0.444\nsamples = 3\nvalue = [2, 1, 0, 0, 0, 0, 0]"] ;
996 -> 997 ;
998 [label="gini = 0.0\nsamples = 1\nvalue = [0, 1, 0, 0, 0, 0, 0]"] ;
997 -> 998 ;
999 [label="gini = 0.0\nsamples = 2\nvalue = [2, 0, 0, 0, 0, 0, 0]"] ;
997 -> 999 ;
1000 [label="X[2] <= -1.066\ngini = 0.278\nsamples = 6\nvalue = [1, 5, 0, 0, 0, 0, 0]"] ;
996 -> 1000 ;
1001 [label="gini = 0.0\nsamples = 1\nvalue = [1, 0, 0, 0, 0, 0, 0]"] ;
1000 -> 1001 ;
1002 [label="gini = 0.0\nsamples = 5\nvalue = [0, 5, 0, 0, 0, 0, 0]"] ;
1000 -> 1002 ;
1003 [label="X[1] <= -0.824\ngini = 0.308\nsamples = 21\nvalue = [17, 4, 0, 0, 0, 0, 0]"] ;
993 -> 1003 ;
1004 [label="gini = 0.0\nsamples = 2\nvalue = [0, 2, 0, 0, 0, 0, 0]"] ;
1003 -> 1004 ;
1005 [label="X[4] <= -0.031\ngini = 0.188\nsamples = 19\nvalue = [17, 2, 0, 0, 0, 0, 0]"] ;
1003 -> 1005 ;
1006 [label="X[1] <= -0.756\ngini = 0.5\nsamples = 2\nvalue = [1, 1, 0, 0, 0, 0, 0]"] ;
1005 -> 1006 ;
1007 [label="gini = 0.0\nsamples = 1\nvalue = [1, 0, 0, 0, 0, 0, 0]"] ;
1006 -> 1007 ;
1008 [label="gini = 0.0\nsamples = 1\nvalue = [0, 1, 0, 0, 0, 0, 0]"] ;
1006 -> 1008 ;
1009 [label="X[1] <= -0.783\ngini = 0.111\nsamples = 17\nvalue = [16, 1, 0, 0, 0, 0, 0]"] ;
1005 -> 1009 ;
1010 [label="X[0] <= -2.862\ngini = 0.375\nsamples = 4\nvalue = [3, 1, 0, 0, 0, 0, 0]"] ;
1009 -> 1010 ;
1011 [label="gini = 0.0\nsamples = 1\nvalue = [0, 1, 0, 0, 0, 0, 0]"] ;
1010 -> 1011 ;
1012 [label="gini = 0.0\nsamples = 3\nvalue = [3, 0, 0, 0, 0, 0, 0]"] ;
1010 -> 1012 ;
1013 [label="gini = 0.0\nsamples = 13\nvalue = [13, 0, 0, 0, 0, 0, 0]"] ;
1009 -> 1013 ;
1014 [label="X[1] <= -0.524\ngini = 0.62\nsamples = 10\nvalue = [3, 5, 0, 0, 0, 0, 2]"] ;
916 -> 1014 ;
1015 [label="gini = 0.0\nsamples = 4\nvalue = [0, 4, 0, 0, 0, 0, 0]"] ;
1014 -> 1015 ;
1016 [label="X[3] <= 0.614\ngini = 0.611\nsamples = 6\nvalue = [3, 1, 0, 0, 0, 0, 2]"] ;
1014 -> 1016 ;
1017 [label="X[4] <= 0.17\ngini = 0.375\nsamples = 4\nvalue = [3, 1, 0, 0, 0, 0, 0]"] ;
1016 -> 1017 ;
1018 [label="gini = 0.0\nsamples = 1\nvalue = [0, 1, 0, 0, 0, 0, 0]"] ;
1017 -> 1018 ;
1019 [label="gini = 0.0\nsamples = 3\nvalue = [3, 0, 0, 0, 0, 0, 0]"] ;
1017 -> 1019 ;
1020 [label="gini = 0.0\nsamples = 2\nvalue = [0, 0, 0, 0, 0, 0, 2]"] ;
1016 -> 1020 ;
1021 [label="X[5] <= 1.545\ngini = 0.375\nsamples = 8\nvalue = [2, 6, 0, 0, 0, 0, 0]"] ;
915 -> 1021 ;
1022 [label="gini = 0.0\nsamples = 6\nvalue = [0, 6, 0, 0, 0, 0, 0]"] ;
1021 -> 1022 ;
1023 [label="gini = 0.0\nsamples = 2\nvalue = [2, 0, 0, 0, 0, 0, 0]"] ;
1021 -> 1023 ;
1024 [label="X[0] <= -2.504\ngini = 0.497\nsamples = 242\nvalue = [131, 111, 0, 0, 0, 0, 0]"] ;
914 -> 1024 ;
1025 [label="X[3] <= 1.04\ngini = 0.489\nsamples = 94\nvalue = [40, 54, 0, 0, 0, 0, 0]"] ;
1024 -> 1025 ;
1026 [label="X[1] <= -0.703\ngini = 0.453\nsamples = 75\nvalue = [26, 49, 0, 0, 0, 0, 0]"] ;
1025 -> 1026 ;
1027 [label="X[1] <= -1.66\ngini = 0.428\nsamples = 71\nvalue = [22, 49, 0, 0, 0, 0, 0]"] ;
1026 -> 1027 ;
1028 [label="gini = 0.0\nsamples = 12\nvalue = [0, 12, 0, 0, 0, 0, 0]"] ;
1027 -> 1028 ;
1029 [label="X[2] <= -0.625\ngini = 0.468\nsamples = 59\nvalue = [22, 37, 0, 0, 0, 0, 0]"] ;
1027 -> 1029 ;
1030 [label="X[0] <= -2.604\ngini = 0.497\nsamples = 48\nvalue = [22, 26, 0, 0, 0, 0, 0]"] ;
1029 -> 1030 ;
1031 [label="X[0] <= -2.647\ngini = 0.453\nsamples = 26\nvalue = [17, 9, 0, 0, 0, 0, 0]"] ;
1030 -> 1031 ;
1032 [label="X[4] <= 0.113\ngini = 0.444\nsamples = 9\nvalue = [3, 6, 0, 0, 0, 0, 0]"] ;
1031 -> 1032 ;
1033 [label="gini = 0.0\nsamples = 2\nvalue = [2, 0, 0, 0, 0, 0, 0]"] ;
1032 -> 1033 ;
1034 [label="X[5] <= 0.304\ngini = 0.245\nsamples = 7\nvalue = [1, 6, 0, 0, 0, 0, 0]"] ;
1032 -> 1034 ;
1035 [label="gini = 0.0\nsamples = 6\nvalue = [0, 6, 0, 0, 0, 0, 0]"] ;
1034 -> 1035 ;
1036 [label="gini = 0.0\nsamples = 1\nvalue = [1, 0, 0, 0, 0, 0, 0]"] ;
1034 -> 1036 ;
1037 [label="X[5] <= 0.13\ngini = 0.291\nsamples = 17\nvalue = [14, 3, 0, 0, 0, 0, 0]"] ;
1031 -> 1037 ;
1038 [label="X[1] <= -1.472\ngini = 0.49\nsamples = 7\nvalue = [4, 3, 0, 0, 0, 0, 0]"] ;
1037 -> 1038 ;
1039 [label="gini = 0.0\nsamples = 2\nvalue = [0, 2, 0, 0, 0, 0, 0]"] ;
1038 -> 1039 ;
1040 [label="X[1] <= -0.837\ngini = 0.32\nsamples = 5\nvalue = [4, 1, 0, 0, 0, 0, 0]"] ;
1038 -> 1040 ;
1041 [label="gini = 0.0\nsamples = 3\nvalue = [3, 0, 0, 0, 0, 0, 0]"] ;
1040 -> 1041 ;
1042 [label="X[3] <= 0.554\ngini = 0.5\nsamples = 2\nvalue = [1, 1, 0, 0, 0, 0, 0]"] ;
1040 -> 1042 ;
1043 [label="gini = 0.0\nsamples = 1\nvalue = [1, 0, 0, 0, 0, 0, 0]"] ;
1042 -> 1043 ;
1044 [label="gini = 0.0\nsamples = 1\nvalue = [0, 1, 0, 0, 0, 0, 0]"] ;
1042 -> 1044 ;
1045 [label="gini = 0.0\nsamples = 10\nvalue = [10, 0, 0, 0, 0, 0, 0]"] ;
1037 -> 1045 ;
1046 [label="X[2] <= -0.704\ngini = 0.351\nsamples = 22\nvalue = [5, 17, 0, 0, 0, 0, 0]"] ;
1030 -> 1046 ;
1047 [label="X[0] <= -2.51\ngini = 0.208\nsamples = 17\nvalue = [2, 15, 0, 0, 0, 0, 0]"] ;
1046 -> 1047 ;
1048 [label="X[5] <= 0.598\ngini = 0.117\nsamples = 16\nvalue = [1, 15, 0, 0, 0, 0, 0]"] ;
1047 -> 1048 ;
1049 [label="gini = 0.0\nsamples = 15\nvalue = [0, 15, 0, 0, 0, 0, 0]"] ;
1048 -> 1049 ;
1050 [label="gini = 0.0\nsamples = 1\nvalue = [1, 0, 0, 0, 0, 0, 0]"] ;
1048 -> 1050 ;
1051 [label="gini = 0.0\nsamples = 1\nvalue = [1, 0, 0, 0, 0, 0, 0]"] ;
1047 -> 1051 ;
1052 [label="X[2] <= -0.69\ngini = 0.48\nsamples = 5\nvalue = [3, 2, 0, 0, 0, 0, 0]"] ;
1046 -> 1052 ;
1053 [label="gini = 0.0\nsamples = 2\nvalue = [2, 0, 0, 0, 0, 0, 0]"] ;
1052 -> 1053 ;
1054 [label="X[4] <= 0.079\ngini = 0.444\nsamples = 3\nvalue = [1, 2, 0, 0, 0, 0, 0]"] ;
1052 -> 1054 ;
1055 [label="gini = 0.0\nsamples = 1\nvalue = [1, 0, 0, 0, 0, 0, 0]"] ;
1054 -> 1055 ;
1056 [label="gini = 0.0\nsamples = 2\nvalue = [0, 2, 0, 0, 0, 0, 0]"] ;
1054 -> 1056 ;
1057 [label="gini = 0.0\nsamples = 11\nvalue = [0, 11, 0, 0, 0, 0, 0]"] ;
1029 -> 1057 ;
1058 [label="gini = 0.0\nsamples = 4\nvalue = [4, 0, 0, 0, 0, 0, 0]"] ;
1026 -> 1058 ;
1059 [label="X[5] <= 0.039\ngini = 0.388\nsamples = 19\nvalue = [14, 5, 0, 0, 0, 0, 0]"] ;
1025 -> 1059 ;
1060 [label="X[3] <= 1.152\ngini = 0.32\nsamples = 5\nvalue = [1, 4, 0, 0, 0, 0, 0]"] ;
1059 -> 1060 ;
1061 [label="gini = 0.0\nsamples = 1\nvalue = [1, 0, 0, 0, 0, 0, 0]"] ;
1060 -> 1061 ;
1062 [label="gini = 0.0\nsamples = 4\nvalue = [0, 4, 0, 0, 0, 0, 0]"] ;
1060 -> 1062 ;
1063 [label="X[2] <= -0.478\ngini = 0.133\nsamples = 14\nvalue = [13, 1, 0, 0, 0, 0, 0]"] ;
1059 -> 1063 ;
1064 [label="gini = 0.0\nsamples = 13\nvalue = [13, 0, 0, 0, 0, 0, 0]"] ;
1063 -> 1064 ;
1065 [label="gini = 0.0\nsamples = 1\nvalue = [0, 1, 0, 0, 0, 0, 0]"] ;
1063 -> 1065 ;
