digraph Tree {
node [shape=box] ;
0 [label="X[0] <= -0.172\ngini = 0.857\nsamples = 14421\nvalue = [2061, 2060, 2060, 2060, 2060, 2060, 2060]"] ;
1 [label="X[0] <= -0.856\ngini = 0.709\nsamples = 6301\nvalue = [6, 227, 1930, 2060, 213, 1865, 0]"] ;
0 -> 1 [labeldistance=2.5, labelangle=45, headlabel="True"] ;
2 [label="X[6] <= -0.725\ngini = 0.605\nsamples = 3754\nvalue = [0, 0, 963, 2006, 0, 785, 0]"] ;
1 -> 2 ;
3 [label="X[3] <= -1.019\ngini = 0.624\nsamples = 1142\nvalue = [0, 0, 486, 188, 0, 468, 0]"] ;
2 -> 3 ;
4 [label="X[0] <= -1.743\ngini = 0.31\nsamples = 100\nvalue = [0, 0, 12, 82, 0, 6, 0]"] ;
3 -> 4 ;
5 [label="X[5] <= -1.178\ngini = 0.568\nsamples = 9\nvalue = [0, 0, 1, 3, 0, 5, 0]"] ;
4 -> 5 ;
6 [label="X[6] <= -1.412\ngini = 0.375\nsamples = 4\nvalue = [0, 0, 1, 3, 0, 0, 0]"] ;
5 -> 6 ;
7 [label="gini = 0.0\nsamples = 3\nvalue = [0, 0, 0, 3, 0, 0, 0]"] ;
6 -> 7 ;
8 [label="gini = 0.0\nsamples = 1\nvalue = [0, 0, 1, 0, 0, 0, 0]"] ;
6 -> 8 ;
9 [label="gini = 0.0\nsamples = 5\nvalue = [0, 0, 0, 0, 0, 5, 0]"] ;
5 -> 9 ;
10 [label="X[0] <= -1.067\ngini = 0.232\nsamples = 91\nvalue = [0, 0, 11, 79, 0, 1, 0]"] ;
4 -> 10 ;
11 [label="X[6] <= -2.541\ngini = 0.151\nsamples = 85\nvalue = [0, 0, 7, 78, 0, 0, 0]"] ;
10 -> 11 ;
12 [label="gini = 0.0\nsamples = 1\nvalue = [0, 0, 1, 0, 0, 0, 0]"] ;
11 -> 12 ;
13 [label="X[9] <= -0.0\ngini = 0.133\nsamples = 84\nvalue = [0, 0, 6, 78, 0, 0, 0]"] ;
11 -> 13 ;
14 [label="X[23] <= 1.04\ngini = 0.113\nsamples = 83\nvalue = [0, 0, 5, 78, 0, 0, 0]"] ;
13 -> 14 ;
15 [label="X[17] <= 1.958\ngini = 0.058\nsamples = 67\nvalue = [0, 0, 2, 65, 0, 0, 0]"] ;
14 -> 15 ;
16 [label="gini = 0.0\nsamples = 56\nvalue = [0, 0, 0, 56, 0, 0, 0]"] ;
15 -> 16 ;
17 [label="X[9] <= -0.969\ngini = 0.298\nsamples = 11\nvalue = [0, 0, 2, 9, 0, 0, 0]"] ;
15 -> 17 ;
18 [label="X[5] <= -0.988\ngini = 0.18\nsamples = 10\nvalue = [0, 0, 1, 9, 0, 0, 0]"] ;
17 -> 18 ;
19 [label="gini = 0.0\nsamples = 1\nvalue = [0, 0, 1, 0, 0, 0, 0]"] ;
18 -> 19 ;
20 [label="gini = 0.0\nsamples = 9\nvalue = [0, 0, 0, 9, 0, 0, 0]"] ;
18 -> 20 ;
21 [label="gini = 0.0\nsamples = 1\nvalue = [0, 0, 1, 0, 0, 0, 0]"] ;
17 -> 21 ;
22 [label="X[8] <= 1.036\ngini = 0.305\nsamples = 16\nvalue = [0, 0, 3, 13, 0, 0, 0]"] ;
14 -> 22 ;
23 [label="X[6] <= -1.494\ngini = 0.133\nsamples = 14\nvalue = [0, 0, 1, 13, 0, 0, 0]"] ;
22 -> 23 ;
24 [label="X[0] <= -1.433\ngini = 0.5\nsamples = 2\nvalue = [0, 0, 1, 1, 0, 0, 0]"] ;
23 -> 24 ;
25 [label="gini = 0.0\nsamples = 1\nvalue = [0, 0, 0, 1, 0, 0, 0]"] ;
24 -> 25 ;
26 [label="gini = 0.0\nsamples = 1\nvalue = [0, 0, 1, 0, 0, 0, 0]"] ;
24 -> 26 ;
27 [label="gini = 0.0\nsamples = 12\nvalue = [0, 0, 0, 12, 0, 0, 0]"] ;
23 -> 27 ;
28 [label="gini = 0.0\nsamples = 2\nvalue = [0, 0, 2, 0, 0, 0, 0]"] ;
22 -> 28 ;
29 [label="gini = 0.0\nsamples = 1\nvalue = [0, 0, 1, 0, 0, 0, 0]"] ;
13 -> 29 ;
30 [label="X[6] <= -1.134\ngini = 0.5\nsamples = 6\nvalue = [0, 0, 4, 1, 0, 1, 0]"] ;
10 -> 30 ;
31 [label="X[6] <= -1.183\ngini = 0.5\nsamples = 2\nvalue = [0, 0, 0, 1, 0, 1, 0]"] ;
30 -> 31 ;
32 [label="gini = 0.0\nsamples = 1\nvalue = [0, 0, 0, 0, 0, 1, 0]"] ;
31 -> 32 ;
33 [label="gini = 0.0\nsamples = 1\nvalue = [0, 0, 0, 1, 0, 0, 0]"] ;
31 -> 33 ;
34 [label="gini = 0.0\nsamples = 4\nvalue = [0, 0, 4, 0, 0, 0, 0]"] ;
30 -> 34 ;
35 [label="X[30] <= 2.32\ngini = 0.586\nsamples = 1042\nvalue = [0, 0, 474, 106, 0, 462, 0]"] ;
3 -> 35 ;
36 [label="X[9] <= -0.828\ngini = 0.557\nsamples = 985\nvalue = [0, 0, 465, 62, 0, 458, 0]"] ;
35 -> 36 ;
37 [label="X[5] <= -0.468\ngini = 0.525\nsamples = 394\nvalue = [0, 0, 240, 31, 0, 123, 0]"] ;
36 -> 37 ;
38 [label="X[7] <= 1.209\ngini = 0.464\nsamples = 312\nvalue = [0, 0, 217, 31, 0, 64, 0]"] ;
37 -> 38 ;
39 [label="X[4] <= 0.344\ngini = 0.381\nsamples = 273\nvalue = [0, 0, 205, 4, 0, 64, 0]"] ;
38 -> 39 ;
40 [label="X[5] <= -0.755\ngini = 0.481\nsamples = 166\nvalue = [0, 0, 105, 4, 0, 57, 0]"] ;
39 -> 40 ;
41 [label="X[5] <= -1.116\ngini = 0.516\nsamples = 130\nvalue = [0, 0, 71, 3, 0, 56, 0]"] ;
40 -> 41 ;
42 [label="X[13] <= 0.408\ngini = 0.062\nsamples = 31\nvalue = [0, 0, 30, 0, 0, 1, 0]"] ;
41 -> 42 ;
43 [label="gini = 0.0\nsamples = 1\nvalue = [0, 0, 0, 0, 0, 1, 0]"] ;
42 -> 43 ;
44 [label="gini = 0.0\nsamples = 30\nvalue = [0, 0, 30, 0, 0, 0, 0]"] ;
42 -> 44 ;
45 [label="X[6] <= -2.737\ngini = 0.519\nsamples = 99\nvalue = [0, 0, 41, 3, 0, 55, 0]"] ;
41 -> 45 ;
46 [label="X[3] <= -0.727\ngini = 0.332\nsamples = 19\nvalue = [0, 0, 15, 0, 0, 4, 0]"] ;
45 -> 46 ;
47 [label="X[8] <= 1.458\ngini = 0.5\nsamples = 8\nvalue = [0, 0, 4, 0, 0, 4, 0]"] ;
46 -> 47 ;
48 [label="gini = 0.0\nsamples = 4\nvalue = [0, 0, 0, 0, 0, 4, 0]"] ;
47 -> 48 ;
49 [label="gini = 0.0\nsamples = 4\nvalue = [0, 0, 4, 0, 0, 0, 0]"] ;
47 -> 49 ;
50 [label="gini = 0.0\nsamples = 11\nvalue = [0, 0, 11, 0, 0, 0, 0]"] ;
46 -> 50 ;
51 [label="X[0] <= -1.154\ngini = 0.487\nsamples = 80\nvalue = [0, 0, 26, 3, 0, 51, 0]"] ;
45 -> 51 ;
52 [label="X[23] <= 1.04\ngini = 0.401\nsamples = 55\nvalue = [0, 0, 11, 3, 0, 41, 0]"] ;
51 -> 52 ;
53 [label="X[6] <= -0.856\ngini = 0.32\nsamples = 5\nvalue = [0, 0, 4, 1, 0, 0, 0]"] ;
52 -> 53 ;
54 [label="gini = 0.0\nsamples = 4\nvalue = [0, 0, 4, 0, 0, 0, 0]"] ;
53 -> 54 ;
55 [label="gini = 0.0\nsamples = 1\nvalue = [0, 0, 0, 1, 0, 0, 0]"] ;
53 -> 55 ;
56 [label="X[6] <= -0.823\ngini = 0.306\nsamples = 50\nvalue = [0, 0, 7, 2, 0, 41, 0]"] ;
52 -> 56 ;
57 [label="X[9] <= -0.894\ngini = 0.254\nsamples = 47\nvalue = [0, 0, 7, 0, 0, 40, 0]"] ;
56 -> 57 ;
58 [label="X[7] <= -2.983\ngini = 0.117\nsamples = 32\nvalue = [0, 0, 2, 0, 0, 30, 0]"] ;
57 -> 58 ;
59 [label="X[5] <= -0.977\ngini = 0.5\nsamples = 4\nvalue = [0, 0, 2, 0, 0, 2, 0]"] ;
58 -> 59 ;
60 [label="gini = 0.0\nsamples = 2\nvalue = [0, 0, 2, 0, 0, 0, 0]"] ;
59 -> 60 ;
61 [label="gini = 0.0\nsamples = 2\nvalue = [0, 0, 0, 0, 0, 2, 0]"] ;
59 -> 61 ;
62 [label="gini = 0.0\nsamples = 28\nvalue = [0, 0, 0, 0, 0, 28, 0]"] ;
58 -> 62 ;
63 [label="X[4] <= 0.036\ngini = 0.444\nsamples = 15\nvalue = [0, 0, 5, 0, 0, 10, 0]"] ;
57 -> 63 ;
64 [label="X[2] <= 1.281\ngini = 0.355\nsamples = 13\nvalue = [0, 0, 3, 0, 0, 10, 0]"] ;
63 -> 64 ;
65 [label="X[0] <= -1.583\ngini = 0.444\nsamples = 3\nvalue = [0, 0, 2, 0, 0, 1, 0]"] ;
64 -> 65 ;
66 [label="gini = 0.0\nsamples = 1\nvalue = [0, 0, 0, 0, 0, 1, 0]"] ;
65 -> 66 ;
67 [label="gini = 0.0\nsamples = 2\nvalue = [0, 0, 2, 0, 0, 0, 0]"] ;
65 -> 67 ;
68 [label="X[1] <= 1.694\ngini = 0.18\nsamples = 10\nvalue = [0, 0, 1, 0, 0, 9, 0]"] ;
64 -> 68 ;
69 [label="gini = 0.0\nsamples = 8\nvalue = [0, 0, 0, 0, 0, 8, 0]"] ;
68 -> 69 ;
70 [label="X[3] <= -0.536\ngini = 0.5\nsamples = 2\nvalue = [0, 0, 1, 0, 0, 1, 0]"] ;
68 -> 70 ;
71 [label="gini = 0.0\nsamples = 1\nvalue = [0, 0, 1, 0, 0, 0, 0]"] ;
70 -> 71 ;
72 [label="gini = 0.0\nsamples = 1\nvalue = [0, 0, 0, 0, 0, 1, 0]"] ;
70 -> 72 ;
73 [label="gini = 0.0\nsamples = 2\nvalue = [0, 0, 2, 0, 0, 0, 0]"] ;
63 -> 73 ;
74 [label="X[1] <= 0.23\ngini = 0.444\nsamples = 3\nvalue = [0, 0, 0, 2, 0, 1, 0]"] ;
56 -> 74 ;
75 [label="gini = 0.0\nsamples = 2\nvalue = [0, 0, 0, 2, 0, 0, 0]"] ;
74 -> 75 ;
76 [label="gini = 0.0\nsamples = 1\nvalue = [0, 0, 0, 0, 0, 1, 0]"] ;
74 -> 76 ;
77 [label="X[0] <= -1.006\ngini = 0.48\nsamples = 25\nvalue = [0, 0, 15, 0, 0, 10, 0]"] ;
51 -> 77 ;
78 [label="X[1] <= 1.821\ngini = 0.245\nsamples = 14\nvalue = [0, 0, 12, 0, 0, 2, 0]"] ;
77 -> 78 ;
79 [label="X[7] <= -3.526\ngini = 0.142\nsamples = 13\nvalue = [0, 0, 12, 0, 0, 1, 0]"] ;
78 -> 79 ;
80 [label="X[1] <= -1.23\ngini = 0.5\nsamples = 2\nvalue = [0, 0, 1, 0, 0, 1, 0]"] ;
79 -> 80 ;
81 [label="gini = 0.0\nsamples = 1\nvalue = [0, 0, 0, 0, 0, 1, 0]"] ;
80 -> 81 ;
82 [label="gini = 0.0\nsamples = 1\nvalue = [0, 0, 1, 0, 0, 0, 0]"] ;
80 -> 82 ;
83 [label="gini = 0.0\nsamples = 11\nvalue = [0, 0, 11, 0, 0, 0, 0]"] ;
79 -> 83 ;
84 [label="gini = 0.0\nsamples = 1\nvalue = [0, 0, 0, 0, 0, 1, 0]"] ;
78 -> 84 ;
85 [label="X[1] <= 1.382\ngini = 0.397\nsamples = 11\nvalue = [0, 0, 3, 0, 0, 8, 0]"] ;
77 -> 85 ;
86 [label="gini = 0.0\nsamples = 8\nvalue = [0, 0, 0, 0, 0, 8, 0]"] ;
85 -> 86 ;
87 [label="gini = 0.0\nsamples = 3\nvalue = [0, 0, 3, 0, 0, 0, 0]"] ;
85 -> 87 ;
88 [label="X[29] <= 6.067\ngini = 0.106\nsamples = 36\nvalue = [0, 0, 34, 1, 0, 1, 0]"] ;
40 -> 88 ;
89 [label="X[18] <= 4.876\ngini = 0.056\nsamples = 35\nvalue = [0, 0, 34, 0, 0, 1, 0]"] ;
88 -> 89 ;
90 [label="gini = 0.0\nsamples = 34\nvalue = [0, 0, 34, 0, 0, 0, 0]"] ;
89 -> 90 ;
91 [label="gini = 0.0\nsamples = 1\nvalue = [0, 0, 0, 0, 0, 1, 0]"] ;
89 -> 91 ;
92 [label="gini = 0.0\nsamples = 1\nvalue = [0, 0, 0, 1, 0, 0, 0]"] ;
88 -> 92 ;
93 [label="X[9] <= -0.846\ngini = 0.122\nsamples = 107\nvalue = [0, 0, 100, 0, 0, 7, 0]"] ;
39 -> 93 ;
94 [label="X[1] <= -1.321\ngini = 0.075\nsamples = 103\nvalue = [0, 0, 99, 0, 0, 4, 0]"] ;
93 -> 94 ;
95 [label="X[9] <= -0.905\ngini = 0.426\nsamples = 13\nvalue = [0, 0, 9, 0, 0, 4, 0]"] ;
94 -> 95 ;
96 [label="X[6] <= -0.856\ngini = 0.18\nsamples = 10\nvalue = [0, 0, 9, 0, 0, 1, 0]"] ;
95 -> 96 ;
97 [label="gini = 0.0\nsamples = 9\nvalue = [0, 0, 9, 0, 0, 0, 0]"] ;
96 -> 97 ;
98 [label="gini = 0.0\nsamples = 1\nvalue = [0, 0, 0, 0, 0, 1, 0]"] ;
96 -> 98 ;
99 [label="gini = 0.0\nsamples = 3\nvalue = [0, 0, 0, 0, 0, 3, 0]"] ;
95 -> 99 ;
100 [label="gini = 0.0\nsamples = 90\nvalue = [0, 0, 90, 0, 0, 0, 0]"] ;
94 -> 100 ;
101 [label="X[6] <= -1.657\ngini = 0.375\nsamples = 4\nvalue = [0, 0, 1, 0, 0, 3, 0]"] ;
93 -> 101 ;
102 [label="gini = 0.0\nsamples = 1\nvalue = [0, 0, 1, 0, 0, 0, 0]"] ;
101 -> 102 ;
103 [label="gini = 0.0\nsamples = 3\nvalue = [0, 0, 0, 0, 0, 3, 0]"] ;
101 -> 103 ;
104 [label="X[3] <= 0.065\ngini = 0.426\nsamples = 39\nvalue = [0, 0, 12, 27, 0, 0, 0]"] ;
38 -> 104 ;
105 [label="gini = 0.0\nsamples = 12\nvalue = [0, 0, 12, 0, 0, 0, 0]"] ;
104 -> 105 ;
106 [label="gini = 0.0\nsamples = 27\nvalue = [0, 0, 0, 27, 0, 0, 0]"] ;
104 -> 106 ;
107 [label="X[0] <= -1.366\ngini = 0.404\nsamples = 82\nvalue = [0, 0, 23, 0, 0, 59, 0]"] ;
37 -> 107 ;
108 [label="X[27] <= 4.496\ngini = 0.18\nsamples = 10\nvalue = [0, 0, 9, 0, 0, 1, 0]"] ;
107 -> 108 ;
109 [label="gini = 0.0\nsamples = 9\nvalue = [0, 0, 9, 0, 0, 0, 0]"] ;
108 -> 109 ;
110 [label="gini = 0.0\nsamples = 1\nvalue = [0, 0, 0, 0, 0, 1, 0]"] ;
108 -> 110 ;
111 [label="X[4] <= 1.211\ngini = 0.313\nsamples = 72\nvalue = [0, 0, 14, 0, 0, 58, 0]"] ;
107 -> 111 ;
112 [label="X[8] <= 0.44\ngini = 0.213\nsamples = 66\nvalue = [0, 0, 8, 0, 0, 58, 0]"] ;
111 -> 112 ;
113 [label="X[5] <= -0.194\ngini = 0.49\nsamples = 7\nvalue = [0, 0, 4, 0, 0, 3, 0]"] ;
112 -> 113 ;
114 [label="gini = 0.0\nsamples = 4\nvalue = [0, 0, 4, 0, 0, 0, 0]"] ;
113 -> 114 ;
115 [label="gini = 0.0\nsamples = 3\nvalue = [0, 0, 0, 0, 0, 3, 0]"] ;
113 -> 115 ;
116 [label="X[0] <= -1.306\ngini = 0.126\nsamples = 59\nvalue = [0, 0, 4, 0, 0, 55, 0]"] ;
112 -> 116 ;
117 [label="gini = 0.0\nsamples = 1\nvalue = [0, 0, 1, 0, 0, 0, 0]"] ;
116 -> 117 ;
118 [label="X[5] <= -0.303\ngini = 0.098\nsamples = 58\nvalue = [0, 0, 3, 0, 0, 55, 0]"] ;
116 -> 118 ;
119 [label="X[5] <= -0.312\ngini = 0.198\nsamples = 27\nvalue = [0, 0, 3, 0, 0, 24, 0]"] ;
118 -> 119 ;
120 [label="X[6] <= -2.279\ngini = 0.142\nsamples = 26\nvalue = [0, 0, 2, 0, 0, 24, 0]"] ;
119 -> 120 ;
121 [label="gini = 0.0\nsamples = 1\nvalue = [0, 0, 1, 0, 0, 0, 0]"] ;
120 -> 121 ;
122 [label="X[0] <= -1.151\ngini = 0.077\nsamples = 25\nvalue = [0, 0, 1, 0, 0, 24, 0]"] ;
120 -> 122 ;
123 [label="X[6] <= -1.608\ngini = 0.5\nsamples = 2\nvalue = [0, 0, 1, 0, 0, 1, 0]"] ;
122 -> 123 ;
124 [label="gini = 0.0\nsamples = 1\nvalue = [0, 0, 0, 0, 0, 1, 0]"] ;
123 -> 124 ;
125 [label="gini = 0.0\nsamples = 1\nvalue = [0, 0, 1, 0, 0, 0, 0]"] ;
123 -> 125 ;
126 [label="gini = 0.0\nsamples = 23\nvalue = [0, 0, 0, 0, 0, 23, 0]"] ;
122 -> 126 ;
127 [label="gini = 0.0\nsamples = 1\nvalue = [0, 0, 1, 0, 0, 0, 0]"] ;
119 -> 127 ;
128 [label="gini = 0.0\nsamples = 31\nvalue = [0, 0, 0, 0, 0, 31, 0]"] ;
118 -> 128 ;
129 [label="gini = 0.0\nsamples = 6\nvalue = [0, 0, 6, 0, 0, 0, 0]"] ;
111 -> 129 ;
130 [label="X[3] <= 0.812\ngini = 0.531\nsamples = 591\nvalue = [0, 0, 225, 31, 0, 335, 0]"] ;
36 -> 130 ;
131 [label="X[9] <= -0.449\ngini = 0.499\nsamples = 541\nvalue = [0, 0, 190, 19, 0, 332, 0]"] ;
130 -> 131 ;
132 [label="X[6] <= -3.392\ngini = 0.46\nsamples = 406\nvalue = [0, 0, 112, 18, 0, 276, 0]"] ;
131 -> 132 ;
133 [label="X[6] <= -3.556\ngini = 0.117\nsamples = 16\nvalue = [0, 0, 15, 0, 0, 1, 0]"] ;
132 -> 133 ;
134 [label="gini = 0.0\nsamples = 12\nvalue = [0, 0, 12, 0, 0, 0, 0]"] ;
133 -> 134 ;
135 [label="X[0] <= -1.356\ngini = 0.375\nsamples = 4\nvalue = [0, 0, 3, 0, 0, 1, 0]"] ;
133 -> 135 ;
136 [label="gini = 0.0\nsamples = 1\nvalue = [0, 0, 0, 0, 0, 1, 0]"] ;
135 -> 136 ;
137 [label="gini = 0.0\nsamples = 3\nvalue = [0, 0, 3, 0, 0, 0, 0]"] ;
135 -> 137 ;
138 [label="X[0] <= -1.558\ngini = 0.439\nsamples = 390\nvalue = [0, 0, 97, 18, 0, 275, 0]"] ;
132 -> 138 ;
139 [label="X[3] <= -0.727\ngini = 0.123\nsamples = 76\nvalue = [0, 0, 5, 0, 0, 71, 0]"] ;
138 -> 139 ;
140 [label="X[5] <= -1.159\ngini = 0.48\nsamples = 10\nvalue = [0, 0, 4, 0, 0, 6, 0]"] ;
139 -> 140 ;
141 [label="gini = 0.0\nsamples = 4\nvalue = [0, 0, 4, 0, 0, 0, 0]"] ;
140 -> 141 ;
142 [label="gini = 0.0\nsamples = 6\nvalue = [0, 0, 0, 0, 0, 6, 0]"] ;
140 -> 142 ;
143 [label="X[9] <= -0.794\ngini = 0.03\nsamples = 66\nvalue = [0, 0, 1, 0, 0, 65, 0]"] ;
139 -> 143 ;
144 [label="X[3] <= 0.067\ngini = 0.278\nsamples = 6\nvalue = [0, 0, 1, 0, 0, 5, 0]"] ;
143 -> 144 ;
145 [label="gini = 0.0\nsamples = 5\nvalue = [0, 0, 0, 0, 0, 5, 0]"] ;
144 -> 145 ;
146 [label="gini = 0.0\nsamples = 1\nvalue = [0, 0, 1, 0, 0, 0, 0]"] ;
144 -> 146 ;
147 [label="gini = 0.0\nsamples = 60\nvalue = [0, 0, 0, 0, 0, 60, 0]"] ;
143 -> 147 ;
148 [label="X[5] <= -0.907\ngini = 0.489\nsamples = 314\nvalue = [0, 0, 92, 18, 0, 204, 0]"] ;
138 -> 148 ;
149 [label="X[8] <= 0.332\ngini = 0.436\nsamples = 53\nvalue = [0, 0, 36, 0, 0, 17, 0]"] ;
148 -> 149 ;
150 [label="X[7] <= -1.332\ngini = 0.198\nsamples = 9\nvalue = [0, 0, 1, 0, 0, 8, 0]"] ;
149 -> 150 ;
151 [label="gini = 0.0\nsamples = 8\nvalue = [0, 0, 0, 0, 0, 8, 0]"] ;
150 -> 151 ;
152 [label="gini = 0.0\nsamples = 1\nvalue = [0, 0, 1, 0, 0, 0, 0]"] ;
150 -> 152 ;
153 [label="X[12] <= 0.175\ngini = 0.325\nsamples = 44\nvalue = [0, 0, 35, 0, 0, 9, 0]"] ;
149 -> 153 ;
154 [label="X[18] <= 4.876\ngini = 0.219\nsamples = 40\nvalue = [0, 0, 35, 0, 0, 5, 0]"] ;
153 -> 154 ;
155 [label="X[2] <= -0.606\ngini = 0.145\nsamples = 38\nvalue = [0, 0, 35, 0, 0, 3, 0]"] ;
154 -> 155 ;
156 [label="gini = 0.0\nsamples = 1\nvalue = [0, 0, 0, 0, 0, 1, 0]"] ;
155 -> 156 ;
157 [label="X[1] <= 1.708\ngini = 0.102\nsamples = 37\nvalue = [0, 0, 35, 0, 0, 2, 0]"] ;
155 -> 157 ;
158 [label="X[0] <= -1.522\ngini = 0.056\nsamples = 35\nvalue = [0, 0, 34, 0, 0, 1, 0]"] ;
157 -> 158 ;
159 [label="X[2] <= 0.456\ngini = 0.32\nsamples = 5\nvalue = [0, 0, 4, 0, 0, 1, 0]"] ;
158 -> 159 ;
160 [label="gini = 0.0\nsamples = 1\nvalue = [0, 0, 0, 0, 0, 1, 0]"] ;
159 -> 160 ;
161 [label="gini = 0.0\nsamples = 4\nvalue = [0, 0, 4, 0, 0, 0, 0]"] ;
159 -> 161 ;
162 [label="gini = 0.0\nsamples = 30\nvalue = [0, 0, 30, 0, 0, 0, 0]"] ;
158 -> 162 ;
163 [label="X[0] <= -1.153\ngini = 0.5\nsamples = 2\nvalue = [0, 0, 1, 0, 0, 1, 0]"] ;
157 -> 163 ;
164 [label="gini = 0.0\nsamples = 1\nvalue = [0, 0, 0, 0, 0, 1, 0]"] ;
163 -> 164 ;
165 [label="gini = 0.0\nsamples = 1\nvalue = [0, 0, 1, 0, 0, 0, 0]"] ;
163 -> 165 ;
166 [label="gini = 0.0\nsamples = 2\nvalue = [0, 0, 0, 0, 0, 2, 0]"] ;
154 -> 166 ;
167 [label="gini = 0.0\nsamples = 4\nvalue = [0, 0, 0, 0, 0, 4, 0]"] ;
153 -> 167 ;
168 [label="X[7] <= 0.948\ngini = 0.436\nsamples = 261\nvalue = [0, 0, 56, 18, 0, 187, 0]"] ;
148 -> 168 ;
169 [label="X[5] <= -0.304\ngini = 0.386\nsamples = 218\nvalue = [0, 0, 54, 2, 0, 162, 0]"] ;
168 -> 169 ;
170 [label="X[19] <= 2.333\ngini = 0.303\nsamples = 163\nvalue = [0, 0, 29, 1, 0, 133, 0]"] ;
169 -> 170 ;
171 [label="X[1] <= 1.817\ngini = 0.239\nsamples = 151\nvalue = [0, 0, 21, 0, 0, 130, 0]"] ;
170 -> 171 ;
172 [label="X[15] <= 2.283\ngini = 0.214\nsamples = 148\nvalue = [0, 0, 18, 0, 0, 130, 0]"] ;
171 -> 172 ;
173 [label="X[8] <= 2.119\ngini = 0.195\nsamples = 146\nvalue = [0, 0, 16, 0, 0, 130, 0]"] ;
172 -> 173 ;
174 [label="X[7] <= -3.07\ngini = 0.176\nsamples = 144\nvalue = [0, 0, 14, 0, 0, 130, 0]"] ;
173 -> 174 ;
175 [label="X[9] <= -0.74\ngini = 0.444\nsamples = 3\nvalue = [0, 0, 2, 0, 0, 1, 0]"] ;
174 -> 175 ;
176 [label="gini = 0.0\nsamples = 1\nvalue = [0, 0, 0, 0, 0, 1, 0]"] ;
175 -> 176 ;
177 [label="gini = 0.0\nsamples = 2\nvalue = [0, 0, 2, 0, 0, 0, 0]"] ;
175 -> 177 ;
178 [label="X[1] <= 1.735\ngini = 0.156\nsamples = 141\nvalue = [0, 0, 12, 0, 0, 129, 0]"] ;
174 -> 178 ;
179 [label="X[7] <= 0.47\ngini = 0.106\nsamples = 125\nvalue = [0, 0, 7, 0, 0, 118, 0]"] ;
178 -> 179 ;
180 [label="X[2] <= -0.252\ngini = 0.08\nsamples = 120\nvalue = [0, 0, 5, 0, 0, 115, 0]"] ;
179 -> 180 ;
181 [label="X[0] <= -1.084\ngini = 0.5\nsamples = 2\nvalue = [0, 0, 1, 0, 0, 1, 0]"] ;
180 -> 181 ;
182 [label="gini = 0.0\nsamples = 1\nvalue = [0, 0, 0, 0, 0, 1, 0]"] ;
181 -> 182 ;
183 [label="gini = 0.0\nsamples = 1\nvalue = [0, 0, 1, 0, 0, 0, 0]"] ;
181 -> 183 ;
184 [label="X[8] <= 1.599\ngini = 0.065\nsamples = 118\nvalue = [0, 0, 4, 0, 0, 114, 0]"] ;
180 -> 184 ;
185 [label="X[7] <= -0.008\ngini = 0.021\nsamples = 95\nvalue = [0, 0, 1, 0, 0, 94, 0]"] ;
184 -> 185 ;
186 [label="gini = 0.0\nsamples = 84\nvalue = [0, 0, 0, 0, 0, 84, 0]"] ;
185 -> 186 ;
187 [label="X[9] <= -0.679\ngini = 0.165\nsamples = 11\nvalue = [0, 0, 1, 0, 0, 10, 0]"] ;
185 -> 187 ;
188 [label="X[0] <= -1.439\ngini = 0.5\nsamples = 2\nvalue = [0, 0, 1, 0, 0, 1, 0]"] ;
187 -> 188 ;
189 [label="gini = 0.0\nsamples = 1\nvalue = [0, 0, 0, 0, 0, 1, 0]"] ;
188 -> 189 ;
190 [label="gini = 0.0\nsamples = 1\nvalue = [0, 0, 1, 0, 0, 0, 0]"] ;
188 -> 190 ;
191 [label="gini = 0.0\nsamples = 9\nvalue = [0, 0, 0, 0, 0, 9, 0]"] ;
187 -> 191 ;
192 [label="X[9] <= -0.747\ngini = 0.227\nsamples = 23\nvalue = [0, 0, 3, 0, 0, 20, 0]"] ;
184 -> 192 ;
193 [label="X[7] <= 0.058\ngini = 0.5\nsamples = 4\nvalue = [0, 0, 2, 0, 0, 2, 0]"] ;
192 -> 193 ;
194 [label="gini = 0.0\nsamples = 2\nvalue = [0, 0, 2, 0, 0, 0, 0]"] ;
193 -> 194 ;
195 [label="gini = 0.0\nsamples = 2\nvalue = [0, 0, 0, 0, 0, 2, 0]"] ;
193 -> 195 ;
196 [label="X[1] <= 1.377\ngini = 0.1\nsamples = 19\nvalue = [0, 0, 1, 0, 0, 18, 0]"] ;
192 -> 196 ;
197 [label="gini = 0.0\nsamples = 16\nvalue = [0, 0, 0, 0, 0, 16, 0]"] ;
196 -> 197 ;
198 [label="X[5] <= -0.523\ngini = 0.444\nsamples = 3\nvalue = [0, 0, 1, 0, 0, 2, 0]"] ;
196 -> 198 ;
199 [label="gini = 0.0\nsamples = 2\nvalue = [0, 0, 0, 0, 0, 2, 0]"] ;
198 -> 199 ;
200 [label="gini = 0.0\nsamples = 1\nvalue = [0, 0, 1, 0, 0, 0, 0]"] ;
198 -> 200 ;
201 [label="X[4] <= 0.019\ngini = 0.48\nsamples = 5\nvalue = [0, 0, 2, 0, 0, 3, 0]"] ;
179 -> 201 ;
202 [label="gini = 0.0\nsamples = 2\nvalue = [0, 0, 2, 0, 0, 0, 0]"] ;
201 -> 202 ;
203 [label="gini = 0.0\nsamples = 3\nvalue = [0, 0, 0, 0, 0, 3, 0]"] ;
201 -> 203 ;
204 [label="X[3] <= -0.158\ngini = 0.43\nsamples = 16\nvalue = [0, 0, 5, 0, 0, 11, 0]"] ;
178 -> 204 ;
205 [label="X[6] <= -1.33\ngini = 0.444\nsamples = 6\nvalue = [0, 0, 4, 0, 0, 2, 0]"] ;
204 -> 205 ;
206 [label="gini = 0.0\nsamples = 4\nvalue = [0, 0, 4, 0, 0, 0, 0]"] ;
205 -> 206 ;
207 [label="gini = 0.0\nsamples = 2\nvalue = [0, 0, 0, 0, 0, 2, 0]"] ;
205 -> 207 ;
208 [label="X[3] <= 0.563\ngini = 0.18\nsamples = 10\nvalue = [0, 0, 1, 0, 0, 9, 0]"] ;
204 -> 208 ;
209 [label="gini = 0.0\nsamples = 9\nvalue = [0, 0, 0, 0, 0, 9, 0]"] ;
208 -> 209 ;
210 [label="gini = 0.0\nsamples = 1\nvalue = [0, 0, 1, 0, 0, 0, 0]"] ;
208 -> 210 ;
211 [label="gini = 0.0\nsamples = 2\nvalue = [0, 0, 2, 0, 0, 0, 0]"] ;
173 -> 211 ;
212 [label="gini = 0.0\nsamples = 2\nvalue = [0, 0, 2, 0, 0, 0, 0]"] ;
172 -> 212 ;
213 [label="gini = 0.0\nsamples = 3\nvalue = [0, 0, 3, 0, 0, 0, 0]"] ;
171 -> 213 ;
214 [label="X[9] <= -0.752\ngini = 0.486\nsamples = 12\nvalue = [0, 0, 8, 1, 0, 3, 0]"] ;
170 -> 214 ;
215 [label="gini = 0.0\nsamples = 3\nvalue = [0, 0, 0, 0, 0, 3, 0]"] ;
214 -> 215 ;
216 [label="X[1] <= 1.105\ngini = 0.198\nsamples = 9\nvalue = [0, 0, 8, 1, 0, 0, 0]"] ;
214 -> 216 ;
217 [label="gini = 0.0\nsamples = 1\nvalue = [0, 0, 0, 1, 0, 0, 0]"] ;
216 -> 217 ;
218 [label="gini = 0.0\nsamples = 8\nvalue = [0, 0, 8, 0, 0, 0, 0]"] ;
216 -> 218 ;
219 [label="X[9] <= -0.595\ngini = 0.515\nsamples = 55\nvalue = [0, 0, 25, 1, 0, 29, 0]"] ;
169 -> 219 ;
220 [label="X[0] <= -1.285\ngini = 0.441\nsamples = 42\nvalue = [0, 0, 12, 1, 0, 29, 0]"] ;
219 -> 220 ;
221 [label="X[4] <= -0.726\ngini = 0.219\nsamples = 8\nvalue = [0, 0, 7, 0, 0, 1, 0]"] ;
220 -> 221 ;
222 [label="gini = 0.0\nsamples = 1\nvalue = [0, 0, 0, 0, 0, 1, 0]"] ;
221 -> 222 ;
223 [label="gini = 0.0\nsamples = 7\nvalue = [0, 0, 7, 0, 0, 0, 0]"] ;
221 -> 223 ;
224 [label="X[6] <= -3.163\ngini = 0.299\nsamples = 34\nvalue = [0, 0, 5, 1, 0, 28, 0]"] ;
220 -> 224 ;
225 [label="gini = 0.0\nsamples = 2\nvalue = [0, 0, 2, 0, 0, 0, 0]"] ;
224 -> 225 ;
226 [label="X[8] <= 0.278\ngini = 0.225\nsamples = 32\nvalue = [0, 0, 3, 1, 0, 28, 0]"] ;
224 -> 226 ;
227 [label="gini = 0.0\nsamples = 1\nvalue = [0, 0, 0, 1, 0, 0, 0]"] ;
226 -> 227 ;
228 [label="X[3] <= 0.307\ngini = 0.175\nsamples = 31\nvalue = [0, 0, 3, 0, 0, 28, 0]"] ;
226 -> 228 ;
229 [label="X[9] <= -0.659\ngini = 0.124\nsamples = 30\nvalue = [0, 0, 2, 0, 0, 28, 0]"] ;
228 -> 229 ;
230 [label="gini = 0.0\nsamples = 24\nvalue = [0, 0, 0, 0, 0, 24, 0]"] ;
229 -> 230 ;
231 [label="X[6] <= -2.296\ngini = 0.444\nsamples = 6\nvalue = [0, 0, 2, 0, 0, 4, 0]"] ;
229 -> 231 ;
232 [label="gini = 0.0\nsamples = 2\nvalue = [0, 0, 2, 0, 0, 0, 0]"] ;
231 -> 232 ;
233 [label="gini = 0.0\nsamples = 4\nvalue = [0, 0, 0, 0, 0, 4, 0]"] ;
231 -> 233 ;
234 [label="gini = 0.0\nsamples = 1\nvalue = [0, 0, 1, 0, 0, 0, 0]"] ;
228 -> 234 ;
235 [label="gini = 0.0\nsamples = 13\nvalue = [0, 0, 13, 0, 0, 0, 0]"] ;
219 -> 235 ;
236 [label="X[5] <= -0.312\ngini = 0.521\nsamples = 43\nvalue = [0, 0, 2, 16, 0, 25, 0]"] ;
168 -> 236 ;
237 [label="X[0] <= -1.449\ngini = 0.39\nsamples = 21\nvalue = [0, 0, 2, 16, 0, 3, 0]"] ;
236 -> 237 ;
238 [label="gini = 0.0\nsamples = 3\nvalue = [0, 0, 0, 0, 0, 3, 0]"] ;
237 -> 238 ;
239 [label="X[4] <= -0.726\ngini = 0.198\nsamples = 18\nvalue = [0, 0, 2, 16, 0, 0, 0]"] ;
237 -> 239 ;
240 [label="gini = 0.0\nsamples = 1\nvalue = [0, 0, 1, 0, 0, 0, 0]"] ;
239 -> 240 ;
241 [label="X[3] <= 0.788\ngini = 0.111\nsamples = 17\nvalue = [0, 0, 1, 16, 0, 0, 0]"] ;
239 -> 241 ;
242 [label="gini = 0.0\nsamples = 16\nvalue = [0, 0, 0, 16, 0, 0, 0]"] ;
241 -> 242 ;
243 [label="gini = 0.0\nsamples = 1\nvalue = [0, 0, 1, 0, 0, 0, 0]"] ;
241 -> 243 ;
244 [label="gini = 0.0\nsamples = 22\nvalue = [0, 0, 0, 0, 0, 22, 0]"] ;
236 -> 244 ;
245 [label="X[0] <= -1.003\ngini = 0.494\nsamples = 135\nvalue = [0, 0, 78, 1, 0, 56, 0]"] ;
131 -> 245 ;
246 [label="X[7] <= 0.731\ngini = 0.403\nsamples = 95\nvalue = [0, 0, 69, 1, 0, 25, 0]"] ;
245 -> 246 ;
247 [label="X[5] <= -0.566\ngini = 0.302\nsamples = 81\nvalue = [0, 0, 66, 0, 0, 15, 0]"] ;
246 -> 247 ;
248 [label="X[5] <= -0.76\ngini = 0.46\nsamples = 39\nvalue = [0, 0, 25, 0, 0, 14, 0]"] ;
247 -> 248 ;
249 [label="gini = 0.0\nsamples = 20\nvalue = [0, 0, 20, 0, 0, 0, 0]"] ;
248 -> 249 ;
250 [label="X[9] <= -0.219\ngini = 0.388\nsamples = 19\nvalue = [0, 0, 5, 0, 0, 14, 0]"] ;
248 -> 250 ;
251 [label="gini = 0.0\nsamples = 14\nvalue = [0, 0, 0, 0, 0, 14, 0]"] ;
250 -> 251 ;
252 [label="gini = 0.0\nsamples = 5\nvalue = [0, 0, 5, 0, 0, 0, 0]"] ;
250 -> 252 ;
253 [label="X[8] <= 1.512\ngini = 0.046\nsamples = 42\nvalue = [0, 0, 41, 0, 0, 1, 0]"] ;
247 -> 253 ;
254 [label="gini = 0.0\nsamples = 40\nvalue = [0, 0, 40, 0, 0, 0, 0]"] ;
253 -> 254 ;
255 [label="X[4] <= -1.286\ngini = 0.5\nsamples = 2\nvalue = [0, 0, 1, 0, 0, 1, 0]"] ;
253 -> 255 ;
256 [label="gini = 0.0\nsamples = 1\nvalue = [0, 0, 1, 0, 0, 0, 0]"] ;
255 -> 256 ;
257 [label="gini = 0.0\nsamples = 1\nvalue = [0, 0, 0, 0, 0, 1, 0]"] ;
255 -> 257 ;
258 [label="X[9] <= -0.015\ngini = 0.439\nsamples = 14\nvalue = [0, 0, 3, 1, 0, 10, 0]"] ;
246 -> 258 ;
259 [label="X[4] <= -0.816\ngini = 0.165\nsamples = 11\nvalue = [0, 0, 0, 1, 0, 10, 0]"] ;
258 -> 259 ;
260 [label="gini = 0.0\nsamples = 1\nvalue = [0, 0, 0, 1, 0, 0, 0]"] ;
259 -> 260 ;
261 [label="gini = 0.0\nsamples = 10\nvalue = [0, 0, 0, 0, 0, 10, 0]"] ;
259 -> 261 ;
262 [label="gini = 0.0\nsamples = 3\nvalue = [0, 0, 3, 0, 0, 0, 0]"] ;
258 -> 262 ;
263 [label="X[7] <= -1.311\ngini = 0.349\nsamples = 40\nvalue = [0, 0, 9, 0, 0, 31, 0]"] ;
245 -> 263 ;
264 [label="gini = 0.0\nsamples = 4\nvalue = [0, 0, 4, 0, 0, 0, 0]"] ;
263 -> 264 ;
265 [label="X[5] <= -0.327\ngini = 0.239\nsamples = 36\nvalue = [0, 0, 5, 0, 0, 31, 0]"] ;
263 -> 265 ;
266 [label="X[1] <= -1.366\ngini = 0.161\nsamples = 34\nvalue = [0, 0, 3, 0, 0, 31, 0]"] ;
265 -> 266 ;
267 [label="gini = 0.0\nsamples = 1\nvalue = [0, 0, 1, 0, 0, 0, 0]"] ;
266 -> 267 ;
268 [label="X[9] <= 0.074\ngini = 0.114\nsamples = 33\nvalue = [0, 0, 2, 0, 0, 31, 0]"] ;
266 -> 268 ;
269 [label="X[5] <= -0.434\ngini = 0.061\nsamples = 32\nvalue = [0, 0, 1, 0, 0, 31, 0]"] ;
268 -> 269 ;
270 [label="gini = 0.0\nsamples = 27\nvalue = [0, 0, 0, 0, 0, 27, 0]"] ;
269 -> 270 ;
271 [label="X[9] <= -0.221\ngini = 0.32\nsamples = 5\nvalue = [0, 0, 1, 0, 0, 4, 0]"] ;
269 -> 271 ;
272 [label="gini = 0.0\nsamples = 1\nvalue = [0, 0, 1, 0, 0, 0, 0]"] ;
271 -> 272 ;
273 [label="gini = 0.0\nsamples = 4\nvalue = [0, 0, 0, 0, 0, 4, 0]"] ;
271 -> 273 ;
274 [label="gini = 0.0\nsamples = 1\nvalue = [0, 0, 1, 0, 0, 0, 0]"] ;
268 -> 274 ;
275 [label="gini = 0.0\nsamples = 2\nvalue = [0, 0, 2, 0, 0, 0, 0]"] ;
265 -> 275 ;
276 [label="X[5] <= -0.467\ngini = 0.449\nsamples = 50\nvalue = [0, 0, 35, 12, 0, 3, 0]"] ;
130 -> 276 ;
277 [label="X[18] <= 4.876\ngini = 0.111\nsamples = 34\nvalue = [0, 0, 32, 0, 0, 2, 0]"] ;
276 -> 277 ;
278 [label="gini = 0.0\nsamples = 32\nvalue = [0, 0, 32, 0, 0, 0, 0]"] ;
277 -> 278 ;
279 [label="gini = 0.0\nsamples = 2\nvalue = [0, 0, 0, 0, 0, 2, 0]"] ;
277 -> 279 ;
280 [label="X[4] <= 0.66\ngini = 0.398\nsamples = 16\nvalue = [0, 0, 3, 12, 0, 1, 0]"] ;
276 -> 280 ;
281 [label="gini = 0.0\nsamples = 12\nvalue = [0, 0, 0, 12, 0, 0, 0]"] ;
280 -> 281 ;
282 [label="X[2] <= 0.515\ngini = 0.375\nsamples = 4\nvalue = [0, 0, 3, 0, 0, 1, 0]"] ;
280 -> 282 ;
283 [label="gini = 0.0\nsamples = 3\nvalue = [0, 0, 3, 0, 0, 0, 0]"] ;
282 -> 283 ;
284 [label="gini = 0.0\nsamples = 1\nvalue = [0, 0, 0, 0, 0, 1, 0]"] ;
282 -> 284 ;
285 [label="X[5] <= -0.711\ngini = 0.374\nsamples = 57\nvalue = [0, 0, 9, 44, 0, 4, 0]"] ;
35 -> 285 ;
286 [label="gini = 0.0\nsamples = 6\nvalue = [0, 0, 6, 0, 0, 0, 0]"] ;
285 -> 286 ;
287 [label="X[0] <= -1.224\ngini = 0.246\nsamples = 51\nvalue = [0, 0, 3, 44, 0, 4, 0]"] ;
285 -> 287 ;
288 [label="X[6] <= -2.296\ngini = 0.083\nsamples = 46\nvalue = [0, 0, 2, 44, 0, 0, 0]"] ;
287 -> 288 ;
289 [label="gini = 0.0\nsamples = 1\nvalue = [0, 0, 1, 0, 0, 0, 0]"] ;
288 -> 289 ;
290 [label="X[1] <= -1.271\ngini = 0.043\nsamples = 45\nvalue = [0, 0, 1, 44, 0, 0, 0]"] ;
288 -> 290 ;
291 [label="gini = 0.0\nsamples = 1\nvalue = [0, 0, 1, 0, 0, 0, 0]"] ;
290 -> 291 ;
292 [label="gini = 0.0\nsamples = 44\nvalue = [0, 0, 0, 44, 0, 0, 0]"] ;
290 -> 292 ;
293 [label="X[5] <= -0.354\ngini = 0.32\nsamples = 5\nvalue = [0, 0, 1, 0, 0, 4, 0]"] ;
287 -> 293 ;
294 [label="gini = 0.0\nsamples = 1\nvalue = [0, 0, 1, 0, 0, 0, 0]"] ;
293 -> 294 ;
295 [label="gini = 0.0\nsamples = 4\nvalue = [0, 0, 0, 0, 0, 4, 0]"] ;
293 -> 295 ;
296 [label="X[3] <= -1.019\ngini = 0.467\nsamples = 2612\nvalue = [0, 0, 477, 1818, 0, 317, 0]"] ;
2 -> 296 ;
297 [label="X[12] <= 0.175\ngini = 0.111\nsamples = 793\nvalue = [0, 0, 21, 747, 0, 25, 0]"] ;
296 -> 297 ;
298 [label="X[5] <= -1.241\ngini = 0.068\nsamples = 774\nvalue = [0, 0, 20, 747, 0, 7, 0]"] ;
297 -> 298 ;
299 [label="gini = 0.0\nsamples = 5\nvalue = [0, 0, 5, 0, 0, 0, 0]"] ;
298 -> 299 ;
300 [label="X[0] <= -1.86\ngini = 0.056\nsamples = 769\nvalue = [0, 0, 15, 747, 0, 7, 0]"] ;
298 -> 300 ;
301 [label="gini = 0.0\nsamples = 1\nvalue = [0, 0, 0, 0, 0, 1, 0]"] ;
300 -> 301 ;
302 [label="X[1] <= 1.717\ngini = 0.053\nsamples = 768\nvalue = [0, 0, 15, 747, 0, 6, 0]"] ;
300 -> 302 ;
303 [label="X[7] <= -1.441\ngini = 0.043\nsamples = 739\nvalue = [0, 0, 10, 723, 0, 6, 0]"] ;
302 -> 303 ;
304 [label="X[6] <= -0.218\ngini = 0.266\nsamples = 19\nvalue = [0, 0, 3, 16, 0, 0, 0]"] ;
303 -> 304 ;
305 [label="X[9] <= -0.898\ngini = 0.48\nsamples = 5\nvalue = [0, 0, 3, 2, 0, 0, 0]"] ;
304 -> 305 ;
306 [label="gini = 0.0\nsamples = 2\nvalue = [0, 0, 0, 2, 0, 0, 0]"] ;
305 -> 306 ;
307 [label="gini = 0.0\nsamples = 3\nvalue = [0, 0, 3, 0, 0, 0, 0]"] ;
305 -> 307 ;
308 [label="gini = 0.0\nsamples = 14\nvalue = [0, 0, 0, 14, 0, 0, 0]"] ;
304 -> 308 ;
309 [label="X[1] <= -1.248\ngini = 0.036\nsamples = 720\nvalue = [0, 0, 7, 707, 0, 6, 0]"] ;
303 -> 309 ;
310 [label="X[0] <= -0.949\ngini = 0.143\nsamples = 66\nvalue = [0, 0, 2, 61, 0, 3, 0]"] ;
309 -> 310 ;
311 [label="X[1] <= -1.276\ngini = 0.091\nsamples = 63\nvalue = [0, 0, 0, 60, 0, 3, 0]"] ;
310 -> 311 ;
312 [label="X[0] <= -1.681\ngini = 0.036\nsamples = 55\nvalue = [0, 0, 0, 54, 0, 1, 0]"] ;
311 -> 312 ;
313 [label="X[23] <= 1.04\ngini = 0.375\nsamples = 4\nvalue = [0, 0, 0, 3, 0, 1, 0]"] ;
312 -> 313 ;
314 [label="gini = 0.0\nsamples = 3\nvalue = [0, 0, 0, 3, 0, 0, 0]"] ;
313 -> 314 ;
315 [label="gini = 0.0\nsamples = 1\nvalue = [0, 0, 0, 0, 0, 1, 0]"] ;
313 -> 315 ;
316 [label="gini = 0.0\nsamples = 51\nvalue = [0, 0, 0, 51, 0, 0, 0]"] ;
312 -> 316 ;
317 [label="X[6] <= -0.07\ngini = 0.375\nsamples = 8\nvalue = [0, 0, 0, 6, 0, 2, 0]"] ;
311 -> 317 ;
318 [label="gini = 0.0\nsamples = 2\nvalue = [0, 0, 0, 0, 0, 2, 0]"] ;
317 -> 318 ;
319 [label="gini = 0.0\nsamples = 6\nvalue = [0, 0, 0, 6, 0, 0, 0]"] ;
317 -> 319 ;
320 [label="X[2] <= -1.195\ngini = 0.444\nsamples = 3\nvalue = [0, 0, 2, 1, 0, 0, 0]"] ;
310 -> 320 ;
321 [label="gini = 0.0\nsamples = 1\nvalue = [0, 0, 0, 1, 0, 0, 0]"] ;
320 -> 321 ;
322 [label="gini = 0.0\nsamples = 2\nvalue = [0, 0, 2, 0, 0, 0, 0]"] ;
320 -> 322 ;
323 [label="X[0] <= -1.671\ngini = 0.024\nsamples = 654\nvalue = [0, 0, 5, 646, 0, 3, 0]"] ;
309 -> 323 ;
324 [label="X[7] <= 1.122\ngini = 0.136\nsamples = 41\nvalue = [0, 0, 3, 38, 0, 0, 0]"] ;
323 -> 324 ;
325 [label="X[6] <= -0.054\ngini = 0.05\nsamples = 39\nvalue = [0, 0, 1, 38, 0, 0, 0]"] ;
324 -> 325 ;
326 [label="X[7] <= 0.34\ngini = 0.444\nsamples = 3\nvalue = [0, 0, 1, 2, 0, 0, 0]"] ;
325 -> 326 ;
327 [label="gini = 0.0\nsamples = 2\nvalue = [0, 0, 0, 2, 0, 0, 0]"] ;
326 -> 327 ;
328 [label="gini = 0.0\nsamples = 1\nvalue = [0, 0, 1, 0, 0, 0, 0]"] ;
326 -> 328 ;
329 [label="gini = 0.0\nsamples = 36\nvalue = [0, 0, 0, 36, 0, 0, 0]"] ;
325 -> 329 ;
330 [label="gini = 0.0\nsamples = 2\nvalue = [0, 0, 2, 0, 0, 0, 0]"] ;
324 -> 330 ;
331 [label="X[9] <= 0.165\ngini = 0.016\nsamples = 613\nvalue = [0, 0, 2, 608, 0, 3, 0]"] ;
323 -> 331 ;
332 [label="X[27] <= 4.496\ngini = 0.013\nsamples = 602\nvalue = [0, 0, 1, 598, 0, 3, 0]"] ;
331 -> 332 ;
333 [label="X[7] <= -0.789\ngini = 0.008\nsamples = 528\nvalue = [0, 0, 1, 526, 0, 1, 0]"] ;
332 -> 333 ;
334 [label="X[1] <= -1.09\ngini = 0.067\nsamples = 29\nvalue = [0, 0, 0, 28, 0, 1, 0]"] ;
333 -> 334 ;
335 [label="X[0] <= -1.224\ngini = 0.375\nsamples = 4\nvalue = [0, 0, 0, 3, 0, 1, 0]"] ;
334 -> 335 ;
336 [label="gini = 0.0\nsamples = 1\nvalue = [0, 0, 0, 0, 0, 1, 0]"] ;
335 -> 336 ;
337 [label="gini = 0.0\nsamples = 3\nvalue = [0, 0, 0, 3, 0, 0, 0]"] ;
335 -> 337 ;
338 [label="gini = 0.0\nsamples = 25\nvalue = [0, 0, 0, 25, 0, 0, 0]"] ;
334 -> 338 ;
339 [label="X[7] <= 1.165\ngini = 0.004\nsamples = 499\nvalue = [0, 0, 1, 498, 0, 0, 0]"] ;
333 -> 339 ;
340 [label="gini = 0.0\nsamples = 459\nvalue = [0, 0, 0, 459, 0, 0, 0]"] ;
339 -> 340 ;
341 [label="X[8] <= 0.224\ngini = 0.049\nsamples = 40\nvalue = [0, 0, 1, 39, 0, 0, 0]"] ;
339 -> 341 ;
342 [label="gini = 0.0\nsamples = 1\nvalue = [0, 0, 1, 0, 0, 0, 0]"] ;
341 -> 342 ;
343 [label="gini = 0.0\nsamples = 39\nvalue = [0, 0, 0, 39, 0, 0, 0]"] ;
341 -> 343 ;
344 [label="X[5] <= -0.31\ngini = 0.053\nsamples = 74\nvalue = [0, 0, 0, 72, 0, 2, 0]"] ;
332 -> 344 ;
345 [label="gini = 0.0\nsamples = 61\nvalue = [0, 0, 0, 61, 0, 0, 0]"] ;
344 -> 345 ;
346 [label="X[0] <= -1.246\ngini = 0.26\nsamples = 13\nvalue = [0, 0, 0, 11, 0, 2, 0]"] ;
344 -> 346 ;
347 [label="gini = 0.0\nsamples = 11\nvalue = [0, 0, 0, 11, 0, 0, 0]"] ;
346 -> 347 ;
348 [label="gini = 0.0\nsamples = 2\nvalue = [0, 0, 0, 0, 0, 2, 0]"] ;
346 -> 348 ;
349 [label="X[9] <= 0.178\ngini = 0.165\nsamples = 11\nvalue = [0, 0, 1, 10, 0, 0, 0]"] ;
331 -> 349 ;
350 [label="gini = 0.0\nsamples = 1\nvalue = [0, 0, 1, 0, 0, 0, 0]"] ;
349 -> 350 ;
351 [label="gini = 0.0\nsamples = 10\nvalue = [0, 0, 0, 10, 0, 0, 0]"] ;
349 -> 351 ;
352 [label="X[17] <= 1.958\ngini = 0.285\nsamples = 29\nvalue = [0, 0, 5, 24, 0, 0, 0]"] ;
302 -> 352 ;
353 [label="X[8] <= 0.386\ngini = 0.142\nsamples = 26\nvalue = [0, 0, 2, 24, 0, 0, 0]"] ;
352 -> 353 ;
354 [label="gini = 0.0\nsamples = 1\nvalue = [0, 0, 1, 0, 0, 0, 0]"] ;
353 -> 354 ;
355 [label="X[2] <= -1.431\ngini = 0.077\nsamples = 25\nvalue = [0, 0, 1, 24, 0, 0, 0]"] ;
353 -> 355 ;
356 [label="gini = 0.0\nsamples = 1\nvalue = [0, 0, 1, 0, 0, 0, 0]"] ;
355 -> 356 ;
357 [label="gini = 0.0\nsamples = 24\nvalue = [0, 0, 0, 24, 0, 0, 0]"] ;
355 -> 357 ;
358 [label="gini = 0.0\nsamples = 3\nvalue = [0, 0, 3, 0, 0, 0, 0]"] ;
352 -> 358 ;
359 [label="X[15] <= 2.283\ngini = 0.1\nsamples = 19\nvalue = [0, 0, 1, 0, 0, 18, 0]"] ;
297 -> 359 ;
360 [label="gini = 0.0\nsamples = 18\nvalue = [0, 0, 0, 0, 0, 18, 0]"] ;
359 -> 360 ;
361 [label="gini = 0.0\nsamples = 1\nvalue = [0, 0, 1, 0, 0, 0, 0]"] ;
359 -> 361 ;
362 [label="X[16] <= 1.767\ngini = 0.565\nsamples = 1819\nvalue = [0, 0, 456, 1071, 0, 292, 0]"] ;
296 -> 362 ;
363 [label="X[5] <= -0.682\ngini = 0.658\nsamples = 1077\nvalue = [0, 0, 371, 423, 0, 283, 0]"] ;
362 -> 363 ;
364 [label="X[1] <= -0.831\ngini = 0.629\nsamples = 560\nvalue = [0, 0, 269, 117, 0, 174, 0]"] ;
363 -> 364 ;
365 [label="X[9] <= -0.646\ngini = 0.587\nsamples = 257\nvalue = [0, 0, 99, 29, 0, 129, 0]"] ;
364 -> 365 ;
366 [label="X[0] <= -1.795\ngini = 0.602\nsamples = 178\nvalue = [0, 0, 83, 23, 0, 72, 0]"] ;
365 -> 366 ;
367 [label="X[4] <= -0.889\ngini = 0.1\nsamples = 19\nvalue = [0, 0, 1, 0, 0, 18, 0]"] ;
366 -> 367 ;
368 [label="gini = 0.0\nsamples = 1\nvalue = [0, 0, 1, 0, 0, 0, 0]"] ;
367 -> 368 ;
369 [label="gini = 0.0\nsamples = 18\nvalue = [0, 0, 0, 0, 0, 18, 0]"] ;
367 -> 369 ;
370 [label="X[23] <= 1.04\ngini = 0.598\nsamples = 159\nvalue = [0, 0, 82, 23, 0, 54, 0]"] ;
366 -> 370 ;
371 [label="X[3] <= -0.847\ngini = 0.42\nsamples = 71\nvalue = [0, 0, 52, 5, 0, 14, 0]"] ;
370 -> 371 ;
372 [label="X[0] <= -1.633\ngini = 0.663\nsamples = 14\nvalue = [0, 0, 4, 5, 0, 5, 0]"] ;
371 -> 372 ;
373 [label="X[5] <= -1.144\ngini = 0.278\nsamples = 6\nvalue = [0, 0, 1, 5, 0, 0, 0]"] ;
372 -> 373 ;
374 [label="gini = 0.0\nsamples = 1\nvalue = [0, 0, 1, 0, 0, 0, 0]"] ;
373 -> 374 ;
375 [label="gini = 0.0\nsamples = 5\nvalue = [0, 0, 0, 5, 0, 0, 0]"] ;
373 -> 375 ;
376 [label="X[0] <= -1.437\ngini = 0.469\nsamples = 8\nvalue = [0, 0, 3, 0, 0, 5, 0]"] ;
372 -> 376 ;
377 [label="gini = 0.0\nsamples = 4\nvalue = [0, 0, 0, 0, 0, 4, 0]"] ;
376 -> 377 ;
378 [label="X[27] <= 4.496\ngini = 0.375\nsamples = 4\nvalue = [0, 0, 3, 0, 0, 1, 0]"] ;
376 -> 378 ;
379 [label="gini = 0.0\nsamples = 3\nvalue = [0, 0, 3, 0, 0, 0, 0]"] ;
378 -> 379 ;
380 [label="gini = 0.0\nsamples = 1\nvalue = [0, 0, 0, 0, 0, 1, 0]"] ;
378 -> 380 ;
381 [label="X[15] <= 2.283\ngini = 0.266\nsamples = 57\nvalue = [0, 0, 48, 0, 0, 9, 0]"] ;
371 -> 381 ;
382 [label="X[1] <= -0.84\ngini = 0.083\nsamples = 46\nvalue = [0, 0, 44, 0, 0, 2, 0]"] ;
381 -> 382 ;
383 [label="X[6] <= 0.552\ngini = 0.044\nsamples = 44\nvalue = [0, 0, 43, 0, 0, 1, 0]"] ;
382 -> 383 ;
384 [label="gini = 0.0\nsamples = 37\nvalue = [0, 0, 37, 0, 0, 0, 0]"] ;
383 -> 384 ;
385 [label="X[0] <= -1.566\ngini = 0.245\nsamples = 7\nvalue = [0, 0, 6, 0, 0, 1, 0]"] ;
383 -> 385 ;
386 [label="gini = 0.0\nsamples = 1\nvalue = [0, 0, 0, 0, 0, 1, 0]"] ;
385 -> 386 ;
387 [label="gini = 0.0\nsamples = 6\nvalue = [0, 0, 6, 0, 0, 0, 0]"] ;
385 -> 387 ;
388 [label="X[8] <= -1.985\ngini = 0.5\nsamples = 2\nvalue = [0, 0, 1, 0, 0, 1, 0]"] ;
382 -> 388 ;
389 [label="gini = 0.0\nsamples = 1\nvalue = [0, 0, 1, 0, 0, 0, 0]"] ;
388 -> 389 ;
390 [label="gini = 0.0\nsamples = 1\nvalue = [0, 0, 0, 0, 0, 1, 0]"] ;
388 -> 390 ;
391 [label="X[3] <= 0.044\ngini = 0.463\nsamples = 11\nvalue = [0, 0, 4, 0, 0, 7, 0]"] ;
381 -> 391 ;
392 [label="X[2] <= 0.574\ngini = 0.32\nsamples = 5\nvalue = [0, 0, 4, 0, 0, 1, 0]"] ;
391 -> 392 ;
393 [label="gini = 0.0\nsamples = 4\nvalue = [0, 0, 4, 0, 0, 0, 0]"] ;
392 -> 393 ;
394 [label="gini = 0.0\nsamples = 1\nvalue = [0, 0, 0, 0, 0, 1, 0]"] ;
392 -> 394 ;
395 [label="gini = 0.0\nsamples = 6\nvalue = [0, 0, 0, 0, 0, 6, 0]"] ;
391 -> 395 ;
396 [label="X[3] <= -0.201\ngini = 0.635\nsamples = 88\nvalue = [0, 0, 30, 18, 0, 40, 0]"] ;
370 -> 396 ;
397 [label="X[0] <= -1.59\ngini = 0.574\nsamples = 57\nvalue = [0, 0, 14, 10, 0, 33, 0]"] ;
396 -> 397 ;
398 [label="X[2] <= 0.456\ngini = 0.653\nsamples = 24\nvalue = [0, 0, 8, 10, 0, 6, 0]"] ;
397 -> 398 ;
399 [label="X[9] <= -0.973\ngini = 0.198\nsamples = 9\nvalue = [0, 0, 0, 8, 0, 1, 0]"] ;
398 -> 399 ;
400 [label="gini = 0.0\nsamples = 1\nvalue = [0, 0, 0, 0, 0, 1, 0]"] ;
399 -> 400 ;
401 [label="gini = 0.0\nsamples = 8\nvalue = [0, 0, 0, 8, 0, 0, 0]"] ;
399 -> 401 ;
402 [label="X[3] <= -0.512\ngini = 0.587\nsamples = 15\nvalue = [0, 0, 8, 2, 0, 5, 0]"] ;
398 -> 402 ;
403 [label="X[9] <= -0.985\ngini = 0.43\nsamples = 11\nvalue = [0, 0, 8, 2, 0, 1, 0]"] ;
402 -> 403 ;
404 [label="X[1] <= -1.022\ngini = 0.625\nsamples = 4\nvalue = [0, 0, 1, 2, 0, 1, 0]"] ;
403 -> 404 ;
405 [label="X[9] <= -1.109\ngini = 0.5\nsamples = 2\nvalue = [0, 0, 1, 0, 0, 1, 0]"] ;
404 -> 405 ;
406 [label="gini = 0.0\nsamples = 1\nvalue = [0, 0, 1, 0, 0, 0, 0]"] ;
405 -> 406 ;
407 [label="gini = 0.0\nsamples = 1\nvalue = [0, 0, 0, 0, 0, 1, 0]"] ;
405 -> 407 ;
408 [label="gini = 0.0\nsamples = 2\nvalue = [0, 0, 0, 2, 0, 0, 0]"] ;
404 -> 408 ;
409 [label="gini = 0.0\nsamples = 7\nvalue = [0, 0, 7, 0, 0, 0, 0]"] ;
403 -> 409 ;
410 [label="gini = 0.0\nsamples = 4\nvalue = [0, 0, 0, 0, 0, 4, 0]"] ;
402 -> 410 ;
411 [label="X[8] <= -0.772\ngini = 0.298\nsamples = 33\nvalue = [0, 0, 6, 0, 0, 27, 0]"] ;
397 -> 411 ;
412 [label="X[5] <= -0.84\ngini = 0.142\nsamples = 26\nvalue = [0, 0, 2, 0, 0, 24, 0]"] ;
411 -> 412 ;
413 [label="gini = 0.0\nsamples = 23\nvalue = [0, 0, 0, 0, 0, 23, 0]"] ;
412 -> 413 ;
414 [label="X[0] <= -1.109\ngini = 0.444\nsamples = 3\nvalue = [0, 0, 2, 0, 0, 1, 0]"] ;
412 -> 414 ;
415 [label="gini = 0.0\nsamples = 2\nvalue = [0, 0, 2, 0, 0, 0, 0]"] ;
414 -> 415 ;
416 [label="gini = 0.0\nsamples = 1\nvalue = [0, 0, 0, 0, 0, 1, 0]"] ;
414 -> 416 ;
417 [label="X[6] <= -0.479\ngini = 0.49\nsamples = 7\nvalue = [0, 0, 4, 0, 0, 3, 0]"] ;
411 -> 417 ;
418 [label="gini = 0.0\nsamples = 3\nvalue = [0, 0, 0, 0, 0, 3, 0]"] ;
417 -> 418 ;
419 [label="gini = 0.0\nsamples = 4\nvalue = [0, 0, 4, 0, 0, 0, 0]"] ;
417 -> 419 ;
420 [label="X[9] <= -1.024\ngini = 0.616\nsamples = 31\nvalue = [0, 0, 16, 8, 0, 7, 0]"] ;
396 -> 420 ;
421 [label="X[9] <= -1.165\ngini = 0.444\nsamples = 12\nvalue = [0, 0, 0, 8, 0, 4, 0]"] ;
420 -> 421 ;
422 [label="gini = 0.0\nsamples = 4\nvalue = [0, 0, 0, 0, 0, 4, 0]"] ;
421 -> 422 ;
423 [label="gini = 0.0\nsamples = 8\nvalue = [0, 0, 0, 8, 0, 0, 0]"] ;
421 -> 423 ;
424 [label="X[0] <= -1.622\ngini = 0.266\nsamples = 19\nvalue = [0, 0, 16, 0, 0, 3, 0]"] ;
420 -> 424 ;
425 [label="gini = 0.0\nsamples = 3\nvalue = [0, 0, 0, 0, 0, 3, 0]"] ;
424 -> 425 ;
426 [label="gini = 0.0\nsamples = 16\nvalue = [0, 0, 16, 0, 0, 0, 0]"] ;
424 -> 426 ;
427 [label="X[9] <= -0.109\ngini = 0.433\nsamples = 79\nvalue = [0, 0, 16, 6, 0, 57, 0]"] ;
365 -> 427 ;
428 [label="X[5] <= -1.161\ngini = 0.299\nsamples = 69\nvalue = [0, 0, 9, 3, 0, 57, 0]"] ;
427 -> 428 ;
429 [label="gini = 0.0\nsamples = 4\nvalue = [0, 0, 4, 0, 0, 0, 0]"] ;
428 -> 429 ;
430 [label="X[3] <= -0.919\ngini = 0.223\nsamples = 65\nvalue = [0, 0, 5, 3, 0, 57, 0]"] ;
428 -> 430 ;
431 [label="X[0] <= -0.924\ngini = 0.611\nsamples = 6\nvalue = [0, 0, 1, 3, 0, 2, 0]"] ;
430 -> 431 ;
432 [label="X[0] <= -0.985\ngini = 0.444\nsamples = 3\nvalue = [0, 0, 1, 0, 0, 2, 0]"] ;
431 -> 432 ;
433 [label="gini = 0.0\nsamples = 2\nvalue = [0, 0, 0, 0, 0, 2, 0]"] ;
432 -> 433 ;
434 [label="gini = 0.0\nsamples = 1\nvalue = [0, 0, 1, 0, 0, 0, 0]"] ;
432 -> 434 ;
435 [label="gini = 0.0\nsamples = 3\nvalue = [0, 0, 0, 3, 0, 0, 0]"] ;
431 -> 435 ;
436 [label="X[13] <= 0.408\ngini = 0.126\nsamples = 59\nvalue = [0, 0, 4, 0, 0, 55, 0]"] ;
430 -> 436 ;
437 [label="X[5] <= -1.005\ngini = 0.5\nsamples = 4\nvalue = [0, 0, 2, 0, 0, 2, 0]"] ;
436 -> 437 ;
438 [label="gini = 0.0\nsamples = 2\nvalue = [0, 0, 2, 0, 0, 0, 0]"] ;
437 -> 438 ;
439 [label="gini = 0.0\nsamples = 2\nvalue = [0, 0, 0, 0, 0, 2, 0]"] ;
437 -> 439 ;
440 [label="X[3] <= -0.775\ngini = 0.07\nsamples = 55\nvalue = [0, 0, 2, 0, 0, 53, 0]"] ;
436 -> 440 ;
441 [label="X[1] <= -1.081\ngini = 0.444\nsamples = 3\nvalue = [0, 0, 1, 0, 0, 2, 0]"] ;
440 -> 441 ;
442 [label="gini = 0.0\nsamples = 1\nvalue = [0, 0, 1, 0, 0, 0, 0]"] ;
441 -> 442 ;
443 [label="gini = 0.0\nsamples = 2\nvalue = [0, 0, 0, 0, 0, 2, 0]"] ;
441 -> 443 ;
444 [label="X[5] <= -0.729\ngini = 0.038\nsamples = 52\nvalue = [0, 0, 1, 0, 0, 51, 0]"] ;
440 -> 444 ;
445 [label="gini = 0.0\nsamples = 44\nvalue = [0, 0, 0, 0, 0, 44, 0]"] ;
444 -> 445 ;
446 [label="X[8] <= -1.444\ngini = 0.219\nsamples = 8\nvalue = [0, 0, 1, 0, 0, 7, 0]"] ;
444 -> 446 ;
447 [label="gini = 0.0\nsamples = 1\nvalue = [0, 0, 1, 0, 0, 0, 0]"] ;
446 -> 447 ;
448 [label="gini = 0.0\nsamples = 7\nvalue = [0, 0, 0, 0, 0, 7, 0]"] ;
446 -> 448 ;
449 [label="X[1] <= -0.895\ngini = 0.42\nsamples = 10\nvalue = [0, 0, 7, 3, 0, 0, 0]"] ;
427 -> 449 ;
450 [label="gini = 0.0\nsamples = 7\nvalue = [0, 0, 7, 0, 0, 0, 0]"] ;
449 -> 450 ;
451 [label="gini = 0.0\nsamples = 3\nvalue = [0, 0, 0, 3, 0, 0, 0]"] ;
449 -> 451 ;
452 [label="X[9] <= -0.017\ngini = 0.579\nsamples = 303\nvalue = [0, 0, 170, 88, 0, 45, 0]"] ;
364 -> 452 ;
453 [label="X[3] <= -0.847\ngini = 0.548\nsamples = 271\nvalue = [0, 0, 166, 60, 0, 45, 0]"] ;
452 -> 453 ;
454 [label="X[0] <= -1.009\ngini = 0.61\nsamples = 84\nvalue = [0, 0, 26, 43, 0, 15, 0]"] ;
453 -> 454 ;
455 [label="X[4] <= -0.832\ngini = 0.456\nsamples = 62\nvalue = [0, 0, 15, 43, 0, 4, 0]"] ;
454 -> 455 ;
456 [label="gini = 0.0\nsamples = 4\nvalue = [0, 0, 4, 0, 0, 0, 0]"] ;
455 -> 456 ;
457 [label="X[9] <= -0.753\ngini = 0.41\nsamples = 58\nvalue = [0, 0, 11, 43, 0, 4, 0]"] ;
455 -> 457 ;
458 [label="X[0] <= -1.808\ngini = 0.268\nsamples = 44\nvalue = [0, 0, 7, 37, 0, 0, 0]"] ;
457 -> 458 ;
459 [label="gini = 0.0\nsamples = 2\nvalue = [0, 0, 2, 0, 0, 0, 0]"] ;
458 -> 459 ;
460 [label="X[2] <= -0.959\ngini = 0.21\nsamples = 42\nvalue = [0, 0, 5, 37, 0, 0, 0]"] ;
458 -> 460 ;
461 [label="X[9] <= -0.871\ngini = 0.444\nsamples = 3\nvalue = [0, 0, 2, 1, 0, 0, 0]"] ;
460 -> 461 ;
462 [label="gini = 0.0\nsamples = 2\nvalue = [0, 0, 2, 0, 0, 0, 0]"] ;
461 -> 462 ;
463 [label="gini = 0.0\nsamples = 1\nvalue = [0, 0, 0, 1, 0, 0, 0]"] ;
461 -> 463 ;
464 [label="X[5] <= -0.708\ngini = 0.142\nsamples = 39\nvalue = [0, 0, 3, 36, 0, 0, 0]"] ;
460 -> 464 ;
465 [label="X[1] <= 0.457\ngini = 0.053\nsamples = 37\nvalue = [0, 0, 1, 36, 0, 0, 0]"] ;
464 -> 465 ;
466 [label="gini = 0.0\nsamples = 35\nvalue = [0, 0, 0, 35, 0, 0, 0]"] ;
465 -> 466 ;
467 [label="X[1] <= 0.937\ngini = 0.5\nsamples = 2\nvalue = [0, 0, 1, 1, 0, 0, 0]"] ;
465 -> 467 ;
468 [label="gini = 0.0\nsamples = 1\nvalue = [0, 0, 1, 0, 0, 0, 0]"] ;
467 -> 468 ;
469 [label="gini = 0.0\nsamples = 1\nvalue = [0, 0, 0, 1, 0, 0, 0]"] ;
467 -> 469 ;
470 [label="gini = 0.0\nsamples = 2\nvalue = [0, 0, 2, 0, 0, 0, 0]"] ;
464 -> 470 ;
471 [label="X[2] <= -0.252\ngini = 0.653\nsamples = 14\nvalue = [0, 0, 4, 6, 0, 4, 0]"] ;
457 -> 471 ;
472 [label="gini = 0.0\nsamples = 4\nvalue = [0, 0, 0, 4, 0, 0, 0]"] ;
471 -> 472 ;
473 [label="X[6] <= 1.222\ngini = 0.64\nsamples = 10\nvalue = [0, 0, 4, 2, 0, 4, 0]"] ;
471 -> 473 ;
474 [label="X[9] <= -0.535\ngini = 0.32\nsamples = 5\nvalue = [0, 0, 4, 0, 0, 1, 0]"] ;
473 -> 474 ;
475 [label="gini = 0.0\nsamples = 4\nvalue = [0, 0, 4, 0, 0, 0, 0]"] ;
474 -> 475 ;
476 [label="gini = 0.0\nsamples = 1\nvalue = [0, 0, 0, 0, 0, 1, 0]"] ;
474 -> 476 ;
477 [label="X[1] <= -0.342\ngini = 0.48\nsamples = 5\nvalue = [0, 0, 0, 2, 0, 3, 0]"] ;
473 -> 477 ;
478 [label="gini = 0.0\nsamples = 3\nvalue = [0, 0, 0, 0, 0, 3, 0]"] ;
477 -> 478 ;
479 [label="gini = 0.0\nsamples = 2\nvalue = [0, 0, 0, 2, 0, 0, 0]"] ;
477 -> 479 ;
480 [label="X[9] <= -0.823\ngini = 0.5\nsamples = 22\nvalue = [0, 0, 11, 0, 0, 11, 0]"] ;
454 -> 480 ;
481 [label="gini = 0.0\nsamples = 8\nvalue = [0, 0, 0, 0, 0, 8, 0]"] ;
480 -> 481 ;
482 [label="X[1] <= 0.946\ngini = 0.337\nsamples = 14\nvalue = [0, 0, 11, 0, 0, 3, 0]"] ;
480 -> 482 ;
483 [label="X[7] <= -0.985\ngini = 0.153\nsamples = 12\nvalue = [0, 0, 11, 0, 0, 1, 0]"] ;
482 -> 483 ;
484 [label="gini = 0.0\nsamples = 1\nvalue = [0, 0, 0, 0, 0, 1, 0]"] ;
483 -> 484 ;
485 [label="gini = 0.0\nsamples = 11\nvalue = [0, 0, 11, 0, 0, 0, 0]"] ;
483 -> 485 ;
486 [label="gini = 0.0\nsamples = 2\nvalue = [0, 0, 0, 0, 0, 2, 0]"] ;
482 -> 486 ;
487 [label="X[23] <= 1.04\ngini = 0.406\nsamples = 187\nvalue = [0, 0, 140, 17, 0, 30, 0]"] ;
453 -> 487 ;
488 [label="X[9] <= -0.526\ngini = 0.237\nsamples = 154\nvalue = [0, 0, 133, 1, 0, 20, 0]"] ;
487 -> 488 ;
489 [label="X[6] <= -0.659\ngini = 0.108\nsamples = 139\nvalue = [0, 0, 131, 0, 0, 8, 0]"] ;
488 -> 489 ;
490 [label="gini = 0.0\nsamples = 2\nvalue = [0, 0, 0, 0, 0, 2, 0]"] ;
489 -> 490 ;
491 [label="X[0] <= -1.818\ngini = 0.084\nsamples = 137\nvalue = [0, 0, 131, 0, 0, 6, 0]"] ;
489 -> 491 ;
492 [label="gini = 0.0\nsamples = 1\nvalue = [0, 0, 0, 0, 0, 1, 0]"] ;
491 -> 492 ;
493 [label="X[5] <= -0.723\ngini = 0.071\nsamples = 136\nvalue = [0, 0, 131, 0, 0, 5, 0]"] ;
491 -> 493 ;
494 [label="X[8] <= -1.714\ngini = 0.045\nsamples = 131\nvalue = [0, 0, 128, 0, 0, 3, 0]"] ;
493 -> 494 ;
495 [label="X[9] <= -0.566\ngini = 0.185\nsamples = 29\nvalue = [0, 0, 26, 0, 0, 3, 0]"] ;
494 -> 495 ;
496 [label="X[15] <= 2.283\ngini = 0.133\nsamples = 28\nvalue = [0, 0, 26, 0, 0, 2, 0]"] ;
495 -> 496 ;
497 [label="X[17] <= 1.958\ngini = 0.074\nsamples = 26\nvalue = [0, 0, 25, 0, 0, 1, 0]"] ;
496 -> 497 ;
498 [label="gini = 0.0\nsamples = 23\nvalue = [0, 0, 23, 0, 0, 0, 0]"] ;
497 -> 498 ;
499 [label="X[8] <= -1.974\ngini = 0.444\nsamples = 3\nvalue = [0, 0, 2, 0, 0, 1, 0]"] ;
497 -> 499 ;
500 [label="gini = 0.0\nsamples = 1\nvalue = [0, 0, 0, 0, 0, 1, 0]"] ;
499 -> 500 ;
501 [label="gini = 0.0\nsamples = 2\nvalue = [0, 0, 2, 0, 0, 0, 0]"] ;
499 -> 501 ;
502 [label="X[9] <= -0.803\ngini = 0.5\nsamples = 2\nvalue = [0, 0, 1, 0, 0, 1, 0]"] ;
496 -> 502 ;
503 [label="gini = 0.0\nsamples = 1\nvalue = [0, 0, 0, 0, 0, 1, 0]"] ;
502 -> 503 ;
504 [label="gini = 0.0\nsamples = 1\nvalue = [0, 0, 1, 0, 0, 0, 0]"] ;
502 -> 504 ;
505 [label="gini = 0.0\nsamples = 1\nvalue = [0, 0, 0, 0, 0, 1, 0]"] ;
495 -> 505 ;
506 [label="gini = 0.0\nsamples = 102\nvalue = [0, 0, 102, 0, 0, 0, 0]"] ;
494 -> 506 ;
507 [label="X[7] <= -0.789\ngini = 0.48\nsamples = 5\nvalue = [0, 0, 3, 0, 0, 2, 0]"] ;
493 -> 507 ;
508 [label="gini = 0.0\nsamples = 2\nvalue = [0, 0, 0, 0, 0, 2, 0]"] ;
507 -> 508 ;
509 [label="gini = 0.0\nsamples = 3\nvalue = [0, 0, 3, 0, 0, 0, 0]"] ;
507 -> 509 ;
510 [label="X[5] <= -1.1\ngini = 0.338\nsamples = 15\nvalue = [0, 0, 2, 1, 0, 12, 0]"] ;
488 -> 510 ;
511 [label="gini = 0.0\nsamples = 1\nvalue = [0, 0, 1, 0, 0, 0, 0]"] ;
510 -> 511 ;
512 [label="X[3] <= -0.787\ngini = 0.255\nsamples = 14\nvalue = [0, 0, 1, 1, 0, 12, 0]"] ;
510 -> 512 ;
513 [label="X[1] <= -0.41\ngini = 0.625\nsamples = 4\nvalue = [0, 0, 1, 1, 0, 2, 0]"] ;
512 -> 513 ;
514 [label="X[4] <= -0.491\ngini = 0.5\nsamples = 2\nvalue = [0, 0, 1, 1, 0, 0, 0]"] ;
513 -> 514 ;
515 [label="gini = 0.0\nsamples = 1\nvalue = [0, 0, 1, 0, 0, 0, 0]"] ;
514 -> 515 ;
516 [label="gini = 0.0\nsamples = 1\nvalue = [0, 0, 0, 1, 0, 0, 0]"] ;
514 -> 516 ;
517 [label="gini = 0.0\nsamples = 2\nvalue = [0, 0, 0, 0, 0, 2, 0]"] ;
513 -> 517 ;
518 [label="gini = 0.0\nsamples = 10\nvalue = [0, 0, 0, 0, 0, 10, 0]"] ;
512 -> 518 ;
519 [label="X[9] <= -1.023\ngini = 0.628\nsamples = 33\nvalue = [0, 0, 7, 16, 0, 10, 0]"] ;
487 -> 519 ;
520 [label="gini = 0.0\nsamples = 15\nvalue = [0, 0, 0, 15, 0, 0, 0]"] ;
519 -> 520 ;
521 [label="X[0] <= -1.088\ngini = 0.537\nsamples = 18\nvalue = [0, 0, 7, 1, 0, 10, 0]"] ;
519 -> 521 ;
522 [label="X[1] <= -0.791\ngini = 0.494\nsamples = 9\nvalue = [0, 0, 6, 1, 0, 2, 0]"] ;
521 -> 522 ;
523 [label="X[8] <= -2.191\ngini = 0.444\nsamples = 3\nvalue = [0, 0, 0, 1, 0, 2, 0]"] ;
522 -> 523 ;
524 [label="gini = 0.0\nsamples = 2\nvalue = [0, 0, 0, 0, 0, 2, 0]"] ;
523 -> 524 ;
525 [label="gini = 0.0\nsamples = 1\nvalue = [0, 0, 0, 1, 0, 0, 0]"] ;
523 -> 525 ;
526 [label="gini = 0.0\nsamples = 6\nvalue = [0, 0, 6, 0, 0, 0, 0]"] ;
522 -> 526 ;
527 [label="X[9] <= -0.117\ngini = 0.198\nsamples = 9\nvalue = [0, 0, 1, 0, 0, 8, 0]"] ;
521 -> 527 ;
528 [label="gini = 0.0\nsamples = 8\nvalue = [0, 0, 0, 0, 0, 8, 0]"] ;
527 -> 528 ;
529 [label="gini = 0.0\nsamples = 1\nvalue = [0, 0, 1, 0, 0, 0, 0]"] ;
527 -> 529 ;
530 [label="X[6] <= 0.65\ngini = 0.219\nsamples = 32\nvalue = [0, 0, 4, 28, 0, 0, 0]"] ;
452 -> 530 ;
531 [label="X[9] <= 0.022\ngini = 0.32\nsamples = 5\nvalue = [0, 0, 4, 1, 0, 0, 0]"] ;
530 -> 531 ;
532 [label="gini = 0.0\nsamples = 1\nvalue = [0, 0, 0, 1, 0, 0, 0]"] ;
531 -> 532 ;
533 [label="gini = 0.0\nsamples = 4\nvalue = [0, 0, 4, 0, 0, 0, 0]"] ;
531 -> 533 ;
534 [label="gini = 0.0\nsamples = 27\nvalue = [0, 0, 0, 27, 0, 0, 0]"] ;
530 -> 534 ;
535 [label="X[0] <= -1.247\ngini = 0.566\nsamples = 517\nvalue = [0, 0, 102, 306, 0, 109, 0]"] ;
363 -> 535 ;
536 [label="X[7] <= -1.789\ngini = 0.161\nsamples = 138\nvalue = [0, 0, 10, 126, 0, 2, 0]"] ;
535 -> 536 ;
537 [label="X[1] <= -1.022\ngini = 0.32\nsamples = 5\nvalue = [0, 0, 4, 1, 0, 0, 0]"] ;
536 -> 537 ;
538 [label="gini = 0.0\nsamples = 4\nvalue = [0, 0, 4, 0, 0, 0, 0]"] ;
537 -> 538 ;
539 [label="gini = 0.0\nsamples = 1\nvalue = [0, 0, 0, 1, 0, 0, 0]"] ;
537 -> 539 ;
540 [label="X[4] <= 0.514\ngini = 0.114\nsamples = 133\nvalue = [0, 0, 6, 125, 0, 2, 0]"] ;
536 -> 540 ;
541 [label="X[1] <= 1.826\ngini = 0.075\nsamples = 130\nvalue = [0, 0, 3, 125, 0, 2, 0]"] ;
540 -> 541 ;
542 [label="X[1] <= -1.389\ngini = 0.06\nsamples = 129\nvalue = [0, 0, 3, 125, 0, 1, 0]"] ;
541 -> 542 ;
543 [label="gini = 0.0\nsamples = 1\nvalue = [0, 0, 1, 0, 0, 0, 0]"] ;
542 -> 543 ;
544 [label="X[18] <= 4.876\ngini = 0.046\nsamples = 128\nvalue = [0, 0, 2, 125, 0, 1, 0]"] ;
542 -> 544 ;
545 [label="X[8] <= 1.123\ngini = 0.031\nsamples = 126\nvalue = [0, 0, 1, 124, 0, 1, 0]"] ;
544 -> 545 ;
546 [label="X[8] <= 0.938\ngini = 0.016\nsamples = 123\nvalue = [0, 0, 0, 122, 0, 1, 0]"] ;
545 -> 546 ;
547 [label="gini = 0.0\nsamples = 117\nvalue = [0, 0, 0, 117, 0, 0, 0]"] ;
546 -> 547 ;
548 [label="X[1] <= 1.336\ngini = 0.278\nsamples = 6\nvalue = [0, 0, 0, 5, 0, 1, 0]"] ;
546 -> 548 ;
549 [label="gini = 0.0\nsamples = 5\nvalue = [0, 0, 0, 5, 0, 0, 0]"] ;
548 -> 549 ;
550 [label="gini = 0.0\nsamples = 1\nvalue = [0, 0, 0, 0, 0, 1, 0]"] ;
548 -> 550 ;
551 [label="X[8] <= 1.231\ngini = 0.444\nsamples = 3\nvalue = [0, 0, 1, 2, 0, 0, 0]"] ;
545 -> 551 ;
552 [label="gini = 0.0\nsamples = 1\nvalue = [0, 0, 1, 0, 0, 0, 0]"] ;
551 -> 552 ;
553 [label="gini = 0.0\nsamples = 2\nvalue = [0, 0, 0, 2, 0, 0, 0]"] ;
551 -> 553 ;
554 [label="X[4] <= -0.937\ngini = 0.5\nsamples = 2\nvalue = [0, 0, 1, 1, 0, 0, 0]"] ;
544 -> 554 ;
555 [label="gini = 0.0\nsamples = 1\nvalue = [0, 0, 0, 1, 0, 0, 0]"] ;
554 -> 555 ;
556 [label="gini = 0.0\nsamples = 1\nvalue = [0, 0, 1, 0, 0, 0, 0]"] ;
554 -> 556 ;
557 [label="gini = 0.0\nsamples = 1\nvalue = [0, 0, 0, 0, 0, 1, 0]"] ;
541 -> 557 ;
558 [label="gini = 0.0\nsamples = 3\nvalue = [0, 0, 3, 0, 0, 0, 0]"] ;
540 -> 558 ;
559 [label="X[3] <= 0.249\ngini = 0.636\nsamples = 379\nvalue = [0, 0, 92, 180, 0, 107, 0]"] ;
535 -> 559 ;
560 [label="X[19] <= 2.333\ngini = 0.619\nsamples = 205\nvalue = [0, 0, 57, 44, 0, 104, 0]"] ;
559 -> 560 ;
561 [label="X[4] <= 0.538\ngini = 0.516\nsamples = 154\nvalue = [0, 0, 30, 24, 0, 100, 0]"] ;
560 -> 561 ;
562 [label="X[14] <= 2.987\ngini = 0.448\nsamples = 137\nvalue = [0, 0, 18, 21, 0, 98, 0]"] ;
561 -> 562 ;
563 [label="X[30] <= 2.32\ngini = 0.386\nsamples = 128\nvalue = [0, 0, 15, 15, 0, 98, 0]"] ;
562 -> 563 ;
564 [label="X[9] <= -1.196\ngini = 0.337\nsamples = 121\nvalue = [0, 0, 14, 10, 0, 97, 0]"] ;
563 -> 564 ;
565 [label="gini = 0.0\nsamples = 3\nvalue = [0, 0, 0, 3, 0, 0, 0]"] ;
564 -> 565 ;
566 [label="X[17] <= 1.958\ngini = 0.307\nsamples = 118\nvalue = [0, 0, 14, 7, 0, 97, 0]"] ;
564 -> 566 ;
567 [label="X[3] <= 0.218\ngini = 0.221\nsamples = 104\nvalue = [0, 0, 12, 1, 0, 91, 0]"] ;
566 -> 567 ;
568 [label="X[9] <= -0.071\ngini = 0.194\nsamples = 102\nvalue = [0, 0, 10, 1, 0, 91, 0]"] ;
567 -> 568 ;
569 [label="X[4] <= 0.133\ngini = 0.178\nsamples = 101\nvalue = [0, 0, 10, 0, 0, 91, 0]"] ;
568 -> 569 ;
570 [label="X[5] <= -0.648\ngini = 0.078\nsamples = 74\nvalue = [0, 0, 3, 0, 0, 71, 0]"] ;
569 -> 570 ;
571 [label="X[24] <= 2.924\ngini = 0.5\nsamples = 2\nvalue = [0, 0, 1, 0, 0, 1, 0]"] ;
570 -> 571 ;
572 [label="gini = 0.0\nsamples = 1\nvalue = [0, 0, 1, 0, 0, 0, 0]"] ;
571 -> 572 ;
573 [label="gini = 0.0\nsamples = 1\nvalue = [0, 0, 0, 0, 0, 1, 0]"] ;
571 -> 573 ;
574 [label="X[1] <= 1.79\ngini = 0.054\nsamples = 72\nvalue = [0, 0, 2, 0, 0, 70, 0]"] ;
570 -> 574 ;
575 [label="X[18] <= 4.876\ngini = 0.028\nsamples = 70\nvalue = [0, 0, 1, 0, 0, 69, 0]"] ;
574 -> 575 ;
576 [label="gini = 0.0\nsamples = 61\nvalue = [0, 0, 0, 0, 0, 61, 0]"] ;
575 -> 576 ;
577 [label="X[2] <= 0.102\ngini = 0.198\nsamples = 9\nvalue = [0, 0, 1, 0, 0, 8, 0]"] ;
575 -> 577 ;
578 [label="gini = 0.0\nsamples = 1\nvalue = [0, 0, 1, 0, 0, 0, 0]"] ;
577 -> 578 ;
579 [label="gini = 0.0\nsamples = 8\nvalue = [0, 0, 0, 0, 0, 8, 0]"] ;
577 -> 579 ;
580 [label="X[1] <= 1.799\ngini = 0.5\nsamples = 2\nvalue = [0, 0, 1, 0, 0, 1, 0]"] ;
574 -> 580 ;
581 [label="gini = 0.0\nsamples = 1\nvalue = [0, 0, 1, 0, 0, 0, 0]"] ;
580 -> 581 ;
582 [label="gini = 0.0\nsamples = 1\nvalue = [0, 0, 0, 0, 0, 1, 0]"] ;
580 -> 582 ;
583 [label="X[5] <= -0.33\ngini = 0.384\nsamples = 27\nvalue = [0, 0, 7, 0, 0, 20, 0]"] ;
569 -> 583 ;
584 [label="X[2] <= 1.045\ngini = 0.111\nsamples = 17\nvalue = [0, 0, 1, 0, 0, 16, 0]"] ;
583 -> 584 ;
585 [label="gini = 0.0\nsamples = 16\nvalue = [0, 0, 0, 0, 0, 16, 0]"] ;
584 -> 585 ;
586 [label="gini = 0.0\nsamples = 1\nvalue = [0, 0, 1, 0, 0, 0, 0]"] ;
584 -> 586 ;
587 [label="X[8] <= -0.198\ngini = 0.48\nsamples = 10\nvalue = [0, 0, 6, 0, 0, 4, 0]"] ;
583 -> 587 ;
588 [label="X[9] <= -0.962\ngini = 0.245\nsamples = 7\nvalue = [0, 0, 6, 0, 0, 1, 0]"] ;
587 -> 588 ;
589 [label="gini = 0.0\nsamples = 1\nvalue = [0, 0, 0, 0, 0, 1, 0]"] ;
588 -> 589 ;
590 [label="gini = 0.0\nsamples = 6\nvalue = [0, 0, 6, 0, 0, 0, 0]"] ;
588 -> 590 ;
591 [label="gini = 0.0\nsamples = 3\nvalue = [0, 0, 0, 0, 0, 3, 0]"] ;
587 -> 591 ;
592 [label="gini = 0.0\nsamples = 1\nvalue = [0, 0, 0, 1, 0, 0, 0]"] ;
568 -> 592 ;
593 [label="gini = 0.0\nsamples = 2\nvalue = [0, 0, 2, 0, 0, 0, 0]"] ;
567 -> 593 ;
594 [label="X[3] <= -0.919\ngini = 0.612\nsamples = 14\nvalue = [0, 0, 2, 6, 0, 6, 0]"] ;
566 -> 594 ;
595 [label="gini = 0.0\nsamples = 6\nvalue = [0, 0, 0, 6, 0, 0, 0]"] ;
594 -> 595 ;
596 [label="X[9] <= -0.536\ngini = 0.375\nsamples = 8\nvalue = [0, 0, 2, 0, 0, 6, 0]"] ;
594 -> 596 ;
597 [label="gini = 0.0\nsamples = 2\nvalue = [0, 0, 2, 0, 0, 0, 0]"] ;
596 -> 597 ;
598 [label="gini = 0.0\nsamples = 6\nvalue = [0, 0, 0, 0, 0, 6, 0]"] ;
596 -> 598 ;
599 [label="X[0] <= -1.072\ngini = 0.449\nsamples = 7\nvalue = [0, 0, 1, 5, 0, 1, 0]"] ;
563 -> 599 ;
600 [label="X[1] <= 1.023\ngini = 0.278\nsamples = 6\nvalue = [0, 0, 0, 5, 0, 1, 0]"] ;
599 -> 600 ;
601 [label="gini = 0.0\nsamples = 5\nvalue = [0, 0, 0, 5, 0, 0, 0]"] ;
600 -> 601 ;
602 [label="gini = 0.0\nsamples = 1\nvalue = [0, 0, 0, 0, 0, 1, 0]"] ;
600 -> 602 ;
603 [label="gini = 0.0\nsamples = 1\nvalue = [0, 0, 1, 0, 0, 0, 0]"] ;
599 -> 603 ;
604 [label="X[7] <= 1.209\ngini = 0.444\nsamples = 9\nvalue = [0, 0, 3, 6, 0, 0, 0]"] ;
562 -> 604 ;
605 [label="gini = 0.0\nsamples = 5\nvalue = [0, 0, 0, 5, 0, 0, 0]"] ;
604 -> 605 ;
606 [label="X[1] <= 0.271\ngini = 0.375\nsamples = 4\nvalue = [0, 0, 3, 1, 0, 0, 0]"] ;
604 -> 606 ;
607 [label="gini = 0.0\nsamples = 1\nvalue = [0, 0, 0, 1, 0, 0, 0]"] ;
606 -> 607 ;
608 [label="gini = 0.0\nsamples = 3\nvalue = [0, 0, 3, 0, 0, 0, 0]"] ;
606 -> 608 ;
609 [label="X[0] <= -1.091\ngini = 0.457\nsamples = 17\nvalue = [0, 0, 12, 3, 0, 2, 0]"] ;
561 -> 609 ;
610 [label="X[9] <= -0.321\ngini = 0.375\nsamples = 4\nvalue = [0, 0, 1, 3, 0, 0, 0]"] ;
609 -> 610 ;
611 [label="gini = 0.0\nsamples = 3\nvalue = [0, 0, 0, 3, 0, 0, 0]"] ;
610 -> 611 ;
612 [label="gini = 0.0\nsamples = 1\nvalue = [0, 0, 1, 0, 0, 0, 0]"] ;
610 -> 612 ;
613 [label="X[5] <= -0.353\ngini = 0.26\nsamples = 13\nvalue = [0, 0, 11, 0, 0, 2, 0]"] ;
609 -> 613 ;
614 [label="X[7] <= -0.898\ngini = 0.444\nsamples = 3\nvalue = [0, 0, 1, 0, 0, 2, 0]"] ;
613 -> 614 ;
615 [label="gini = 0.0\nsamples = 1\nvalue = [0, 0, 1, 0, 0, 0, 0]"] ;
614 -> 615 ;
616 [label="gini = 0.0\nsamples = 2\nvalue = [0, 0, 0, 0, 0, 2, 0]"] ;
614 -> 616 ;
617 [label="gini = 0.0\nsamples = 10\nvalue = [0, 0, 10, 0, 0, 0, 0]"] ;
613 -> 617 ;
618 [label="X[9] <= -0.933\ngini = 0.56\nsamples = 51\nvalue = [0, 0, 27, 20, 0, 4, 0]"] ;
560 -> 618 ;
619 [label="X[1] <= -1.244\ngini = 0.231\nsamples = 15\nvalue = [0, 0, 13, 0, 0, 2, 0]"] ;
618 -> 619 ;
620 [label="gini = 0.0\nsamples = 2\nvalue = [0, 0, 0, 0, 0, 2, 0]"] ;
619 -> 620 ;
621 [label="gini = 0.0\nsamples = 13\nvalue = [0, 0, 13, 0, 0, 0, 0]"] ;
619 -> 621 ;
622 [label="X[9] <= -0.721\ngini = 0.537\nsamples = 36\nvalue = [0, 0, 14, 20, 0, 2, 0]"] ;
618 -> 622 ;
623 [label="X[5] <= -0.391\ngini = 0.368\nsamples = 22\nvalue = [0, 0, 4, 17, 0, 1, 0]"] ;
622 -> 623 ;
624 [label="X[5] <= -0.657\ngini = 0.105\nsamples = 18\nvalue = [0, 0, 0, 17, 0, 1, 0]"] ;
623 -> 624 ;
625 [label="gini = 0.0\nsamples = 1\nvalue = [0, 0, 0, 0, 0, 1, 0]"] ;
624 -> 625 ;
626 [label="gini = 0.0\nsamples = 17\nvalue = [0, 0, 0, 17, 0, 0, 0]"] ;
624 -> 626 ;
627 [label="gini = 0.0\nsamples = 4\nvalue = [0, 0, 4, 0, 0, 0, 0]"] ;
623 -> 627 ;
628 [label="X[5] <= -0.466\ngini = 0.439\nsamples = 14\nvalue = [0, 0, 10, 3, 0, 1, 0]"] ;
622 -> 628 ;
629 [label="X[8] <= -0.935\ngini = 0.18\nsamples = 10\nvalue = [0, 0, 9, 0, 0, 1, 0]"] ;
628 -> 629 ;
630 [label="X[7] <= -0.16\ngini = 0.444\nsamples = 3\nvalue = [0, 0, 2, 0, 0, 1, 0]"] ;
629 -> 630 ;
631 [label="gini = 0.0\nsamples = 1\nvalue = [0, 0, 0, 0, 0, 1, 0]"] ;
630 -> 631 ;
632 [label="gini = 0.0\nsamples = 2\nvalue = [0, 0, 2, 0, 0, 0, 0]"] ;
630 -> 632 ;
633 [label="gini = 0.0\nsamples = 7\nvalue = [0, 0, 7, 0, 0, 0, 0]"] ;
629 -> 633 ;
634 [label="X[4] <= -0.548\ngini = 0.375\nsamples = 4\nvalue = [0, 0, 1, 3, 0, 0, 0]"] ;
628 -> 634 ;
635 [label="gini = 0.0\nsamples = 1\nvalue = [0, 0, 1, 0, 0, 0, 0]"] ;
634 -> 635 ;
636 [label="gini = 0.0\nsamples = 3\nvalue = [0, 0, 0, 3, 0, 0, 0]"] ;
634 -> 636 ;
637 [label="X[9] <= -0.682\ngini = 0.348\nsamples = 174\nvalue = [0, 0, 35, 136, 0, 3, 0]"] ;
559 -> 637 ;
638 [label="X[1] <= -0.496\ngini = 0.55\nsamples = 42\nvalue = [0, 0, 23, 16, 0, 3, 0]"] ;
637 -> 638 ;
639 [label="X[2] <= -1.195\ngini = 0.18\nsamples = 20\nvalue = [0, 0, 18, 0, 0, 2, 0]"] ;
638 -> 639 ;
640 [label="gini = 0.0\nsamples = 2\nvalue = [0, 0, 0, 0, 0, 2, 0]"] ;
639 -> 640 ;
641 [label="gini = 0.0\nsamples = 18\nvalue = [0, 0, 18, 0, 0, 0, 0]"] ;
639 -> 641 ;
642 [label="X[1] <= 0.615\ngini = 0.417\nsamples = 22\nvalue = [0, 0, 5, 16, 0, 1, 0]"] ;
638 -> 642 ;
643 [label="X[2] <= -0.959\ngini = 0.111\nsamples = 17\nvalue = [0, 0, 1, 16, 0, 0, 0]"] ;
642 -> 643 ;
644 [label="gini = 0.0\nsamples = 1\nvalue = [0, 0, 1, 0, 0, 0, 0]"] ;
643 -> 644 ;
645 [label="gini = 0.0\nsamples = 16\nvalue = [0, 0, 0, 16, 0, 0, 0]"] ;
643 -> 645 ;
646 [label="X[4] <= 1.778\ngini = 0.32\nsamples = 5\nvalue = [0, 0, 4, 0, 0, 1, 0]"] ;
642 -> 646 ;
647 [label="gini = 0.0\nsamples = 1\nvalue = [0, 0, 0, 0, 0, 1, 0]"] ;
646 -> 647 ;
648 [label="gini = 0.0\nsamples = 4\nvalue = [0, 0, 4, 0, 0, 0, 0]"] ;
646 -> 648 ;
649 [label="X[1] <= 1.273\ngini = 0.165\nsamples = 132\nvalue = [0, 0, 12, 120, 0, 0, 0]"] ;
637 -> 649 ;
650 [label="X[23] <= 1.04\ngini = 0.077\nsamples = 125\nvalue = [0, 0, 5, 120, 0, 0, 0]"] ;
649 -> 650 ;
651 [label="X[14] <= 2.987\ngini = 0.017\nsamples = 118\nvalue = [0, 0, 1, 117, 0, 0, 0]"] ;
650 -> 651 ;
652 [label="gini = 0.0\nsamples = 117\nvalue = [0, 0, 0, 117, 0, 0, 0]"] ;
651 -> 652 ;
653 [label="gini = 0.0\nsamples = 1\nvalue = [0, 0, 1, 0, 0, 0, 0]"] ;
651 -> 653 ;
654 [label="X[9] <= -0.64\ngini = 0.49\nsamples = 7\nvalue = [0, 0, 4, 3, 0, 0, 0]"] ;
650 -> 654 ;
655 [label="gini = 0.0\nsamples = 3\nvalue = [0, 0, 0, 3, 0, 0, 0]"] ;
654 -> 655 ;
656 [label="gini = 0.0\nsamples = 4\nvalue = [0, 0, 4, 0, 0, 0, 0]"] ;
654 -> 656 ;
657 [label="gini = 0.0\nsamples = 7\nvalue = [0, 0, 7, 0, 0, 0, 0]"] ;
649 -> 657 ;
658 [label="X[0] <= -1.71\ngini = 0.224\nsamples = 742\nvalue = [0, 0, 85, 648, 0, 9, 0]"] ;
362 -> 658 ;
659 [label="gini = 0.0\nsamples = 21\nvalue = [0, 0, 21, 0, 0, 0, 0]"] ;
658 -> 659 ;
660 [label="X[0] <= -1.061\ngini = 0.184\nsamples = 721\nvalue = [0, 0, 64, 648, 0, 9, 0]"] ;
658 -> 660 ;
661 [label="X[5] <= -0.191\ngini = 0.082\nsamples = 565\nvalue = [0, 0, 21, 541, 0, 3, 0]"] ;
660 -> 661 ;
662 [label="X[5] <= -1.129\ngini = 0.056\nsamples = 553\nvalue = [0, 0, 13, 537, 0, 3, 0]"] ;
661 -> 662 ;
663 [label="X[6] <= 0.862\ngini = 0.375\nsamples = 4\nvalue = [0, 0, 3, 0, 0, 1, 0]"] ;
662 -> 663 ;
664 [label="gini = 0.0\nsamples = 1\nvalue = [0, 0, 0, 0, 0, 1, 0]"] ;
663 -> 664 ;
665 [label="gini = 0.0\nsamples = 3\nvalue = [0, 0, 3, 0, 0, 0, 0]"] ;
663 -> 665 ;
666 [label="X[5] <= -0.972\ngini = 0.043\nsamples = 549\nvalue = [0, 0, 10, 537, 0, 2, 0]"] ;
662 -> 666 ;
667 [label="X[3] <= -0.265\ngini = 0.33\nsamples = 35\nvalue = [0, 0, 6, 28, 0, 1, 0]"] ;
666 -> 667 ;
668 [label="X[7] <= 0.036\ngini = 0.124\nsamples = 30\nvalue = [0, 0, 2, 28, 0, 0, 0]"] ;
667 -> 668 ;
669 [label="gini = 0.0\nsamples = 28\nvalue = [0, 0, 0, 28, 0, 0, 0]"] ;
668 -> 669 ;
670 [label="gini = 0.0\nsamples = 2\nvalue = [0, 0, 2, 0, 0, 0, 0]"] ;
668 -> 670 ;
671 [label="X[2] <= 0.869\ngini = 0.32\nsamples = 5\nvalue = [0, 0, 4, 0, 0, 1, 0]"] ;
667 -> 671 ;
672 [label="gini = 0.0\nsamples = 1\nvalue = [0, 0, 0, 0, 0, 1, 0]"] ;
671 -> 672 ;
673 [label="gini = 0.0\nsamples = 4\nvalue = [0, 0, 4, 0, 0, 0, 0]"] ;
671 -> 673 ;
674 [label="X[0] <= -1.066\ngini = 0.019\nsamples = 514\nvalue = [0, 0, 4, 509, 0, 1, 0]"] ;
666 -> 674 ;
675 [label="X[0] <= -1.605\ngini = 0.016\nsamples = 509\nvalue = [0, 0, 3, 505, 0, 1, 0]"] ;
674 -> 675 ;
676 [label="X[6] <= 1.157\ngini = 0.198\nsamples = 9\nvalue = [0, 0, 0, 8, 0, 1, 0]"] ;
675 -> 676 ;
677 [label="gini = 0.0\nsamples = 8\nvalue = [0, 0, 0, 8, 0, 0, 0]"] ;
676 -> 677 ;
678 [label="gini = 0.0\nsamples = 1\nvalue = [0, 0, 0, 0, 0, 1, 0]"] ;
676 -> 678 ;
679 [label="X[5] <= -0.954\ngini = 0.012\nsamples = 500\nvalue = [0, 0, 3, 497, 0, 0, 0]"] ;
675 -> 679 ;
680 [label="X[3] <= 0.144\ngini = 0.198\nsamples = 9\nvalue = [0, 0, 1, 8, 0, 0, 0]"] ;
679 -> 680 ;
681 [label="gini = 0.0\nsamples = 8\nvalue = [0, 0, 0, 8, 0, 0, 0]"] ;
680 -> 681 ;
682 [label="gini = 0.0\nsamples = 1\nvalue = [0, 0, 1, 0, 0, 0, 0]"] ;
680 -> 682 ;
683 [label="X[5] <= -0.286\ngini = 0.008\nsamples = 491\nvalue = [0, 0, 2, 489, 0, 0, 0]"] ;
679 -> 683 ;
684 [label="gini = 0.0\nsamples = 419\nvalue = [0, 0, 0, 419, 0, 0, 0]"] ;
683 -> 684 ;
685 [label="X[9] <= -0.822\ngini = 0.054\nsamples = 72\nvalue = [0, 0, 2, 70, 0, 0, 0]"] ;
683 -> 685 ;
686 [label="X[1] <= -0.215\ngini = 0.5\nsamples = 4\nvalue = [0, 0, 2, 2, 0, 0, 0]"] ;
685 -> 686 ;
687 [label="gini = 0.0\nsamples = 2\nvalue = [0, 0, 2, 0, 0, 0, 0]"] ;
686 -> 687 ;
688 [label="gini = 0.0\nsamples = 2\nvalue = [0, 0, 0, 2, 0, 0, 0]"] ;
686 -> 688 ;
689 [label="gini = 0.0\nsamples = 68\nvalue = [0, 0, 0, 68, 0, 0, 0]"] ;
685 -> 689 ;
690 [label="X[4] <= 0.125\ngini = 0.32\nsamples = 5\nvalue = [0, 0, 1, 4, 0, 0, 0]"] ;
674 -> 690 ;
691 [label="gini = 0.0\nsamples = 1\nvalue = [0, 0, 1, 0, 0, 0, 0]"] ;
690 -> 691 ;
692 [label="gini = 0.0\nsamples = 4\nvalue = [0, 0, 0, 4, 0, 0, 0]"] ;
690 -> 692 ;
693 [label="X[0] <= -1.327\ngini = 0.444\nsamples = 12\nvalue = [0, 0, 8, 4, 0, 0, 0]"] ;
661 -> 693 ;
694 [label="gini = 0.0\nsamples = 4\nvalue = [0, 0, 0, 4, 0, 0, 0]"] ;
693 -> 694 ;
695 [label="gini = 0.0\nsamples = 8\nvalue = [0, 0, 8, 0, 0, 0, 0]"] ;
693 -> 695 ;
696 [label="X[9] <= -0.309\ngini = 0.452\nsamples = 156\nvalue = [0, 0, 43, 107, 0, 6, 0]"] ;
660 -> 696 ;
697 [label="X[9] <= -0.756\ngini = 0.545\nsamples = 75\nvalue = [0, 0, 43, 26, 0, 6, 0]"] ;
696 -> 697 ;
698 [label="X[3] <= 0.199\ngini = 0.558\nsamples = 35\nvalue = [0, 0, 8, 21, 0, 6, 0]"] ;
697 -> 698 ;
699 [label="X[12] <= 0.175\ngini = 0.497\nsamples = 13\nvalue = [0, 0, 7, 0, 0, 6, 0]"] ;
698 -> 699 ;
700 [label="gini = 0.0\nsamples = 7\nvalue = [0, 0, 7, 0, 0, 0, 0]"] ;
699 -> 700 ;
701 [label="gini = 0.0\nsamples = 6\nvalue = [0, 0, 0, 0, 0, 6, 0]"] ;
699 -> 701 ;
702 [label="X[5] <= -0.31\ngini = 0.087\nsamples = 22\nvalue = [0, 0, 1, 21, 0, 0, 0]"] ;
698 -> 702 ;
703 [label="gini = 0.0\nsamples = 21\nvalue = [0, 0, 0, 21, 0, 0, 0]"] ;
702 -> 703 ;
704 [label="gini = 0.0\nsamples = 1\nvalue = [0, 0, 1, 0, 0, 0, 0]"] ;
702 -> 704 ;
705 [label="X[7] <= 1.187\ngini = 0.219\nsamples = 40\nvalue = [0, 0, 35, 5, 0, 0, 0]"] ;
697 -> 705 ;
706 [label="X[4] <= 1.503\ngini = 0.054\nsamples = 36\nvalue = [0, 0, 35, 1, 0, 0, 0]"] ;
705 -> 706 ;
707 [label="gini = 0.0\nsamples = 35\nvalue = [0, 0, 35, 0, 0, 0, 0]"] ;
706 -> 707 ;
708 [label="gini = 0.0\nsamples = 1\nvalue = [0, 0, 0, 1, 0, 0, 0]"] ;
706 -> 708 ;
709 [label="gini = 0.0\nsamples = 4\nvalue = [0, 0, 0, 4, 0, 0, 0]"] ;
705 -> 709 ;
710 [label="gini = 0.0\nsamples = 81\nvalue = [0, 0, 0, 81, 0, 0, 0]"] ;
696 -> 710 ;
711 [label="X[10] <= 0.607\ngini = 0.661\nsamples = 2547\nvalue = [6, 227, 967, 54, 213, 1080, 0]"] ;
1 -> 711 ;
712 [label="X[17] <= 1.958\ngini = 0.612\nsamples = 2347\nvalue = [3, 103, 967, 54, 140, 1080, 0]"] ;
711 -> 712 ;
713 [label="X[15] <= 2.283\ngini = 0.61\nsamples = 1948\nvalue = [3, 97, 646, 54, 132, 1016, 0]"] ;
712 -> 713 ;
714 [label="X[16] <= 1.767\ngini = 0.576\nsamples = 1612\nvalue = [3, 90, 455, 54, 72, 938, 0]"] ;
713 -> 714 ;
715 [label="X[13] <= 0.408\ngini = 0.556\nsamples = 1520\nvalue = [3, 81, 381, 52, 72, 931, 0]"] ;
714 -> 715 ;
716 [label="X[24] <= 2.924\ngini = 0.497\nsamples = 804\nvalue = [3, 62, 117, 0, 72, 550, 0]"] ;
715 -> 716 ;
717 [label="X[0] <= -0.338\ngini = 0.404\nsamples = 691\nvalue = [2, 40, 80, 0, 45, 524, 0]"] ;
716 -> 717 ;
718 [label="X[3] <= 0.044\ngini = 0.313\nsamples = 499\nvalue = [1, 15, 71, 0, 5, 407, 0]"] ;
717 -> 718 ;
719 [label="X[9] <= -0.989\ngini = 0.263\nsamples = 452\nvalue = [1, 8, 55, 0, 4, 384, 0]"] ;
718 -> 719 ;
720 [label="X[23] <= 1.04\ngini = 0.472\nsamples = 21\nvalue = [0, 0, 13, 0, 0, 8, 0]"] ;
719 -> 720 ;
721 [label="gini = 0.0\nsamples = 6\nvalue = [0, 0, 0, 0, 0, 6, 0]"] ;
720 -> 721 ;
722 [label="X[0] <= -0.775\ngini = 0.231\nsamples = 15\nvalue = [0, 0, 13, 0, 0, 2, 0]"] ;
720 -> 722 ;
723 [label="gini = 0.0\nsamples = 2\nvalue = [0, 0, 0, 0, 0, 2, 0]"] ;
722 -> 723 ;
724 [label="gini = 0.0\nsamples = 13\nvalue = [0, 0, 13, 0, 0, 0, 0]"] ;
722 -> 724 ;
725 [label="X[41] <= 18.968\ngini = 0.229\nsamples = 431\nvalue = [1, 8, 42, 0, 4, 376, 0]"] ;
719 -> 725 ;
726 [label="X[7] <= 0.601\ngini = 0.222\nsamples = 429\nvalue = [1, 6, 42, 0, 4, 376, 0]"] ;
725 -> 726 ;
727 [label="X[3] <= -0.337\ngini = 0.177\nsamples = 353\nvalue = [0, 5, 28, 0, 1, 319, 0]"] ;
726 -> 727 ;
728 [label="X[9] <= -0.915\ngini = 0.127\nsamples = 283\nvalue = [0, 3, 15, 0, 1, 264, 0]"] ;
727 -> 728 ;
729 [label="X[7] <= -0.377\ngini = 0.397\nsamples = 11\nvalue = [0, 0, 3, 0, 0, 8, 0]"] ;
728 -> 729 ;
730 [label="X[9] <= -0.982\ngini = 0.375\nsamples = 4\nvalue = [0, 0, 3, 0, 0, 1, 0]"] ;
729 -> 730 ;
731 [label="gini = 0.0\nsamples = 1\nvalue = [0, 0, 0, 0, 0, 1, 0]"] ;
730 -> 731 ;
732 [label="gini = 0.0\nsamples = 3\nvalue = [0, 0, 3, 0, 0, 0, 0]"] ;
730 -> 732 ;
733 [label="gini = 0.0\nsamples = 7\nvalue = [0, 0, 0, 0, 0, 7, 0]"] ;
729 -> 733 ;
734 [label="X[1] <= -0.614\ngini = 0.112\nsamples = 272\nvalue = [0, 3, 12, 0, 1, 256, 0]"] ;
728 -> 734 ;
735 [label="X[6] <= 1.042\ngini = 0.159\nsamples = 175\nvalue = [0, 2, 12, 0, 1, 160, 0]"] ;
734 -> 735 ;
736 [label="X[5] <= -0.393\ngini = 0.15\nsamples = 174\nvalue = [0, 2, 11, 0, 1, 160, 0]"] ;
735 -> 736 ;
737 [label="X[6] <= 0.65\ngini = 0.058\nsamples = 101\nvalue = [0, 1, 2, 0, 0, 98, 0]"] ;
736 -> 737 ;
738 [label="X[5] <= -1.115\ngini = 0.021\nsamples = 94\nvalue = [0, 0, 1, 0, 0, 93, 0]"] ;
737 -> 738 ;
739 [label="X[9] <= -0.269\ngini = 0.32\nsamples = 5\nvalue = [0, 0, 1, 0, 0, 4, 0]"] ;
738 -> 739 ;
740 [label="gini = 0.0\nsamples = 1\nvalue = [0, 0, 1, 0, 0, 0, 0]"] ;
739 -> 740 ;
741 [label="gini = 0.0\nsamples = 4\nvalue = [0, 0, 0, 0, 0, 4, 0]"] ;
739 -> 741 ;
742 [label="gini = 0.0\nsamples = 89\nvalue = [0, 0, 0, 0, 0, 89, 0]"] ;
738 -> 742 ;
743 [label="X[0] <= -0.682\ngini = 0.449\nsamples = 7\nvalue = [0, 1, 1, 0, 0, 5, 0]"] ;
737 -> 743 ;
744 [label="gini = 0.0\nsamples = 5\nvalue = [0, 0, 0, 0, 0, 5, 0]"] ;
743 -> 744 ;
745 [label="X[6] <= 0.699\ngini = 0.5\nsamples = 2\nvalue = [0, 1, 1, 0, 0, 0, 0]"] ;
743 -> 745 ;
746 [label="gini = 0.0\nsamples = 1\nvalue = [0, 0, 1, 0, 0, 0, 0]"] ;
745 -> 746 ;
747 [label="gini = 0.0\nsamples = 1\nvalue = [0, 1, 0, 0, 0, 0, 0]"] ;
745 -> 747 ;
748 [label="X[0] <= -0.712\ngini = 0.263\nsamples = 73\nvalue = [0, 1, 9, 0, 1, 62, 0]"] ;
736 -> 748 ;
749 [label="gini = 0.0\nsamples = 4\nvalue = [0, 0, 4, 0, 0, 0, 0]"] ;
748 -> 749 ;
750 [label="X[5] <= -0.185\ngini = 0.187\nsamples = 69\nvalue = [0, 1, 5, 0, 1, 62, 0]"] ;
748 -> 750 ;
751 [label="X[8] <= 0.256\ngini = 0.451\nsamples = 24\nvalue = [0, 1, 5, 0, 1, 17, 0]"] ;
750 -> 751 ;
752 [label="X[0] <= -0.389\ngini = 0.38\nsamples = 22\nvalue = [0, 1, 3, 0, 1, 17, 0]"] ;
751 -> 752 ;
753 [label="X[8] <= -1.141\ngini = 0.255\nsamples = 20\nvalue = [0, 0, 3, 0, 0, 17, 0]"] ;
752 -> 753 ;
754 [label="gini = 0.0\nsamples = 1\nvalue = [0, 0, 1, 0, 0, 0, 0]"] ;
753 -> 754 ;
755 [label="X[5] <= -0.228\ngini = 0.188\nsamples = 19\nvalue = [0, 0, 2, 0, 0, 17, 0]"] ;
753 -> 755 ;
756 [label="X[2] <= -0.488\ngini = 0.105\nsamples = 18\nvalue = [0, 0, 1, 0, 0, 17, 0]"] ;
755 -> 756 ;
757 [label="X[8] <= -0.123\ngini = 0.444\nsamples = 3\nvalue = [0, 0, 1, 0, 0, 2, 0]"] ;
756 -> 757 ;
758 [label="gini = 0.0\nsamples = 1\nvalue = [0, 0, 1, 0, 0, 0, 0]"] ;
757 -> 758 ;
759 [label="gini = 0.0\nsamples = 2\nvalue = [0, 0, 0, 0, 0, 2, 0]"] ;
757 -> 759 ;
760 [label="gini = 0.0\nsamples = 15\nvalue = [0, 0, 0, 0, 0, 15, 0]"] ;
756 -> 760 ;
761 [label="gini = 0.0\nsamples = 1\nvalue = [0, 0, 1, 0, 0, 0, 0]"] ;
755 -> 761 ;
762 [label="X[7] <= -0.333\ngini = 0.5\nsamples = 2\nvalue = [0, 1, 0, 0, 1, 0, 0]"] ;
752 -> 762 ;
763 [label="gini = 0.0\nsamples = 1\nvalue = [0, 0, 0, 0, 1, 0, 0]"] ;
762 -> 763 ;
764 [label="gini = 0.0\nsamples = 1\nvalue = [0, 1, 0, 0, 0, 0, 0]"] ;
762 -> 764 ;
765 [label="gini = 0.0\nsamples = 2\nvalue = [0, 0, 2, 0, 0, 0, 0]"] ;
751 -> 765 ;
766 [label="gini = 0.0\nsamples = 45\nvalue = [0, 0, 0, 0, 0, 45, 0]"] ;
750 -> 766 ;
767 [label="gini = 0.0\nsamples = 1\nvalue = [0, 0, 1, 0, 0, 0, 0]"] ;
735 -> 767 ;
768 [label="X[8] <= 1.87\ngini = 0.02\nsamples = 97\nvalue = [0, 1, 0, 0, 0, 96, 0]"] ;
734 -> 768 ;
769 [label="gini = 0.0\nsamples = 94\nvalue = [0, 0, 0, 0, 0, 94, 0]"] ;
768 -> 769 ;
770 [label="X[4] <= 0.263\ngini = 0.444\nsamples = 3\nvalue = [0, 1, 0, 0, 0, 2, 0]"] ;
768 -> 770 ;
771 [label="gini = 0.0\nsamples = 2\nvalue = [0, 0, 0, 0, 0, 2, 0]"] ;
770 -> 771 ;
772 [label="gini = 0.0\nsamples = 1\nvalue = [0, 1, 0, 0, 0, 0, 0]"] ;
770 -> 772 ;
773 [label="X[4] <= 0.457\ngini = 0.347\nsamples = 70\nvalue = [0, 2, 13, 0, 0, 55, 0]"] ;
727 -> 773 ;
774 [label="X[9] <= 0.083\ngini = 0.441\nsamples = 50\nvalue = [0, 2, 13, 0, 0, 35, 0]"] ;
773 -> 774 ;
775 [label="X[4] <= -0.151\ngini = 0.394\nsamples = 44\nvalue = [0, 2, 9, 0, 0, 33, 0]"] ;
774 -> 775 ;
776 [label="X[9] <= -0.249\ngini = 0.526\nsamples = 19\nvalue = [0, 1, 7, 0, 0, 11, 0]"] ;
775 -> 776 ;
777 [label="X[5] <= -0.183\ngini = 0.463\nsamples = 11\nvalue = [0, 0, 7, 0, 0, 4, 0]"] ;
776 -> 777 ;
778 [label="X[5] <= -1.106\ngini = 0.346\nsamples = 9\nvalue = [0, 0, 7, 0, 0, 2, 0]"] ;
777 -> 778 ;
779 [label="gini = 0.0\nsamples = 1\nvalue = [0, 0, 0, 0, 0, 1, 0]"] ;
778 -> 779 ;
780 [label="X[4] <= -0.248\ngini = 0.219\nsamples = 8\nvalue = [0, 0, 7, 0, 0, 1, 0]"] ;
778 -> 780 ;
781 [label="gini = 0.0\nsamples = 5\nvalue = [0, 0, 5, 0, 0, 0, 0]"] ;
780 -> 781 ;
782 [label="X[7] <= -1.441\ngini = 0.444\nsamples = 3\nvalue = [0, 0, 2, 0, 0, 1, 0]"] ;
780 -> 782 ;
783 [label="gini = 0.0\nsamples = 1\nvalue = [0, 0, 0, 0, 0, 1, 0]"] ;
782 -> 783 ;
784 [label="gini = 0.0\nsamples = 2\nvalue = [0, 0, 2, 0, 0, 0, 0]"] ;
782 -> 784 ;
785 [label="gini = 0.0\nsamples = 2\nvalue = [0, 0, 0, 0, 0, 2, 0]"] ;
777 -> 785 ;
786 [label="X[5] <= -0.531\ngini = 0.219\nsamples = 8\nvalue = [0, 1, 0, 0, 0, 7, 0]"] ;
776 -> 786 ;
787 [label="gini = 0.0\nsamples = 7\nvalue = [0, 0, 0, 0, 0, 7, 0]"] ;
786 -> 787 ;
788 [label="gini = 0.0\nsamples = 1\nvalue = [0, 1, 0, 0, 0, 0, 0]"] ;
786 -> 788 ;
789 [label="X[4] <= 0.441\ngini = 0.218\nsamples = 25\nvalue = [0, 1, 2, 0, 0, 22, 0]"] ;
775 -> 789 ;
790 [label="X[1] <= 1.699\ngini = 0.153\nsamples = 24\nvalue = [0, 0, 2, 0, 0, 22, 0]"] ;
789 -> 790 ;
791 [label="X[9] <= -0.908\ngini = 0.083\nsamples = 23\nvalue = [0, 0, 1, 0, 0, 22, 0]"] ;
790 -> 791 ;
792 [label="X[3] <= -0.217\ngini = 0.444\nsamples = 3\nvalue = [0, 0, 1, 0, 0, 2, 0]"] ;
791 -> 792 ;
793 [label="gini = 0.0\nsamples = 1\nvalue = [0, 0, 1, 0, 0, 0, 0]"] ;
792 -> 793 ;
794 [label="gini = 0.0\nsamples = 2\nvalue = [0, 0, 0, 0, 0, 2, 0]"] ;
792 -> 794 ;
795 [label="gini = 0.0\nsamples = 20\nvalue = [0, 0, 0, 0, 0, 20, 0]"] ;
791 -> 795 ;
796 [label="gini = 0.0\nsamples = 1\nvalue = [0, 0, 1, 0, 0, 0, 0]"] ;
790 -> 796 ;
797 [label="gini = 0.0\nsamples = 1\nvalue = [0, 1, 0, 0, 0, 0, 0]"] ;
789 -> 797 ;
798 [label="X[5] <= -0.237\ngini = 0.444\nsamples = 6\nvalue = [0, 0, 4, 0, 0, 2, 0]"] ;
774 -> 798 ;
799 [label="gini = 0.0\nsamples = 4\nvalue = [0, 0, 4, 0, 0, 0, 0]"] ;
798 -> 799 ;
800 [label="gini = 0.0\nsamples = 2\nvalue = [0, 0, 0, 0, 0, 2, 0]"] ;
798 -> 800 ;
801 [label="gini = 0.0\nsamples = 20\nvalue = [0, 0, 0, 0, 0, 20, 0]"] ;
773 -> 801 ;
802 [label="X[3] <= -1.019\ngini = 0.402\nsamples = 76\nvalue = [1, 1, 14, 0, 3, 57, 0]"] ;
726 -> 802 ;
803 [label="X[0] <= -0.463\ngini = 0.181\nsamples = 31\nvalue = [1, 1, 0, 0, 1, 28, 0]"] ;
802 -> 803 ;
804 [label="gini = 0.0\nsamples = 27\nvalue = [0, 0, 0, 0, 0, 27, 0]"] ;
803 -> 804 ;
805 [label="X[7] <= 0.774\ngini = 0.75\nsamples = 4\nvalue = [1, 1, 0, 0, 1, 1, 0]"] ;
803 -> 805 ;
806 [label="gini = 0.0\nsamples = 1\nvalue = [1, 0, 0, 0, 0, 0, 0]"] ;
805 -> 806 ;
807 [label="X[2] <= -1.313\ngini = 0.667\nsamples = 3\nvalue = [0, 1, 0, 0, 1, 1, 0]"] ;
805 -> 807 ;
808 [label="gini = 0.0\nsamples = 1\nvalue = [0, 0, 0, 0, 0, 1, 0]"] ;
807 -> 808 ;
809 [label="X[6] <= 0.486\ngini = 0.5\nsamples = 2\nvalue = [0, 1, 0, 0, 1, 0, 0]"] ;
807 -> 809 ;
810 [label="gini = 0.0\nsamples = 1\nvalue = [0, 0, 0, 0, 1, 0, 0]"] ;
809 -> 810 ;
811 [label="gini = 0.0\nsamples = 1\nvalue = [0, 1, 0, 0, 0, 0, 0]"] ;
809 -> 811 ;
812 [label="X[0] <= -0.676\ngini = 0.486\nsamples = 45\nvalue = [0, 0, 14, 0, 2, 29, 0]"] ;
802 -> 812 ;
813 [label="X[1] <= 0.915\ngini = 0.444\nsamples = 12\nvalue = [0, 0, 8, 0, 0, 4, 0]"] ;
812 -> 813 ;
814 [label="gini = 0.0\nsamples = 6\nvalue = [0, 0, 6, 0, 0, 0, 0]"] ;
813 -> 814 ;
815 [label="X[2] <= 0.456\ngini = 0.444\nsamples = 6\nvalue = [0, 0, 2, 0, 0, 4, 0]"] ;
813 -> 815 ;
816 [label="gini = 0.0\nsamples = 4\nvalue = [0, 0, 0, 0, 0, 4, 0]"] ;
815 -> 816 ;
817 [label="gini = 0.0\nsamples = 2\nvalue = [0, 0, 2, 0, 0, 0, 0]"] ;
815 -> 817 ;
818 [label="X[5] <= 0.275\ngini = 0.389\nsamples = 33\nvalue = [0, 0, 6, 0, 2, 25, 0]"] ;
812 -> 818 ;
819 [label="X[1] <= 1.291\ngini = 0.226\nsamples = 24\nvalue = [0, 0, 1, 0, 2, 21, 0]"] ;
818 -> 819 ;
820 [label="X[5] <= -0.726\ngini = 0.163\nsamples = 23\nvalue = [0, 0, 1, 0, 1, 21, 0]"] ;
819 -> 820 ;
821 [label="gini = 0.0\nsamples = 1\nvalue = [0, 0, 0, 0, 1, 0, 0]"] ;
820 -> 821 ;
822 [label="X[4] <= -0.88\ngini = 0.087\nsamples = 22\nvalue = [0, 0, 1, 0, 0, 21, 0]"] ;
820 -> 822 ;
823 [label="X[4] <= -0.905\ngini = 0.32\nsamples = 5\nvalue = [0, 0, 1, 0, 0, 4, 0]"] ;
822 -> 823 ;
824 [label="gini = 0.0\nsamples = 4\nvalue = [0, 0, 0, 0, 0, 4, 0]"] ;
823 -> 824 ;
825 [label="gini = 0.0\nsamples = 1\nvalue = [0, 0, 1, 0, 0, 0, 0]"] ;
823 -> 825 ;
826 [label="gini = 0.0\nsamples = 17\nvalue = [0, 0, 0, 0, 0, 17, 0]"] ;
822 -> 826 ;
827 [label="gini = 0.0\nsamples = 1\nvalue = [0, 0, 0, 0, 1, 0, 0]"] ;
819 -> 827 ;
828 [label="X[30] <= 2.32\ngini = 0.494\nsamples = 9\nvalue = [0, 0, 5, 0, 0, 4, 0]"] ;
818 -> 828 ;
829 [label="gini = 0.0\nsamples = 4\nvalue = [0, 0, 0, 0, 0, 4, 0]"] ;
828 -> 829 ;
830 [label="gini = 0.0\nsamples = 5\nvalue = [0, 0, 5, 0, 0, 0, 0]"] ;
828 -> 830 ;
831 [label="gini = 0.0\nsamples = 2\nvalue = [0, 2, 0, 0, 0, 0, 0]"] ;
725 -> 831 ;
832 [label="X[0] <= -0.459\ngini = 0.622\nsamples = 47\nvalue = [0, 7, 16, 0, 1, 23, 0]"] ;
718 -> 832 ;
833 [label="X[5] <= -0.474\ngini = 0.559\nsamples = 26\nvalue = [0, 3, 15, 0, 0, 8, 0]"] ;
832 -> 833 ;
834 [label="X[4] <= 0.984\ngini = 0.622\nsamples = 14\nvalue = [0, 3, 4, 0, 0, 7, 0]"] ;
833 -> 834 ;
835 [label="X[44] <= 3.45\ngini = 0.42\nsamples = 10\nvalue = [0, 3, 0, 0, 0, 7, 0]"] ;
834 -> 835 ;
836 [label="X[1] <= -1.203\ngini = 0.219\nsamples = 8\nvalue = [0, 1, 0, 0, 0, 7, 0]"] ;
835 -> 836 ;
837 [label="X[4] <= 0.773\ngini = 0.5\nsamples = 2\nvalue = [0, 1, 0, 0, 0, 1, 0]"] ;
836 -> 837 ;
838 [label="gini = 0.0\nsamples = 1\nvalue = [0, 1, 0, 0, 0, 0, 0]"] ;
837 -> 838 ;
839 [label="gini = 0.0\nsamples = 1\nvalue = [0, 0, 0, 0, 0, 1, 0]"] ;
837 -> 839 ;
840 [label="gini = 0.0\nsamples = 6\nvalue = [0, 0, 0, 0, 0, 6, 0]"] ;
836 -> 840 ;
841 [label="gini = 0.0\nsamples = 2\nvalue = [0, 2, 0, 0, 0, 0, 0]"] ;
835 -> 841 ;
842 [label="gini = 0.0\nsamples = 4\nvalue = [0, 0, 4, 0, 0, 0, 0]"] ;
834 -> 842 ;
843 [label="X[9] <= -0.378\ngini = 0.153\nsamples = 12\nvalue = [0, 0, 11, 0, 0, 1, 0]"] ;
833 -> 843 ;
844 [label="gini = 0.0\nsamples = 11\nvalue = [0, 0, 11, 0, 0, 0, 0]"] ;
843 -> 844 ;
845 [label="gini = 0.0\nsamples = 1\nvalue = [0, 0, 0, 0, 0, 1, 0]"] ;
843 -> 845 ;
846 [label="X[23] <= 1.04\ngini = 0.449\nsamples = 21\nvalue = [0, 4, 1, 0, 1, 15, 0]"] ;
832 -> 846 ;
847 [label="X[2] <= 1.045\ngini = 0.625\nsamples = 4\nvalue = [0, 2, 1, 0, 1, 0, 0]"] ;
846 -> 847 ;
848 [label="X[46] <= 2.368\ngini = 0.5\nsamples = 2\nvalue = [0, 0, 1, 0, 1, 0, 0]"] ;
847 -> 848 ;
849 [label="gini = 0.0\nsamples = 1\nvalue = [0, 0, 0, 0, 1, 0, 0]"] ;
848 -> 849 ;
850 [label="gini = 0.0\nsamples = 1\nvalue = [0, 0, 1, 0, 0, 0, 0]"] ;
848 -> 850 ;
851 [label="gini = 0.0\nsamples = 2\nvalue = [0, 2, 0, 0, 0, 0, 0]"] ;
847 -> 851 ;
852 [label="X[0] <= -0.361\ngini = 0.208\nsamples = 17\nvalue = [0, 2, 0, 0, 0, 15, 0]"] ;
846 -> 852 ;
853 [label="gini = 0.0\nsamples = 14\nvalue = [0, 0, 0, 0, 0, 14, 0]"] ;
852 -> 853 ;
854 [label="X[8] <= 0.105\ngini = 0.444\nsamples = 3\nvalue = [0, 2, 0, 0, 0, 1, 0]"] ;
852 -> 854 ;
855 [label="gini = 0.0\nsamples = 2\nvalue = [0, 2, 0, 0, 0, 0, 0]"] ;
854 -> 855 ;
856 [label="gini = 0.0\nsamples = 1\nvalue = [0, 0, 0, 0, 0, 1, 0]"] ;
854 -> 856 ;
857 [label="X[7] <= 0.253\ngini = 0.566\nsamples = 192\nvalue = [1, 25, 9, 0, 40, 117, 0]"] ;
717 -> 857 ;
858 [label="X[1] <= -0.863\ngini = 0.377\nsamples = 118\nvalue = [1, 19, 2, 0, 5, 91, 0]"] ;
857 -> 858 ;
859 [label="X[9] <= 0.219\ngini = 0.593\nsamples = 47\nvalue = [1, 14, 1, 0, 5, 26, 0]"] ;
858 -> 859 ;
860 [label="X[9] <= -0.072\ngini = 0.571\nsamples = 23\nvalue = [0, 12, 1, 0, 1, 9, 0]"] ;
859 -> 860 ;
861 [label="X[4] <= -0.694\ngini = 0.578\nsamples = 16\nvalue = [0, 5, 1, 0, 1, 9, 0]"] ;
860 -> 861 ;
862 [label="X[6] <= -0.07\ngini = 0.375\nsamples = 4\nvalue = [0, 3, 0, 0, 1, 0, 0]"] ;
861 -> 862 ;
863 [label="gini = 0.0\nsamples = 1\nvalue = [0, 0, 0, 0, 1, 0, 0]"] ;
862 -> 863 ;
864 [label="gini = 0.0\nsamples = 3\nvalue = [0, 3, 0, 0, 0, 0, 0]"] ;
862 -> 864 ;
865 [label="X[5] <= 0.016\ngini = 0.403\nsamples = 12\nvalue = [0, 2, 1, 0, 0, 9, 0]"] ;
861 -> 865 ;
866 [label="X[2] <= 0.338\ngini = 0.314\nsamples = 11\nvalue = [0, 1, 1, 0, 0, 9, 0]"] ;
865 -> 866 ;
867 [label="X[6] <= -0.168\ngini = 0.667\nsamples = 3\nvalue = [0, 1, 1, 0, 0, 1, 0]"] ;
866 -> 867 ;
868 [label="gini = 0.0\nsamples = 1\nvalue = [0, 0, 1, 0, 0, 0, 0]"] ;
867 -> 868 ;
869 [label="X[0] <= -0.241\ngini = 0.5\nsamples = 2\nvalue = [0, 1, 0, 0, 0, 1, 0]"] ;
867 -> 869 ;
870 [label="gini = 0.0\nsamples = 1\nvalue = [0, 0, 0, 0, 0, 1, 0]"] ;
869 -> 870 ;
871 [label="gini = 0.0\nsamples = 1\nvalue = [0, 1, 0, 0, 0, 0, 0]"] ;
869 -> 871 ;
872 [label="gini = 0.0\nsamples = 8\nvalue = [0, 0, 0, 0, 0, 8, 0]"] ;
866 -> 872 ;
873 [label="gini = 0.0\nsamples = 1\nvalue = [0, 1, 0, 0, 0, 0, 0]"] ;
865 -> 873 ;
874 [label="gini = 0.0\nsamples = 7\nvalue = [0, 7, 0, 0, 0, 0, 0]"] ;
860 -> 874 ;
875 [label="X[5] <= -0.252\ngini = 0.462\nsamples = 24\nvalue = [1, 2, 0, 0, 4, 17, 0]"] ;
859 -> 875 ;
876 [label="X[3] <= -0.919\ngini = 0.32\nsamples = 5\nvalue = [0, 1, 0, 0, 4, 0, 0]"] ;
875 -> 876 ;
877 [label="gini = 0.0\nsamples = 4\nvalue = [0, 0, 0, 0, 4, 0, 0]"] ;
876 -> 877 ;
878 [label="gini = 0.0\nsamples = 1\nvalue = [0, 1, 0, 0, 0, 0, 0]"] ;
876 -> 878 ;
879 [label="X[5] <= 0.54\ngini = 0.194\nsamples = 19\nvalue = [1, 1, 0, 0, 0, 17, 0]"] ;
875 -> 879 ;
880 [label="gini = 0.0\nsamples = 17\nvalue = [0, 0, 0, 0, 0, 17, 0]"] ;
879 -> 880 ;
881 [label="X[0] <= -0.255\ngini = 0.5\nsamples = 2\nvalue = [1, 1, 0, 0, 0, 0, 0]"] ;
879 -> 881 ;
882 [label="gini = 0.0\nsamples = 1\nvalue = [0, 1, 0, 0, 0, 0, 0]"] ;
881 -> 882 ;
883 [label="gini = 0.0\nsamples = 1\nvalue = [1, 0, 0, 0, 0, 0, 0]"] ;
881 -> 883 ;
884 [label="X[8] <= -2.137\ngini = 0.157\nsamples = 71\nvalue = [0, 5, 1, 0, 0, 65, 0]"] ;
858 -> 884 ;
885 [label="X[1] <= -0.405\ngini = 0.5\nsamples = 2\nvalue = [0, 1, 1, 0, 0, 0, 0]"] ;
884 -> 885 ;
886 [label="gini = 0.0\nsamples = 1\nvalue = [0, 0, 1, 0, 0, 0, 0]"] ;
885 -> 886 ;
887 [label="gini = 0.0\nsamples = 1\nvalue = [0, 1, 0, 0, 0, 0, 0]"] ;
885 -> 887 ;
888 [label="X[3] <= 0.654\ngini = 0.109\nsamples = 69\nvalue = [0, 4, 0, 0, 0, 65, 0]"] ;
884 -> 888 ;
889 [label="X[5] <= 0.527\ngini = 0.084\nsamples = 68\nvalue = [0, 3, 0, 0, 0, 65, 0]"] ;
888 -> 889 ;
890 [label="X[5] <= -0.6\ngini = 0.058\nsamples = 67\nvalue = [0, 2, 0, 0, 0, 65, 0]"] ;
889 -> 890 ;
891 [label="X[9] <= -0.613\ngini = 0.444\nsamples = 3\nvalue = [0, 1, 0, 0, 0, 2, 0]"] ;
890 -> 891 ;
892 [label="gini = 0.0\nsamples = 2\nvalue = [0, 0, 0, 0, 0, 2, 0]"] ;
891 -> 892 ;
893 [label="gini = 0.0\nsamples = 1\nvalue = [0, 1, 0, 0, 0, 0, 0]"] ;
891 -> 893 ;
894 [label="X[0] <= -0.177\ngini = 0.031\nsamples = 64\nvalue = [0, 1, 0, 0, 0, 63, 0]"] ;
890 -> 894 ;
895 [label="gini = 0.0\nsamples = 60\nvalue = [0, 0, 0, 0, 0, 60, 0]"] ;
894 -> 895 ;
896 [label="X[9] <= -0.125\ngini = 0.375\nsamples = 4\nvalue = [0, 1, 0, 0, 0, 3, 0]"] ;
894 -> 896 ;
897 [label="gini = 0.0\nsamples = 1\nvalue = [0, 1, 0, 0, 0, 0, 0]"] ;
896 -> 897 ;
898 [label="gini = 0.0\nsamples = 3\nvalue = [0, 0, 0, 0, 0, 3, 0]"] ;
896 -> 898 ;
899 [label="gini = 0.0\nsamples = 1\nvalue = [0, 1, 0, 0, 0, 0, 0]"] ;
889 -> 899 ;
900 [label="gini = 0.0\nsamples = 1\nvalue = [0, 1, 0, 0, 0, 0, 0]"] ;
888 -> 900 ;
901 [label="X[5] <= -0.157\ngini = 0.637\nsamples = 74\nvalue = [0, 6, 7, 0, 35, 26, 0]"] ;
857 -> 901 ;
902 [label="X[4] <= -0.426\ngini = 0.4\nsamples = 45\nvalue = [0, 3, 1, 0, 34, 7, 0]"] ;
901 -> 902 ;
903 [label="X[8] <= 1.88\ngini = 0.106\nsamples = 36\nvalue = [0, 1, 1, 0, 34, 0, 0]"] ;
902 -> 903 ;
904 [label="X[7] <= 1.317\ngini = 0.056\nsamples = 35\nvalue = [0, 0, 1, 0, 34, 0, 0]"] ;
903 -> 904 ;
905 [label="gini = 0.0\nsamples = 34\nvalue = [0, 0, 0, 0, 34, 0, 0]"] ;
904 -> 905 ;
906 [label="gini = 0.0\nsamples = 1\nvalue = [0, 0, 1, 0, 0, 0, 0]"] ;
904 -> 906 ;
907 [label="gini = 0.0\nsamples = 1\nvalue = [0, 1, 0, 0, 0, 0, 0]"] ;
903 -> 907 ;
908 [label="X[46] <= 2.368\ngini = 0.346\nsamples = 9\nvalue = [0, 2, 0, 0, 0, 7, 0]"] ;
902 -> 908 ;
909 [label="X[0] <= -0.282\ngini = 0.444\nsamples = 3\nvalue = [0, 2, 0, 0, 0, 1, 0]"] ;
908 -> 909 ;
910 [label="gini = 0.0\nsamples = 2\nvalue = [0, 2, 0, 0, 0, 0, 0]"] ;
909 -> 910 ;
911 [label="gini = 0.0\nsamples = 1\nvalue = [0, 0, 0, 0, 0, 1, 0]"] ;
909 -> 911 ;
912 [label="gini = 0.0\nsamples = 6\nvalue = [0, 0, 0, 0, 0, 6, 0]"] ;
908 -> 912 ;
913 [label="X[0] <= -0.203\ngini = 0.516\nsamples = 29\nvalue = [0, 3, 6, 0, 1, 19, 0]"] ;
901 -> 913 ;
914 [label="X[4] <= -0.491\ngini = 0.33\nsamples = 24\nvalue = [0, 0, 5, 0, 0, 19, 0]"] ;
913 -> 914 ;
915 [label="X[5] <= 0.178\ngini = 0.105\nsamples = 18\nvalue = [0, 0, 1, 0, 0, 17, 0]"] ;
914 -> 915 ;
916 [label="X[7] <= 0.796\ngini = 0.5\nsamples = 2\nvalue = [0, 0, 1, 0, 0, 1, 0]"] ;
915 -> 916 ;
917 [label="gini = 0.0\nsamples = 1\nvalue = [0, 0, 0, 0, 0, 1, 0]"] ;
916 -> 917 ;
918 [label="gini = 0.0\nsamples = 1\nvalue = [0, 0, 1, 0, 0, 0, 0]"] ;
916 -> 918 ;
919 [label="gini = 0.0\nsamples = 16\nvalue = [0, 0, 0, 0, 0, 16, 0]"] ;
915 -> 919 ;
920 [label="X[5] <= 0.067\ngini = 0.444\nsamples = 6\nvalue = [0, 0, 4, 0, 0, 2, 0]"] ;
914 -> 920 ;
921 [label="X[1] <= 1.332\ngini = 0.444\nsamples = 3\nvalue = [0, 0, 1, 0, 0, 2, 0]"] ;
920 -> 921 ;
922 [label="gini = 0.0\nsamples = 2\nvalue = [0, 0, 0, 0, 0, 2, 0]"] ;
921 -> 922 ;
923 [label="gini = 0.0\nsamples = 1\nvalue = [0, 0, 1, 0, 0, 0, 0]"] ;
921 -> 923 ;
924 [label="gini = 0.0\nsamples = 3\nvalue = [0, 0, 3, 0, 0, 0, 0]"] ;
920 -> 924 ;
925 [label="X[8] <= 0.018\ngini = 0.56\nsamples = 5\nvalue = [0, 3, 1, 0, 1, 0, 0]"] ;
913 -> 925 ;
926 [label="X[4] <= -0.524\ngini = 0.5\nsamples = 2\nvalue = [0, 0, 1, 0, 1, 0, 0]"] ;
925 -> 926 ;
927 [label="gini = 0.0\nsamples = 1\nvalue = [0, 0, 1, 0, 0, 0, 0]"] ;
926 -> 927 ;
928 [label="gini = 0.0\nsamples = 1\nvalue = [0, 0, 0, 0, 1, 0, 0]"] ;
926 -> 928 ;
929 [label="gini = 0.0\nsamples = 3\nvalue = [0, 3, 0, 0, 0, 0, 0]"] ;
925 -> 929 ;
930 [label="X[0] <= -0.344\ngini = 0.745\nsamples = 113\nvalue = [1, 22, 37, 0, 27, 26, 0]"] ;
716 -> 930 ;
931 [label="X[4] <= -0.532\ngini = 0.707\nsamples = 68\nvalue = [0, 11, 9, 0, 24, 24, 0]"] ;
930 -> 931 ;
932 [label="X[3] <= 0.125\ngini = 0.441\nsamples = 26\nvalue = [0, 2, 2, 0, 3, 19, 0]"] ;
931 -> 932 ;
933 [label="X[7] <= 0.731\ngini = 0.306\nsamples = 23\nvalue = [0, 1, 2, 0, 1, 19, 0]"] ;
932 -> 933 ;
934 [label="X[9] <= 0.864\ngini = 0.177\nsamples = 21\nvalue = [0, 1, 0, 0, 1, 19, 0]"] ;
933 -> 934 ;
935 [label="X[3] <= -0.236\ngini = 0.1\nsamples = 19\nvalue = [0, 0, 0, 0, 1, 18, 0]"] ;
934 -> 935 ;
936 [label="gini = 0.0\nsamples = 15\nvalue = [0, 0, 0, 0, 0, 15, 0]"] ;
935 -> 936 ;
937 [label="X[8] <= -0.014\ngini = 0.375\nsamples = 4\nvalue = [0, 0, 0, 0, 1, 3, 0]"] ;
935 -> 937 ;
938 [label="gini = 0.0\nsamples = 3\nvalue = [0, 0, 0, 0, 0, 3, 0]"] ;
937 -> 938 ;
939 [label="gini = 0.0\nsamples = 1\nvalue = [0, 0, 0, 0, 1, 0, 0]"] ;
937 -> 939 ;
940 [label="X[7] <= 0.21\ngini = 0.5\nsamples = 2\nvalue = [0, 1, 0, 0, 0, 1, 0]"] ;
934 -> 940 ;
941 [label="gini = 0.0\nsamples = 1\nvalue = [0, 1, 0, 0, 0, 0, 0]"] ;
940 -> 941 ;
942 [label="gini = 0.0\nsamples = 1\nvalue = [0, 0, 0, 0, 0, 1, 0]"] ;
940 -> 942 ;
943 [label="gini = 0.0\nsamples = 2\nvalue = [0, 0, 2, 0, 0, 0, 0]"] ;
933 -> 943 ;
944 [label="X[5] <= -0.539\ngini = 0.444\nsamples = 3\nvalue = [0, 1, 0, 0, 2, 0, 0]"] ;
932 -> 944 ;
945 [label="gini = 0.0\nsamples = 1\nvalue = [0, 1, 0, 0, 0, 0, 0]"] ;
944 -> 945 ;
946 [label="gini = 0.0\nsamples = 2\nvalue = [0, 0, 0, 0, 2, 0, 0]"] ;
944 -> 946 ;
947 [label="X[9] <= -0.416\ngini = 0.662\nsamples = 42\nvalue = [0, 9, 7, 0, 21, 5, 0]"] ;
931 -> 947 ;
948 [label="X[6] <= 0.192\ngini = 0.664\nsamples = 16\nvalue = [0, 5, 6, 0, 0, 5, 0]"] ;
947 -> 948 ;
949 [label="X[0] <= -0.431\ngini = 0.496\nsamples = 11\nvalue = [0, 0, 6, 0, 0, 5, 0]"] ;
948 -> 949 ;
950 [label="X[9] <= -0.637\ngini = 0.278\nsamples = 6\nvalue = [0, 0, 1, 0, 0, 5, 0]"] ;
949 -> 950 ;
951 [label="gini = 0.0\nsamples = 5\nvalue = [0, 0, 0, 0, 0, 5, 0]"] ;
950 -> 951 ;
952 [label="gini = 0.0\nsamples = 1\nvalue = [0, 0, 1, 0, 0, 0, 0]"] ;
950 -> 952 ;
953 [label="gini = 0.0\nsamples = 5\nvalue = [0, 0, 5, 0, 0, 0, 0]"] ;
949 -> 953 ;
954 [label="gini = 0.0\nsamples = 5\nvalue = [0, 5, 0, 0, 0, 0, 0]"] ;
948 -> 954 ;
955 [label="X[0] <= -0.369\ngini = 0.322\nsamples = 26\nvalue = [0, 4, 1, 0, 21, 0, 0]"] ;
947 -> 955 ;
956 [label="X[4] <= 0.076\ngini = 0.226\nsamples = 24\nvalue = [0, 2, 1, 0, 21, 0, 0]"] ;
955 -> 956 ;
957 [label="gini = 0.0\nsamples = 20\nvalue = [0, 0, 0, 0, 20, 0, 0]"] ;
956 -> 957 ;
958 [label="X[5] <= -0.568\ngini = 0.625\nsamples = 4\nvalue = [0, 2, 1, 0, 1, 0, 0]"] ;
956 -> 958 ;
959 [label="X[7] <= 0.514\ngini = 0.5\nsamples = 2\nvalue = [0, 0, 1, 0, 1, 0, 0]"] ;
958 -> 959 ;
960 [label="gini = 0.0\nsamples = 1\nvalue = [0, 0, 0, 0, 1, 0, 0]"] ;
959 -> 960 ;
961 [label="gini = 0.0\nsamples = 1\nvalue = [0, 0, 1, 0, 0, 0, 0]"] ;
959 -> 961 ;
962 [label="gini = 0.0\nsamples = 2\nvalue = [0, 2, 0, 0, 0, 0, 0]"] ;
958 -> 962 ;
963 [label="gini = 0.0\nsamples = 2\nvalue = [0, 2, 0, 0, 0, 0, 0]"] ;
955 -> 963 ;
964 [label="X[3] <= 0.489\ngini = 0.546\nsamples = 45\nvalue = [1, 11, 28, 0, 3, 2, 0]"] ;
930 -> 964 ;
965 [label="X[8] <= 0.462\ngini = 0.641\nsamples = 33\nvalue = [1, 11, 16, 0, 3, 2, 0]"] ;
964 -> 965 ;
966 [label="X[8] <= -0.328\ngini = 0.571\nsamples = 29\nvalue = [1, 10, 16, 0, 0, 2, 0]"] ;
965 -> 966 ;
967 [label="X[8] <= -0.956\ngini = 0.633\nsamples = 16\nvalue = [1, 8, 5, 0, 0, 2, 0]"] ;
966 -> 967 ;
968 [label="X[4] <= -0.605\ngini = 0.48\nsamples = 5\nvalue = [0, 0, 3, 0, 0, 2, 0]"] ;
967 -> 968 ;
969 [label="gini = 0.0\nsamples = 2\nvalue = [0, 0, 0, 0, 0, 2, 0]"] ;
968 -> 969 ;
970 [label="gini = 0.0\nsamples = 3\nvalue = [0, 0, 3, 0, 0, 0, 0]"] ;
968 -> 970 ;
971 [label="X[2] <= -0.488\ngini = 0.43\nsamples = 11\nvalue = [1, 8, 2, 0, 0, 0, 0]"] ;
967 -> 971 ;
972 [label="X[0] <= -0.258\ngini = 0.444\nsamples = 3\nvalue = [0, 1, 2, 0, 0, 0, 0]"] ;
971 -> 972 ;
973 [label="gini = 0.0\nsamples = 1\nvalue = [0, 1, 0, 0, 0, 0, 0]"] ;
972 -> 973 ;
974 [label="gini = 0.0\nsamples = 2\nvalue = [0, 0, 2, 0, 0, 0, 0]"] ;
972 -> 974 ;
975 [label="X[5] <= 1.24\ngini = 0.219\nsamples = 8\nvalue = [1, 7, 0, 0, 0, 0, 0]"] ;
971 -> 975 ;
976 [label="gini = 0.0\nsamples = 7\nvalue = [0, 7, 0, 0, 0, 0, 0]"] ;
975 -> 976 ;
977 [label="gini = 0.0\nsamples = 1\nvalue = [1, 0, 0, 0, 0, 0, 0]"] ;
975 -> 977 ;
978 [label="X[8] <= 0.343\ngini = 0.26\nsamples = 13\nvalue = [0, 2, 11, 0, 0, 0, 0]"] ;
966 -> 978 ;
979 [label="X[5] <= -0.779\ngini = 0.153\nsamples = 12\nvalue = [0, 1, 11, 0, 0, 0, 0]"] ;
978 -> 979 ;
980 [label="gini = 0.0\nsamples = 1\nvalue = [0, 1, 0, 0, 0, 0, 0]"] ;
979 -> 980 ;
981 [label="gini = 0.0\nsamples = 11\nvalue = [0, 0, 11, 0, 0, 0, 0]"] ;
979 -> 981 ;
982 [label="gini = 0.0\nsamples = 1\nvalue = [0, 1, 0, 0, 0, 0, 0]"] ;
978 -> 982 ;
983 [label="X[0] <= -0.252\ngini = 0.375\nsamples = 4\nvalue = [0, 1, 0, 0, 3, 0, 0]"] ;
965 -> 983 ;
984 [label="gini = 0.0\nsamples = 3\nvalue = [0, 0, 0, 0, 3, 0, 0]"] ;
983 -> 984 ;
985 [label="gini = 0.0\nsamples = 1\nvalue = [0, 1, 0, 0, 0, 0, 0]"] ;
983 -> 985 ;
986 [label="gini = 0.0\nsamples = 12\nvalue = [0, 0, 12, 0, 0, 0, 0]"] ;
964 -> 986 ;
987 [label="X[3] <= -1.019\ngini = 0.575\nsamples = 716\nvalue = [0, 19, 264, 52, 0, 381, 0]"] ;
715 -> 987 ;
988 [label="X[8] <= -0.469\ngini = 0.455\nsamples = 46\nvalue = [0, 0, 3, 32, 0, 11, 0]"] ;
987 -> 988 ;
989 [label="gini = 0.0\nsamples = 20\nvalue = [0, 0, 0, 20, 0, 0, 0]"] ;
988 -> 989 ;
990 [label="X[5] <= -0.904\ngini = 0.595\nsamples = 26\nvalue = [0, 0, 3, 12, 0, 11, 0]"] ;
988 -> 990 ;
991 [label="X[9] <= -0.087\ngini = 0.457\nsamples = 17\nvalue = [0, 0, 2, 12, 0, 3, 0]"] ;
990 -> 991 ;
992 [label="X[9] <= -0.37\ngini = 0.245\nsamples = 14\nvalue = [0, 0, 2, 12, 0, 0, 0]"] ;
991 -> 992 ;
993 [label="gini = 0.0\nsamples = 2\nvalue = [0, 0, 2, 0, 0, 0, 0]"] ;
992 -> 993 ;
994 [label="gini = 0.0\nsamples = 12\nvalue = [0, 0, 0, 12, 0, 0, 0]"] ;
992 -> 994 ;
995 [label="gini = 0.0\nsamples = 3\nvalue = [0, 0, 0, 0, 0, 3, 0]"] ;
991 -> 995 ;
996 [label="X[2] <= -0.959\ngini = 0.198\nsamples = 9\nvalue = [0, 0, 1, 0, 0, 8, 0]"] ;
990 -> 996 ;
997 [label="gini = 0.0\nsamples = 1\nvalue = [0, 0, 1, 0, 0, 0, 0]"] ;
996 -> 997 ;
998 [label="gini = 0.0\nsamples = 8\nvalue = [0, 0, 0, 0, 0, 8, 0]"] ;
996 -> 998 ;
999 [label="X[9] <= 0.028\ngini = 0.542\nsamples = 670\nvalue = [0, 19, 261, 20, 0, 370, 0]"] ;
987 -> 999 ;
1000 [label="X[4] <= 2.257\ngini = 0.508\nsamples = 599\nvalue = [0, 19, 212, 6, 0, 362, 0]"] ;
999 -> 1000 ;
1001 [label="X[0] <= -0.542\ngini = 0.493\nsamples = 570\nvalue = [0, 19, 184, 6, 0, 361, 0]"] ;
1000 -> 1001 ;
1002 [label="X[8] <= -1.151\ngini = 0.455\nsamples = 526\nvalue = [0, 11, 152, 6, 0, 357, 0]"] ;
1001 -> 1002 ;
1003 [label="X[0] <= -0.847\ngini = 0.208\nsamples = 34\nvalue = [0, 0, 30, 0, 0, 4, 0]"] ;
1002 -> 1003 ;
1004 [label="gini = 0.0\nsamples = 2\nvalue = [0, 0, 0, 0, 0, 2, 0]"] ;
1003 -> 1004 ;
1005 [label="X[9] <= -0.167\ngini = 0.117\nsamples = 32\nvalue = [0, 0, 30, 0, 0, 2, 0]"] ;
1003 -> 1005 ;
1006 [label="X[3] <= -0.727\ngini = 0.064\nsamples = 30\nvalue = [0, 0, 29, 0, 0, 1, 0]"] ;
1005 -> 1006 ;
1007 [label="X[9] <= -0.481\ngini = 0.32\nsamples = 5\nvalue = [0, 0, 4, 0, 0, 1, 0]"] ;
1006 -> 1007 ;
1008 [label="gini = 0.0\nsamples = 4\nvalue = [0, 0, 4, 0, 0, 0, 0]"] ;
1007 -> 1008 ;
1009 [label="gini = 0.0\nsamples = 1\nvalue = [0, 0, 0, 0, 0, 1, 0]"] ;
1007 -> 1009 ;
1010 [label="gini = 0.0\nsamples = 25\nvalue = [0, 0, 25, 0, 0, 0, 0]"] ;
1006 -> 1010 ;
1011 [label="X[1] <= -0.614\ngini = 0.5\nsamples = 2\nvalue = [0, 0, 1, 0, 0, 1, 0]"] ;
1005 -> 1011 ;
1012 [label="gini = 0.0\nsamples = 1\nvalue = [0, 0, 0, 0, 0, 1, 0]"] ;
1011 -> 1012 ;
1013 [label="gini = 0.0\nsamples = 1\nvalue = [0, 0, 1, 0, 0, 0, 0]"] ;
1011 -> 1013 ;
1014 [label="X[5] <= -1.086\ngini = 0.423\nsamples = 492\nvalue = [0, 11, 122, 6, 0, 353, 0]"] ;
1002 -> 1014 ;
1015 [label="X[9] <= -0.494\ngini = 0.335\nsamples = 20\nvalue = [0, 1, 16, 0, 0, 3, 0]"] ;
1014 -> 1015 ;
1016 [label="X[8] <= 0.949\ngini = 0.111\nsamples = 17\nvalue = [0, 1, 16, 0, 0, 0, 0]"] ;
1015 -> 1016 ;
1017 [label="gini = 0.0\nsamples = 1\nvalue = [0, 1, 0, 0, 0, 0, 0]"] ;
1016 -> 1017 ;
1018 [label="gini = 0.0\nsamples = 16\nvalue = [0, 0, 16, 0, 0, 0, 0]"] ;
1016 -> 1018 ;
1019 [label="gini = 0.0\nsamples = 3\nvalue = [0, 0, 0, 0, 0, 3, 0]"] ;
1015 -> 1019 ;
1020 [label="X[6] <= -2.721\ngini = 0.399\nsamples = 472\nvalue = [0, 10, 106, 6, 0, 350, 0]"] ;
1014 -> 1020 ;
1021 [label="gini = 0.0\nsamples = 7\nvalue = [0, 0, 7, 0, 0, 0, 0]"] ;
1020 -> 1021 ;
1022 [label="X[7] <= -1.267\ngini = 0.388\nsamples = 465\nvalue = [0, 10, 99, 6, 0, 350, 0]"] ;
1020 -> 1022 ;
1023 [label="X[0] <= -0.775\ngini = 0.529\nsamples = 31\nvalue = [0, 1, 14, 0, 0, 16, 0]"] ;
1022 -> 1023 ;
1024 [label="X[5] <= -0.475\ngini = 0.381\nsamples = 21\nvalue = [0, 1, 4, 0, 0, 16, 0]"] ;
1023 -> 1024 ;
1025 [label="X[9] <= -0.173\ngini = 0.204\nsamples = 18\nvalue = [0, 1, 1, 0, 0, 16, 0]"] ;
1024 -> 1025 ;
1026 [label="X[2] <= 0.692\ngini = 0.111\nsamples = 17\nvalue = [0, 0, 1, 0, 0, 16, 0]"] ;
1025 -> 1026 ;
1027 [label="X[9] <= -0.569\ngini = 0.5\nsamples = 2\nvalue = [0, 0, 1, 0, 0, 1, 0]"] ;
1026 -> 1027 ;
1028 [label="gini = 0.0\nsamples = 1\nvalue = [0, 0, 0, 0, 0, 1, 0]"] ;
1027 -> 1028 ;
1029 [label="gini = 0.0\nsamples = 1\nvalue = [0, 0, 1, 0, 0, 0, 0]"] ;
1027 -> 1029 ;
1030 [label="gini = 0.0\nsamples = 15\nvalue = [0, 0, 0, 0, 0, 15, 0]"] ;
1026 -> 1030 ;
1031 [label="gini = 0.0\nsamples = 1\nvalue = [0, 1, 0, 0, 0, 0, 0]"] ;
1025 -> 1031 ;
1032 [label="gini = 0.0\nsamples = 3\nvalue = [0, 0, 3, 0, 0, 0, 0]"] ;
1024 -> 1032 ;
1033 [label="gini = 0.0\nsamples = 10\nvalue = [0, 0, 10, 0, 0, 0, 0]"] ;
1023 -> 1033 ;
1034 [label="X[18] <= 4.876\ngini = 0.369\nsamples = 434\nvalue = [0, 9, 85, 6, 0, 334, 0]"] ;
1022 -> 1034 ;
1035 [label="X[19] <= 2.333\ngini = 0.36\nsamples = 430\nvalue = [0, 9, 82, 5, 0, 334, 0]"] ;
1034 -> 1035 ;
1036 [label="X[5] <= -0.985\ngini = 0.288\nsamples = 262\nvalue = [0, 7, 36, 1, 0, 218, 0]"] ;
1035 -> 1036 ;
1037 [label="X[9] <= -0.462\ngini = 0.494\nsamples = 27\nvalue = [0, 0, 12, 0, 0, 15, 0]"] ;
1036 -> 1037 ;
1038 [label="X[8] <= 0.094\ngini = 0.245\nsamples = 14\nvalue = [0, 0, 12, 0, 0, 2, 0]"] ;
1037 -> 1038 ;
1039 [label="gini = 0.0\nsamples = 2\nvalue = [0, 0, 0, 0, 0, 2, 0]"] ;
1038 -> 1039 ;
1040 [label="gini = 0.0\nsamples = 12\nvalue = [0, 0, 12, 0, 0, 0, 0]"] ;
1038 -> 1040 ;
1041 [label="gini = 0.0\nsamples = 13\nvalue = [0, 0, 0, 0, 0, 13, 0]"] ;
1037 -> 1041 ;
1042 [label="X[7] <= -0.833\ngini = 0.242\nsamples = 235\nvalue = [0, 7, 24, 1, 0, 203, 0]"] ;
1036 -> 1042 ;
1043 [label="X[3] <= -0.107\ngini = 0.401\nsamples = 36\nvalue = [0, 0, 10, 0, 0, 26, 0]"] ;
1042 -> 1043 ;
1044 [label="X[4] <= -0.864\ngini = 0.165\nsamples = 22\nvalue = [0, 0, 2, 0, 0, 20, 0]"] ;
1043 -> 1044 ;
1045 [label="gini = 0.0\nsamples = 1\nvalue = [0, 0, 1, 0, 0, 0, 0]"] ;
1044 -> 1045 ;
1046 [label="X[5] <= -0.844\ngini = 0.091\nsamples = 21\nvalue = [0, 0, 1, 0, 0, 20, 0]"] ;
1044 -> 1046 ;
1047 [label="X[0] <= -0.8\ngini = 0.444\nsamples = 3\nvalue = [0, 0, 1, 0, 0, 2, 0]"] ;
1046 -> 1047 ;
1048 [label="gini = 0.0\nsamples = 1\nvalue = [0, 0, 1, 0, 0, 0, 0]"] ;
1047 -> 1048 ;
1049 [label="gini = 0.0\nsamples = 2\nvalue = [0, 0, 0, 0, 0, 2, 0]"] ;
1047 -> 1049 ;
1050 [label="gini = 0.0\nsamples = 18\nvalue = [0, 0, 0, 0, 0, 18, 0]"] ;
1046 -> 1050 ;
1051 [label="X[1] <= -0.963\ngini = 0.49\nsamples = 14\nvalue = [0, 0, 8, 0, 0, 6, 0]"] ;
1043 -> 1051 ;
1052 [label="X[1] <= -1.394\ngini = 0.444\nsamples = 9\nvalue = [0, 0, 3, 0, 0, 6, 0]"] ;
1051 -> 1052 ;
1053 [label="gini = 0.0\nsamples = 2\nvalue = [0, 0, 2, 0, 0, 0, 0]"] ;
1052 -> 1053 ;
1054 [label="X[3] <= -0.028\ngini = 0.245\nsamples = 7\nvalue = [0, 0, 1, 0, 0, 6, 0]"] ;
1052 -> 1054 ;
1055 [label="gini = 0.0\nsamples = 1\nvalue = [0, 0, 1, 0, 0, 0, 0]"] ;
1054 -> 1055 ;
1056 [label="gini = 0.0\nsamples = 6\nvalue = [0, 0, 0, 0, 0, 6, 0]"] ;
1054 -> 1056 ;
1057 [label="gini = 0.0\nsamples = 5\nvalue = [0, 0, 5, 0, 0, 0, 0]"] ;
1051 -> 1057 ;
1058 [label="X[3] <= -0.49\ngini = 0.203\nsamples = 199\nvalue = [0, 7, 14, 1, 0, 177, 0]"] ;
1042 -> 1058 ;
1059 [label="X[9] <= -0.454\ngini = 0.425\nsamples = 52\nvalue = [0, 3, 10, 1, 0, 38, 0]"] ;
1058 -> 1059 ;
1060 [label="X[3] <= -0.545\ngini = 0.142\nsamples = 26\nvalue = [0, 2, 0, 0, 0, 24, 0]"] ;
1059 -> 1060 ;
1061 [label="X[4] <= -0.743\ngini = 0.077\nsamples = 25\nvalue = [0, 1, 0, 0, 0, 24, 0]"] ;
1060 -> 1061 ;
